-1.61245e-01
2.07838e-01
-2.93739e-01
-2.68699e-01
2.41285e-01
3.13580e-01
2.02458e-01
-3.09468e-01
-2.47100e-01
-3.27378e-01
-1.51658e-01
-1.11402e-01
2.26745e-01
2.72169e-01
1.70012e-01
-2.25561e-01
3.74781e-02
2.06847e-02
-3.31328e-02
-3.41269e-01
1.57220e-01
-9.54862e-02
-3.07070e-01
6.26371e-02
2.13795e-01
-3.05770e-01
9.38652e-02
-2.33332e-01
-2.51562e-01
2.93585e-01
-1.91069e-01
-2.81869e-01
2.43122e-01
3.01960e-01
-2.56283e-01
-1.43490e-01
3.60682e-02
-1.27258e-01
3.71161e-03
3.41353e-02
-3.01918e-01
-7.81357e-02
1.40394e-02
-7.37981e-02
2.77545e-01
-8.42338e-02
8.43949e-02
-1.58405e-01
2.07130e-01
1.12981e-01
-2.70832e-01
2.73214e-01
2.57752e-01
-6.14786e-02
7.24018e-02
-1.81618e-01
2.96885e-01
-2.05079e-01
-1.32954e-01
1.53746e-01
2.91969e-01
-3.60370e-02
2.07618e-01
3.27699e-01
-3.39411e-01
-2.59069e-01
-1.03294e-01
-2.69382e-01
-3.29969e-02
-2.04457e-01
-1.02869e-01
2.14486e-01
-3.06221e-01
-3.79510e-02
7.62067e-02
-3.36667e-01
-1.56681e-01
-2.83514e-01
2.96920e-01
-2.49769e-01
-2.75188e-01
-4.54498e-02
2.41707e-01
1.88943e-01
-3.15206e-01
-2.24697e-01
2.20529e-01
-1.00265e-01
1.80827e-01
-1.17206e-02
-2.84326e-01
1.89556e-01
1.10886e-01
-2.09326e-01
-3.28744e-01
-3.45999e-01
1.14028e-01
9.83384e-02
1.16140e-01
4.85923e-02
3.74898e-02
-1.97805e-01
-4.17613e-02
-3.33026e-01
2.86229e-01
1.34715e-01
-4.52202e-02
2.20551e-01
8.91656e-04
-1.90301e-01
-2.40512e-01
2.72301e-01
-2.33580e-02
8.98243e-02
7.11896e-02
2.90694e-01
2.72869e-02
3.14552e-01
-8.83388e-02
8.37579e-02
-2.12666e-01
1.95851e-01
7.11924e-02
-1.40251e-01
5.63298e-02
1.64335e-02
1.48727e-01
2.92782e-01
-1.63160e-02
-3.46205e-02
2.27812e-01
-2.65353e-01
4.84521e-02
-2.58469e-01
2.65164e-01
4.01708e-02
2.67647e-01
-8.25504e-02
2.10651e-01
-1.27142e-01
-2.54010e-01
-3.14181e-01
-3.30803e-01
-3.03700e-01
1.34255e-02
2.97405e-01
-2.41636e-01
1.52842e-01
1.33068e-01
2.32126e-02
3.07293e-01
3.57326e-02
1.56597e-01
1.36050e-01
2.03638e-01
-1.51598e-02
-6.26582e-02
3.02910e-01
-9.20330e-02
1.55077e-01
-3.15135e-01
-9.72932e-02
1.51223e-01
2.81398e-02
-2.66223e-01
2.04407e-01
3.02168e-01
1.33456e-01
2.01271e-01
-3.71103e-02
3.33086e-01
-2.73612e-01
-2.37354e-01
-3.16782e-01
-1.37498e-01
1.21575e-01
-2.30587e-01
1.78598e-01
-3.11386e-01
9.75641e-02
3.34231e-01
-8.89662e-02
-1.14568e-01
3.43057e-01
1.73070e-01
-1.21041e-01
-2.81419e-01
-2.09565e-01
-3.92708e-02
-2.26839e-01
2.35635e-01
3.43679e-01
2.64675e-01
3.32839e-01
-4.85700e-03
4.61838e-02
3.27716e-01
1.53757e-01
3.14057e-01
-1.84079e-01
2.50726e-02
3.57927e-02
-3.42809e-01
2.92491e-02
-3.04552e-01
-4.79721e-02
3.07003e-01
-2.20697e-01
3.15554e-01
-6.22533e-02
-2.09537e-01
-1.01258e-02
6.85074e-02
2.73042e-01
-6.19033e-03
-1.39924e-01
-2.18125e-01
1.08511e-01
6.70841e-02
2.74863e-01
-2.16782e-01
-1.97329e-01
-9.53183e-02
-1.50381e-01
-3.73715e-03
-1.60989e-01
9.66449e-02
2.55709e-01
1.90487e-01
-1.19496e-01
1.36050e-02
-3.42236e-02
2.97758e-02
1.08017e-01
1.04097e-01
-1.45980e-01
-3.42268e-01
3.35213e-01
3.52533e-02
-8.43246e-02
-2.85597e-01
6.70086e-02
6.26653e-02
-2.91586e-01
-2.36009e-01
2.30804e-01
-2.86251e-01
-8.31944e-02
2.21679e-01
2.49848e-01
2.65446e-01
-6.18019e-02
5.37654e-02
3.44492e-01
3.09678e-02
-3.15786e-01
2.43002e-01
-6.95732e-02
2.59073e-01
2.54017e-01
-2.68576e-01
4.36915e-02
3.03522e-03
8.10252e-02
2.84236e-01
-1.14888e-01
-2.22310e-01
6.50719e-02
1.57319e-01
1.01955e-01
2.86550e-01
-2.81800e-01
-1.17253e-01
-2.06018e-01
3.75122e-02
3.16076e-01
4.16663e-02
-1.34028e-01
1.12357e-01
2.95548e-01
-3.41207e-01
2.01685e-01
-3.89951e-03
-1.73563e-02
1.44426e-01
5.71781e-02
3.06449e-01
8.19401e-02
2.98624e-01
-2.01511e-01
1.49204e-01
5.80249e-02
2.83956e-02
2.40719e-01
-1.93307e-01
-3.13106e-02
-5.39600e-02
-3.09791e-01
-7.60407e-02
1.50951e-01
3.24133e-01
-1.75697e-01
2.14488e-01
-3.29903e-02
-2.29846e-01
-5.45652e-02
-2.88459e-01
-2.49691e-01
-1.48808e-01
2.25356e-01
7.30526e-02
1.20844e-01
3.33521e-01
-5.51609e-02
-2.19318e-01
-1.23573e-01
-1.06318e-01
-2.91776e-02
2.92457e-01
6.23880e-02
-8.34748e-02
3.44511e-01
2.14129e-01
1.23892e-01
-1.54094e-02
-1.15739e-01
1.38423e-01
1.29669e-02
-1.51862e-01
1.70874e-02
-4.36047e-02
2.13022e-01
-6.93491e-02
-9.22749e-02
1.01261e-01
-1.92157e-01
-2.97367e-01
-2.56690e-01
3.17145e-01
1.49984e-01
-2.55524e-01
-1.35012e-01
-2.79772e-01
2.68319e-01
-1.87800e-01
-2.82288e-01
9.93604e-02
1.40154e-01
2.72667e-01
-6.66836e-03
-1.44972e-01
2.87887e-01
-1.38024e-01
3.24088e-01
-8.06769e-02
-3.80087e-02
-2.08631e-01
2.55913e-01
-6.65396e-02
-3.13423e-01
1.24441e-01
-9.62549e-02
2.52985e-01
-4.72971e-02
9.26287e-02
-2.17085e-01
-1.87687e-01
-2.46684e-02
2.29292e-01
1.14633e-01
-2.77828e-01
-6.22492e-02
1.52694e-01
-1.77263e-01
-7.21367e-02
2.25830e-01
2.07329e-01
6.31058e-02
-3.07987e-01
1.92761e-04
-2.69811e-02
-1.06252e-01
7.64464e-02
2.72394e-01
-2.64135e-02
-2.30293e-01
3.33602e-01
-9.09387e-02
2.02168e-01
5.42413e-02
-1.45477e-01
-2.81071e-01
-2.80518e-01
2.22184e-02
-1.80964e-01
-6.68984e-02
-2.52271e-01
-1.62984e-01
2.41630e-01
-1.37227e-01
-2.84026e-01
-5.66667e-02
2.57355e-01
-3.17844e-01
2.10068e-01
3.75103e-02
-3.27884e-01
-1.72101e-01
2.86606e-01
7.81016e-02
3.14344e-01
2.75751e-02
2.67254e-01
2.23531e-01
-1.62419e-01
1.88948e-01
8.17347e-02
7.43809e-02
1.53176e-01
4.07609e-02
-4.29449e-02
-1.86071e-01
3.09784e-01
1.26286e-01
2.71341e-01
1.62278e-01
3.23424e-01
3.44450e-01
-8.52638e-02
-2.91401e-01
-2.55178e-01
3.25516e-03
1.48387e-01
-1.83119e-01
-1.57596e-01
-6.77985e-03
1.50176e-01
2.79398e-01
2.04609e-01
3.57293e-02
-5.80118e-02
1.13277e-01
-1.08578e-01
-2.53525e-01
-2.92882e-01
2.21811e-01
1.70774e-01
3.26021e-01
1.64368e-01
-2.22806e-01
-3.58671e-02
3.06118e-01
-1.22722e-01
1.96979e-01
-2.70629e-01
-2.42279e-01
-5.24547e-02
2.65952e-01
-1.68899e-02
-3.52075e-02
2.54419e-01
3.26223e-01
2.11358e-01
3.33941e-01
-2.13997e-01
-2.51658e-01
2.01147e-01
1.51213e-02
1.19966e-01
2.96049e-01
-1.27779e-01
-2.45410e-01
3.44251e-01
-2.85807e-01
3.33417e-02
-7.02675e-02
-2.16751e-01
2.42926e-01
2.98483e-01
-2.26058e-01
2.50282e-01
1.53820e-01
9.85104e-02
-1.68346e-01
-2.53264e-01
-8.36753e-02
1.03877e-02
-1.62649e-01
-2.82936e-01
9.34588e-02
2.42182e-01
-8.10432e-02
-1.03127e-01
9.56872e-02
2.29769e-01
1.16781e-01
6.41866e-02
3.41444e-01
-1.25712e-03
1.93169e-01
2.43477e-02
3.42447e-01
-1.33383e-01
-3.43489e-01
1.40376e-01
3.08041e-01
-8.43715e-02
-1.06886e-01
-2.38205e-01
-3.10792e-01
1.01734e-01
1.22577e-01
3.01483e-01
-1.33629e-01
-2.62554e-01
2.12531e-01
-9.32167e-02
1.94619e-01
-3.03028e-01
-1.01458e-01
-3.31265e-01
-2.80776e-01
-8.26850e-02
-1.57918e-01
5.53824e-02
-1.76314e-03
-8.31520e-02
3.14942e-01
1.71833e-02
3.29717e-02
-1.95973e-01
-6.07940e-02
-3.73641e-03
-3.13367e-02
2.97624e-01
-2.26805e-01
2.55700e-01
-1.00391e-02
2.64561e-01
-2.82884e-01
-1.12374e-01
-2.74657e-01
1.53914e-01
2.97195e-01
-1.34793e-01
2.34338e-01
5.59638e-02
3.38810e-01
-1.18783e-01
7.08574e-02
6.94295e-02
1.82093e-01
8.60923e-02
-3.38253e-02
3.35612e-01
3.55570e-02
2.36295e-02
1.71878e-01
2.87255e-01
3.43627e-01
1.05292e-02
6.51532e-02
-1.57233e-02
-2.55080e-01
7.35072e-02
6.74571e-02
-1.20262e-01
3.27969e-01
1.18253e-01
-2.64196e-01
3.29402e-01
1.73410e-01
1.91282e-01
-1.57044e-01
3.32148e-01
-1.33119e-01
3.30887e-02
2.68146e-01
-1.82590e-01
-9.75997e-02
-8.75705e-02
-2.16317e-01
1.06435e-01
2.76990e-01
2.11744e-02
-2.99246e-01
-3.06855e-01
7.55450e-02
-2.02656e-01
-1.13880e-02
2.73496e-01
-1.55672e-01
2.24425e-02
-3.03676e-01
-6.10724e-03
2.53779e-01
-1.53973e-01
2.82883e-01
-1.04644e-01
2.14293e-01
-2.18972e-01
-3.05264e-02
2.42500e-01
-3.26529e-02
-1.37833e-01
5.51863e-02
1.97128e-01
-2.62184e-01
1.22250e-01
8.76048e-02
2.13505e-01
-1.83668e-01
6.31413e-03
-1.92655e-01
-7.03593e-02
-1.36490e-01
2.65391e-02
2.90788e-01
3.13698e-01
1.64246e-01
1.08072e-01
1.98670e-01
-8.42351e-03
1.03086e-01
-8.34155e-02
-1.58218e-01
3.75883e-02
-3.06829e-01
2.44517e-01
2.69066e-02
2.54265e-01
2.81339e-01
-2.65993e-01
2.61537e-01
-5.50918e-02
1.83345e-01
-1.89072e-02
3.61588e-02
8.43307e-02
-1.04700e-01
3.45985e-01
6.77272e-02
2.49517e-01
-2.84650e-02
-2.98825e-01
-2.56558e-01
-1.80510e-01
1.01619e-01
-3.03008e-01
-5.00199e-02
3.25798e-01
-2.32984e-01
-1.15990e-01
-1.17253e-01
-2.88636e-01
-1.33383e-01
1.71109e-01
-1.38579e-01
3.17814e-01
1.59339e-01
-3.03595e-02
2.67301e-01
-2.46957e-01
-2.85608e-01
2.29530e-01
1.27494e-01
-1.03299e-01
3.23861e-01
-1.49551e-01
-5.63980e-02
-1.92998e-01
-3.05858e-01
-2.73665e-02
-3.11271e-01
-3.32046e-01
1.93288e-01
2.49577e-02
-2.32925e-01
-2.61009e-02
1.36787e-01
-1.71730e-01
2.50444e-01
1.37466e-01
5.00167e-02
2.54628e-01
2.38610e-02
-3.33396e-02
-6.32461e-02
-1.86288e-01
-2.13974e-01
-4.68622e-02
2.38769e-01
5.65754e-02
6.04662e-03
-3.19435e-01
-1.72560e-01
1.98885e-01
3.43526e-01
2.39236e-01
-3.42524e-01
1.71926e-01
1.43915e-01
1.75781e-01
-1.97803e-01
-6.22392e-02
-1.09854e-03
2.39300e-01
3.32236e-01
9.91333e-02
-2.06474e-01
-3.20493e-01
-1.38013e-01
1.55050e-01
2.08457e-01
-2.90820e-02
3.13433e-01
3.08947e-01
2.33580e-01
2.95377e-01
-1.56250e-01
-2.12746e-01
5.82900e-02
1.70586e-01
3.45608e-01
-1.29424e-01
-1.33729e-01
1.96863e-01
1.11793e-01
3.16232e-01
-1.93689e-01
7.46071e-02
-6.93218e-02
-1.01944e-01
-1.22457e-01
3.39936e-01
-2.92018e-01
3.14988e-01
2.82938e-01
2.11920e-01
4.15813e-02
-7.35959e-02
1.68688e-01
1.39456e-01
3.37147e-01
2.19859e-01
2.43565e-01
-2.43406e-01
-3.08296e-01
-1.47618e-01
1.82028e-01
8.60574e-02
1.61468e-01
-2.78299e-01
7.64146e-02
1.37097e-01
-1.81600e-01
-2.50724e-01
-7.69117e-03
-4.69728e-02
4.16455e-03
3.33261e-02
-1.88131e-01
-4.45957e-02
2.95245e-01
-1.14952e-01
-7.88433e-02
-2.49360e-01
2.83285e-01
-9.67731e-02
-3.02436e-02
3.41970e-01
-3.35965e-01
-1.86200e-01
1.23996e-01
6.74813e-02
-2.61063e-01
1.66373e-01
-7.72965e-02
4.17455e-02
1.52044e-01
-2.08610e-01
1.26263e-01
1.54020e-01
-5.27183e-02
1.31707e-01
1.78640e-01
4.99115e-02
2.04124e-01
1.49677e-02
3.17515e-02
1.57980e-01
-2.84559e-01
-2.33454e-01
2.92341e-02
-1.07603e-01
-2.42150e-01
1.50375e-02
-1.43272e-01
-3.16283e-02
3.08214e-02
-3.37540e-01
1.11628e-01
1.17981e-02
-2.23332e-01
-3.67753e-02
4.62169e-02
1.96211e-01
1.69349e-01
-5.95883e-02
-3.04858e-01
-1.32549e-01
2.58017e-01
-1.48591e-01
3.74868e-02
1.83135e-01
2.37137e-01
-1.91644e-01
-5.98866e-02
-1.27212e-01
3.44362e-01
-2.45850e-01
-1.40325e-01
-6.18542e-02
-2.27848e-01
3.25883e-01
3.33416e-01
-2.12523e-01
-2.47051e-01
-2.88795e-01
1.34454e-01
-2.99690e-01
5.68675e-02
-1.44813e-01
1.03383e-01
2.04161e-01
-4.17408e-02
-1.19834e-01
1.13130e-01
2.16809e-01
-1.62049e-01
2.76160e-01
-9.97795e-02
-2.32146e-01
-1.49602e-01
-2.36312e-01
-1.39466e-01
2.40030e-01
-8.20744e-02
2.65910e-01
2.28585e-01
4.34049e-02
1.74960e-01
2.57996e-01
-1.70884e-01
-2.83452e-01
-3.10829e-02
2.71661e-01
7.59033e-02
-2.59636e-01
-1.49674e-01
9.94620e-02
2.06633e-01
3.07994e-01
-1.50742e-01
-8.77604e-02
3.35939e-01
-2.50549e-01
-5.22480e-02
2.29789e-01
-7.49390e-02
-8.03894e-02
-2.51223e-01
2.35901e-01
-1.37042e-01
-1.81852e-01
2.80801e-01
-1.52764e-01
1.60209e-01
1.76012e-01
-2.55053e-01
-1.72796e-01
1.02501e-02
-3.43849e-01
2.86692e-01
-2.29204e-01
-2.89279e-02
-2.48805e-01
1.60544e-01
-2.97342e-01
3.31844e-01
9.70455e-02
1.87102e-01
2.44615e-01
-1.85656e-01
-1.24452e-01
-4.60264e-02
-2.18012e-01
2.70620e-01
3.07461e-01
-7.85454e-02
-1.12769e-03
-3.42280e-01
-2.88380e-01
-1.64425e-01
2.39410e-01
-2.61799e-01
-3.05100e-01
8.85514e-02
-2.52290e-01
-3.08023e-01
2.14344e-01
-3.24611e-01
-1.50752e-01
-9.00348e-02
-1.81126e-01
5.68246e-02
-2.33899e-01
1.82841e-01
1.10031e-01
4.95067e-02
2.87077e-03
1.33218e-02
2.82565e-01
-3.39736e-01
3.01974e-01
6.26147e-05
-5.12186e-03
1.62311e-01
3.09675e-01
-1.35737e-01
2.88847e-01
1.49180e-01
2.74958e-01
2.17346e-01
9.98822e-02
-2.86209e-01
3.08013e-01
2.44806e-01
-1.67885e-01
-2.76668e-01
2.35742e-01
4.82917e-02
-1.74334e-01
1.91041e-01
2.08214e-01
2.63492e-01
1.60390e-01
-3.06564e-02
3.46996e-02
-1.51971e-01
1.71807e-01
1.62015e-02
2.44841e-01
-1.14077e-01
4.40322e-02
-2.18678e-01
6.54614e-03
3.06457e-01
1.91016e-01
2.91504e-01
2.78429e-01
2.17153e-01
-2.16130e-01
2.33302e-01
2.36806e-01
2.03526e-01
-2.72657e-01
-2.61992e-01
3.43567e-02
3.76124e-02
-5.75762e-02
2.21088e-01
-1.06849e-01
5.43068e-02
-1.52740e-01
-3.41430e-01
-9.16731e-03
-8.65012e-02
-5.72899e-02
1.79684e-01
2.14967e-01
-2.79152e-01
1.73695e-01
-2.41194e-01
-3.39904e-01
3.06482e-01
-6.15057e-02
-2.90656e-01
1.01086e-01
-6.19599e-02
1.75404e-02
-1.75297e-01
6.22154e-02
3.06608e-01
5.80285e-02
-1.33115e-01
-1.87040e-01
1.24132e-01
2.82961e-01
-1.70459e-01
5.67286e-02
2.61863e-01
3.24929e-01
-2.99486e-01
-1.26707e-01
-1.76526e-01
-2.80479e-01
-1.65554e-01
-3.17037e-01
1.37331e-01
7.97469e-02
-2.14679e-01
-2.49425e-01
3.05545e-01
2.58255e-01
-2.17601e-01
-1.36220e-01
-8.36341e-02
1.07529e-01
-2.01694e-01
-3.22554e-01
-8.65821e-02
2.14622e-01
3.16194e-01
2.26454e-01
3.18721e-01
2.30364e-01
3.56138e-04
1.65981e-01
-1.00388e-01
1.52043e-01
1.53284e-01
-3.34626e-01
-8.02387e-02
3.21367e-01
2.79687e-01
-1.48457e-03
-6.69654e-02
6.52491e-02
2.67796e-01
8.70228e-02
5.01737e-03
-3.44548e-01
2.69913e-01
3.38552e-01
-4.60790e-02
-3.09199e-01
8.30041e-02
-2.92301e-02
3.13508e-01
1.72447e-01
-6.92360e-02
1.62302e-02
1.19119e-01
-3.57880e-02
9.43262e-02
-3.18157e-01
-1.55204e-01
-1.15291e-01
1.53550e-01
3.18530e-01
2.94285e-01
2.72405e-02
1.83949e-01
-6.75336e-02
8.78509e-02
6.19455e-02
-9.43696e-03
-3.44939e-01
3.27779e-01
-2.23849e-01
3.70187e-03
1.74908e-01
-1.61608e-01
3.15628e-01
-2.80889e-01
1.93192e-01
-5.82794e-02
-1.38762e-01
2.83317e-01
1.34101e-01
1.49453e-01
-1.50416e-01
9.71505e-02
-2.31596e-01
2.47293e-01
-2.59614e-01
2.41653e-01
-4.92789e-02
6.06643e-02
-2.89326e-01
5.07293e-02
-7.85166e-02
7.07159e-02
-9.07231e-02
-2.81865e-01
2.22597e-02
-4.50849e-02
-2.45855e-01
2.43903e-01
9.50008e-02
-3.49787e-03
1.83031e-01
-7.43493e-02
-3.06472e-02
2.61983e-01
-2.07488e-01
-2.18024e-01
-2.91325e-01
3.07938e-01
-1.05345e-01
3.51896e-02
1.79491e-01
2.74324e-01
-2.22891e-01
-1.60042e-01
-2.76613e-01
1.38345e-01
3.10513e-02
3.91808e-02
-3.15053e-01
7.56211e-02
8.52352e-02
2.72186e-01
-3.07272e-02
1.87405e-02
2.38921e-01
8.23249e-02
7.77037e-02
-2.51113e-01
2.65366e-01
-3.32349e-01
-3.34799e-01
-2.03598e-01
-1.68616e-01
2.31743e-01
-2.71717e-01
-1.52854e-01
-1.71674e-01
9.07888e-02
3.35439e-01
-3.07904e-01
8.21550e-02
-1.32360e-02
-3.58029e-02
6.09952e-02
-4.26650e-02
2.59529e-01
1.52193e-02
-3.13538e-03
3.45384e-01
-2.05838e-01
-5.51450e-03
2.23578e-01
2.27826e-01
3.88016e-02
-2.00170e-01
-1.57666e-01
-1.67731e-01
7.30484e-02
3.28867e-01
2.37777e-01
-8.01801e-02
8.52643e-02
3.22714e-01
7.09697e-02
3.34608e-01
-2.91962e-01
2.67804e-01
-3.40038e-01
1.76556e-01
2.56352e-01
-2.49661e-01
2.63953e-01
-4.49756e-03
-7.41862e-02
1.35524e-01
-1.96485e-01
-4.26148e-02
-1.65929e-02
3.11734e-01
-1.06484e-01
3.07505e-01
5.57511e-02
3.30492e-02
3.65994e-02
-1.34724e-01
-1.28376e-01
-1.57234e-01
1.86183e-01
2.61744e-01
-3.06755e-01
-3.37095e-01
-4.45693e-02
-2.40087e-01
-2.07416e-02
3.39523e-01
2.02680e-01
-1.34696e-01
-1.89839e-01
-6.79810e-02
-1.26474e-02
1.12332e-01
1.60907e-01
8.10769e-02
1.87605e-02
-3.22288e-01
2.31870e-01
7.52318e-02
6.02797e-03
-2.30290e-01
-1.81014e-01
3.07846e-01
-1.29014e-03
-1.47812e-01
-1.47633e-02
-3.00307e-01
-3.13760e-02
2.78595e-01
-2.03886e-01
1.18452e-01
-1.43707e-01
1.95466e-01
2.52642e-01
2.16955e-01
-3.02135e-01
-4.37398e-02
2.12756e-02
-1.07782e-01
2.98923e-01
-7.04496e-02
-2.49282e-01
1.33315e-02
-2.50711e-02
1.26716e-01
1.81168e-02
-2.99765e-01
1.58992e-01
1.92113e-01
1.36181e-01
7.40279e-02
1.43787e-01
-2.74482e-01
-1.40840e-01
5.16237e-02
-3.26571e-01
-2.41671e-01
-8.32903e-02
2.43508e-01
7.39948e-02
3.02863e-01
-2.39644e-02
3.39398e-03
-2.46170e-01
-5.02675e-02
2.16468e-01
-2.01595e-01
-1.43950e-01
-1.50697e-01
-1.18331e-02
2.39862e-01
-2.64528e-01
3.74135e-03
1.43357e-01
3.42496e-01
-2.77094e-01
-2.02037e-01
-1.66487e-01
-3.26490e-01
6.95609e-02
2.86973e-01
-2.75045e-01
1.75608e-01
-3.05311e-01
1.75949e-01
9.49975e-02
-2.62410e-01
-8.76538e-02
-1.86726e-01
-1.12710e-01
2.85730e-01
-2.51878e-02
-1.48468e-02
-2.29830e-01
-3.20270e-01
2.54345e-01
1.16607e-01
1.27477e-01
-1.77049e-01
-7.45456e-02
-3.43684e-01
1.00119e-01
-1.48925e-01
1.54408e-01
-1.17307e-01
1.14653e-01
3.15919e-01
4.59385e-02
1.00070e-01
3.43821e-01
-1.22336e-01
3.00190e-01
-2.20669e-01
2.65388e-01
-2.76342e-01
-2.01301e-01
2.42310e-01
-1.54856e-02
-1.13109e-01
-1.70195e-01
1.40320e-01
-9.09671e-02
-2.69551e-01
3.27233e-01
3.17560e-01
3.21856e-01
4.24516e-02
8.33473e-02
1.90577e-01
-2.26042e-01
-2.67793e-01
1.04038e-01
-2.30165e-01
2.40079e-01
3.45580e-01
-1.43592e-01
1.32041e-01
1.56142e-01
-5.53873e-02
2.25008e-02
-3.42436e-02
-2.60284e-02
-3.16043e-01
-1.45630e-01
1.19414e-01
8.99545e-02
-2.69458e-01
3.20038e-01
-1.48137e-01
-4.27736e-02
2.91941e-01
-3.44988e-01
2.30822e-01
1.16876e-01
1.03699e-01
2.26181e-01
-2.23992e-02
-2.69039e-01
-2.32327e-01
2.09740e-01
2.02017e-01
-2.72364e-01
-2.34299e-01
1.51929e-01
3.43368e-01
-1.54402e-01
1.82416e-01
-1.00174e-01
-1.01879e-01
-2.79889e-01
8.37088e-03
1.01285e-01
1.41609e-01
1.30981e-01
-1.01830e-01
-2.17594e-01
2.28123e-01
3.29135e-01
3.23577e-01
-2.41688e-01
1.51513e-01
-1.12938e-01
-2.25638e-01
3.34751e-01
5.51653e-02
-2.13957e-01
-2.47896e-01
1.06975e-01
2.98035e-03
-1.23897e-02
3.36134e-02
-2.10278e-01
1.91107e-01
3.17636e-02
2.89501e-01
2.23871e-01
3.40403e-01
3.03437e-02
-1.47760e-01
2.32400e-01
1.36502e-01
-3.30440e-02
-3.08670e-02
1.32408e-01
-1.39108e-01
-2.00766e-01
-7.32301e-02
-2.80253e-01
-3.12706e-02
-5.08559e-03
1.91528e-02
2.21624e-01
1.14523e-01
-8.31392e-02
2.43338e-01
1.43206e-01
-4.27654e-03
-3.15645e-01
2.87303e-01
6.43793e-02
-3.09130e-01
3.17944e-01
-1.72596e-01
3.12503e-01
-1.47851e-02
-1.01747e-02
-1.71071e-01
-3.07720e-01
-1.17632e-01
-1.16000e-02
1.27594e-01
2.13405e-01
-2.62331e-01
-9.91527e-02
-1.83680e-01
1.25406e-01
-2.56304e-01
3.38734e-01
-2.42332e-01
1.72925e-01
1.92388e-01
-2.95580e-01
-9.66861e-02
1.36788e-02
-2.03337e-01
3.32908e-01
1.14032e-01
-2.34651e-02
1.79730e-02
2.88666e-01
2.70589e-01
-3.29884e-01
-2.05872e-01
4.71101e-02
7.48209e-02
-1.09238e-01
-1.44242e-01
4.22854e-02
-1.07030e-01
4.36831e-03
-2.88772e-01
2.96173e-01
-3.44192e-01
-2.01551e-01
2.08530e-01
3.67996e-02
2.41733e-01
2.53867e-01
-1.70368e-01
-3.37522e-01
-1.77877e-01
-1.78012e-01
3.38813e-01
1.22363e-02
-2.41941e-03
-8.59599e-02
2.58581e-01
-1.07777e-01
-2.03016e-01
-2.50954e-01
-3.12398e-01
-2.36389e-01
2.03268e-01
1.68523e-01
-2.37713e-01
1.30817e-01
2.91313e-01
7.50682e-02
-3.38631e-01
-1.25648e-01
3.18925e-01
-1.18022e-01
-2.72287e-01
-2.94756e-01
-3.35815e-01
1.29722e-01
1.90435e-01
6.09121e-02
-1.86815e-01
-4.34286e-02
-1.53143e-01
9.89869e-02
9.16466e-02
-2.36467e-01
9.97477e-02
-2.06847e-01
5.86245e-02
7.72676e-02
-2.63934e-01
-1.16596e-01
-3.34617e-01
-1.57011e-01
3.19626e-02
2.31930e-01
2.12744e-01
-2.28072e-02
1.65071e-01
2.06079e-01
7.64731e-02
-3.25280e-01
3.08196e-01
2.26191e-01
-2.38143e-01
-2.89631e-01
1.80928e-01
6.64219e-03
-2.02618e-01
3.07086e-01
-1.29184e-01
6.16452e-02
-3.28863e-01
-1.33848e-01
1.70770e-01
7.10332e-02
1.69981e-02
2.51121e-01
8.21673e-02
2.13187e-02
-2.27415e-01
1.09776e-01
2.25981e-01
1.00034e-03
1.57453e-01
-2.98831e-02
-5.14769e-02
2.95538e-01
3.29533e-01
-1.13753e-01
6.80965e-02
-3.14650e-01
8.48953e-02
1.94887e-01
6.74601e-02
-2.94566e-01
2.97285e-01
-5.66754e-03
2.45095e-01
2.04064e-01
-3.32343e-01
-2.95945e-01
-6.68077e-02
2.33461e-01
-3.17066e-01
2.39151e-01
6.40996e-02
9.73929e-02
2.89313e-02
9.18298e-02
-1.87848e-01
3.24326e-01
-2.10315e-01
-3.11592e-01
1.96634e-01
3.15833e-02
-1.68847e-02
-2.29485e-01
4.55975e-02
3.39821e-01
-2.99227e-01
-1.74904e-01
-2.27058e-01
2.37694e-03
-1.12503e-01
2.89755e-01
-1.66326e-01
-1.61176e-01
7.09927e-02
7.78776e-02
7.20086e-02
-2.73944e-01
6.11934e-02
-1.71051e-01
-2.41176e-01
-3.15399e-01
-9.23706e-02
2.45803e-01
-1.06310e-01
1.00103e-01
2.10792e-01
-3.18257e-01
9.47727e-02
1.52723e-01
1.78846e-01
-1.70567e-01
-2.14868e-01
7.80320e-02
-2.20763e-02
2.74949e-01
-1.84189e-01
-1.29170e-01
