1.10879e-02
4.03264e-02
-3.83485e-02
4.09233e-02
-3.04553e-03
2.49106e-02
-1.99204e-02
-2.65459e-02
2.99838e-02
-7.95739e-03
-2.35785e-02
-2.77784e-02
3.97778e-02
2.06353e-03
3.99455e-03
-3.71405e-02
-1.82412e-02
9.50306e-03
-2.68542e-02
-2.55670e-02
2.12312e-03
4.13677e-02
3.35957e-02
-8.19724e-04
3.33957e-02
9.33725e-03
1.79485e-02
-1.28162e-02
-1.44346e-02
-1.55574e-02
4.19276e-02
1.01643e-02
-6.74212e-03
2.68093e-02
-3.30769e-02
3.13117e-02
8.74390e-03
-2.97666e-03
9.40539e-03
3.94308e-02
7.65081e-03
-1.02288e-02
-3.07292e-02
2.80981e-02
1.17703e-02
-2.96897e-02
8.03001e-03
6.25541e-03
1.11859e-02
5.36057e-03
3.24889e-02
-1.77801e-02
-1.48026e-02
1.25634e-03
-1.41744e-03
3.24926e-02
-2.77275e-02
-7.26603e-04
1.05831e-02
1.78891e-02
-2.18119e-02
-3.90315e-02
-2.86126e-02
-4.18463e-02
4.05866e-02
-2.48861e-02
-9.44708e-03
7.60484e-03
2.02933e-02
1.61405e-02
-2.62813e-02
8.15395e-04
2.00163e-02
5.53710e-03
3.60007e-02
1.42824e-02
3.65559e-02
-2.03215e-03
-1.23598e-04
3.94762e-04
-3.37905e-02
1.91414e-02
2.62503e-02
2.84709e-02
3.79091e-03
-3.91058e-02
3.19902e-02
-9.44548e-03
3.48003e-02
-6.88275e-03
-1.08094e-02
-1.99628e-02
1.40604e-02
3.34612e-02
-3.37699e-03
3.59303e-02
-3.78818e-02
-4.05952e-02
5.45945e-03
3.42692e-03
2.51511e-02
-3.35455e-02
-2.14415e-02
2.57109e-02
2.48250e-02
-3.31466e-02
1.50560e-02
1.85790e-02
-1.75005e-02
1.15289e-02
-1.42132e-02
1.68196e-02
-2.01111e-02
2.47960e-02
2.22979e-02
3.31473e-02
4.99651e-04
2.94785e-02
1.41599e-02
-2.85689e-02
-1.41681e-02
4.14415e-02
-2.77522e-03
-3.60908e-02
2.97274e-02
-4.87776e-03
1.11123e-02
-1.24608e-02
2.74663e-02
1.51298e-02
-1.32675e-03
-3.99006e-02
2.73079e-02
3.98666e-04
-1.72753e-02
8.24079e-04
3.06179e-02
3.78796e-02
-2.14691e-02
1.61058e-02
-1.98541e-02
2.23001e-03
1.04993e-02
3.84464e-03
1.07605e-02
1.73842e-02
5.07803e-03
-1.97900e-02
-3.33908e-02
2.67841e-02
1.04356e-02
2.85225e-02
3.25731e-02
-3.84548e-02
3.47408e-02
-3.04276e-02
2.99534e-02
-2.96312e-02
2.30820e-02
4.43980e-03
-2.21119e-02
1.05513e-02
3.64425e-02
4.50533e-03
-3.42502e-02
1.27370e-02
-3.63851e-02
1.28995e-02
-4.24588e-03
-2.71140e-02
1.12904e-02
2.96073e-03
-1.38858e-02
2.02688e-02
3.27382e-02
1.77353e-02
1.09652e-02
-1.83403e-02
3.28378e-02
-3.59605e-02
-1.97615e-02
-1.76710e-02
2.42097e-02
-1.90052e-02
-9.37932e-03
-1.98157e-02
-2.11295e-02
-3.43131e-02
4.31919e-02
-2.73206e-02
3.04861e-02
3.77093e-02
2.86504e-02
-1.62533e-03
1.32764e-02
-1.48740e-02
2.30644e-02
2.32575e-02
7.33238e-04
3.74012e-02
-2.68520e-02
-3.81627e-02
1.29401e-02
3.91276e-02
2.60566e-02
-3.89637e-02
-1.42118e-02
2.15954e-02
3.06986e-02
-3.88802e-02
3.87969e-02
1.97448e-02
-2.86269e-02
3.69720e-02
7.24242e-03
7.25859e-03
-1.49612e-02
4.22551e-02
-2.08176e-02
-2.59488e-03
3.00448e-02
-3.17843e-02
-1.96367e-02
-2.06657e-02
4.27249e-02
-5.42912e-03
-1.74335e-02
-1.93847e-02
-2.09197e-02
-3.79516e-02
2.87690e-02
2.60115e-02
-2.08262e-03
1.65552e-02
-5.30308e-03
6.45439e-03
3.07848e-02
1.46090e-02
-3.32684e-02
-2.62659e-02
1.06840e-02
-2.47770e-02
1.04274e-02
-2.50824e-02
1.28877e-02
-1.52409e-02
2.70519e-02
5.73298e-03
-2.02290e-02
-3.12407e-02
-4.21011e-02
2.99676e-02
4.21033e-02
-1.94173e-02
6.48428e-04
-2.04001e-02
3.77888e-02
3.73973e-02
-2.00509e-02
4.25602e-02
2.49623e-02
9.79182e-03
-1.79357e-02
3.11713e-02
-2.27627e-02
2.45180e-02
-2.20294e-02
2.10677e-02
2.07665e-02
-3.73717e-03
1.04941e-02
-5.97058e-03
-3.28072e-02
-2.84814e-02
3.17357e-02
2.39847e-02
-1.95381e-02
4.03963e-02
-3.95307e-03
3.29792e-02
9.32943e-03
-2.57438e-02
-3.04262e-02
3.26556e-02
-2.41907e-02
2.65570e-02
2.44282e-02
-1.55290e-03
4.18589e-02
-4.11546e-02
-2.45454e-02
-1.70787e-02
3.03442e-02
4.00126e-02
2.70583e-02
3.27110e-02
-3.53343e-02
4.18402e-02
3.49383e-02
2.83551e-02
-2.51351e-02
-3.69279e-02
3.13067e-02
-3.59759e-02
-3.44935e-02
2.46293e-02
6.03518e-03
-2.84550e-02
3.98219e-02
1.76513e-02
-1.67653e-02
-3.37378e-02
-1.93121e-02
-1.02558e-03
3.23461e-02
-2.58084e-02
-2.00317e-02
4.41058e-03
6.68808e-03
-1.40588e-02
-3.12753e-02
1.24656e-02
2.41528e-03
1.49283e-02
4.32745e-02
-1.60778e-02
-3.54154e-02
-1.06630e-03
-3.52224e-02
7.64082e-03
-2.99130e-02
1.93266e-02
-1.33513e-02
3.25709e-02
2.57549e-02
-1.89730e-02
-2.81037e-02
2.05898e-02
6.11991e-05
-1.39154e-02
3.58926e-02
-3.60186e-02
2.98287e-02
2.59798e-02
3.33792e-02
-2.59361e-02
2.20265e-02
-1.80792e-02
3.29537e-02
-2.10711e-03
-1.94107e-03
3.99145e-03
2.39092e-02
-2.73569e-02
3.92691e-02
-1.15673e-02
-2.54667e-02
3.55467e-02
2.92956e-02
2.44736e-02
4.11757e-02
5.70853e-03
9.37629e-03
-4.11258e-02
4.17505e-02
1.69590e-02
1.88809e-02
-2.15574e-02
-3.11991e-02
-2.35110e-02
4.15073e-02
2.57796e-02
-3.54291e-03
7.70835e-03
6.12142e-03
8.24553e-03
3.03029e-02
1.09686e-02
-8.69715e-03
-9.05428e-03
3.26146e-02
-9.78008e-03
4.62542e-03
-3.26491e-02
2.96079e-02
-3.22503e-02
-2.61609e-02
2.95726e-03
2.31740e-02
2.11481e-02
-2.64323e-02
2.75673e-03
2.96593e-02
-3.52207e-02
1.46227e-02
4.15859e-02
-9.96381e-03
-3.97461e-02
-2.68709e-02
-3.96823e-02
2.64870e-02
-3.01473e-02
1.11247e-02
2.82015e-02
2.17775e-02
-3.64750e-02
-3.45128e-02
-3.63573e-04
-3.03150e-02
5.10171e-04
1.49663e-02
-4.29813e-02
2.71653e-02
-1.65391e-02
-3.78598e-02
7.68340e-03
-4.29786e-02
-2.86460e-02
3.17625e-02
-1.16191e-02
-2.18251e-03
-8.68069e-03
3.70037e-02
-2.75348e-02
3.51195e-02
3.88503e-02
-3.68093e-02
-1.46373e-02
2.21895e-02
2.93717e-02
-6.60351e-03
-1.33333e-02
3.12957e-02
-2.37142e-02
-4.18745e-02
1.02372e-03
-3.86194e-02
-5.06099e-03
9.52106e-04
7.62360e-03
1.23759e-02
-1.19604e-02
1.63168e-02
9.63269e-03
-2.96577e-02
2.49407e-02
2.60936e-02
2.96240e-02
1.20653e-02
-3.99705e-02
1.55747e-02
-4.24401e-02
2.60965e-02
8.41482e-03
1.14318e-02
-1.32657e-02
1.38159e-02
4.07692e-02
-9.31948e-03
3.45757e-02
4.22588e-02
1.51621e-03
-3.29533e-02
-8.20060e-03
-1.79595e-02
-2.61574e-02
-3.79823e-02
6.47387e-03
6.35020e-04
-6.23850e-03
2.17781e-02
2.19111e-02
1.37739e-02
-3.81252e-02
-2.89805e-02
4.30069e-02
-1.06636e-02
3.60222e-03
-1.22246e-02
2.83745e-02
-4.02221e-02
2.14298e-02
9.76245e-03
3.17683e-02
3.39038e-02
-3.42278e-02
-1.32766e-02
3.26535e-02
1.83364e-02
2.31411e-02
-2.75986e-02
-1.29859e-02
-2.25755e-02
2.31734e-02
-2.99256e-02
1.12849e-02
1.77829e-02
-2.79309e-02
2.83363e-02
-7.64164e-03
-1.63926e-02
-7.25607e-03
3.29528e-02
-4.31886e-02
1.17920e-02
-1.78160e-02
3.83930e-02
2.42001e-02
-3.36519e-02
-2.59635e-02
-1.87087e-02
2.01561e-03
3.47772e-02
-2.09760e-02
1.64554e-02
9.37508e-03
2.79372e-02
9.26090e-03
3.08682e-02
5.70130e-03
3.48077e-03
3.03200e-02
3.00283e-02
-1.31014e-02
-3.31643e-02
-3.16071e-02
-1.58718e-02
5.69858e-05
-1.96277e-02
2.25459e-02
1.50590e-02
2.14309e-02
-4.16952e-03
4.04999e-02
-2.95895e-02
-1.40703e-02
-7.39694e-04
3.97984e-03
-3.49080e-02
-2.91980e-03
2.68817e-02
2.26701e-02
-2.30854e-02
-4.86430e-03
1.28786e-02
-3.73872e-02
2.58959e-02
-4.58069e-04
-1.71225e-02
-3.30172e-02
4.11529e-02
4.15794e-02
-3.38376e-02
3.76716e-02
2.69216e-04
8.79541e-03
-3.85569e-02
2.23539e-02
2.79664e-03
-3.14389e-02
-4.21582e-02
1.39735e-02
-4.16220e-02
3.87724e-02
2.92949e-02
-2.11071e-02
3.11156e-02
8.57017e-03
4.32665e-03
-5.99685e-03
2.46137e-02
-3.01179e-02
-2.16678e-04
-3.49481e-02
3.30114e-02
9.19858e-03
1.32558e-02
3.42461e-02
3.63631e-03
3.43617e-02
1.65798e-02
-1.41177e-02
1.52449e-02
-1.14252e-02
1.17022e-02
1.87849e-02
2.45866e-02
3.16397e-02
1.39066e-03
-9.77959e-03
1.76059e-02
2.84555e-02
4.01082e-03
3.10436e-02
2.41100e-02
1.97033e-02
3.04168e-02
3.91077e-02
-8.12209e-03
-2.19423e-02
-1.98491e-02
-3.66400e-02
1.68829e-02
-1.59401e-02
-8.52335e-03
4.26362e-02
8.15870e-03
-2.91504e-02
-2.11443e-02
3.63854e-02
-1.58018e-02
-8.60997e-03
4.30795e-02
-1.55734e-02
3.71498e-02
-4.31785e-02
3.12614e-02
-3.82392e-02
-1.26279e-02
4.51121e-04
-3.47853e-02
-3.22425e-02
4.84612e-03
3.53362e-04
-1.09948e-02
2.66232e-03
-1.47704e-02
-2.89973e-02
-1.96144e-02
-3.84474e-03
-1.74596e-02
1.01577e-04
1.24199e-02
2.82147e-02
-2.87195e-02
2.79865e-03
-2.34174e-02
3.41572e-02
2.13181e-02
2.28299e-02
-1.77870e-02
-2.99767e-03
-3.65278e-02
2.75234e-02
-7.14761e-03
2.98589e-02
-7.55675e-03
-2.89424e-02
-1.26230e-02
4.09194e-02
-3.41068e-02
-8.40745e-03
-1.46285e-02
3.04476e-02
6.37032e-03
7.21646e-03
-3.71724e-02
-1.64370e-03
-4.02496e-02
-2.00962e-02
2.76761e-02
1.17534e-02
-1.09790e-02
3.56945e-02
2.37331e-02
-3.66321e-02
5.85701e-03
1.06161e-02
3.63217e-02
8.41363e-03
4.06180e-02
-2.98896e-02
-3.06497e-02
-1.25912e-02
-1.34297e-02
2.04643e-02
1.58163e-03
3.36943e-03
1.26338e-02
2.80538e-02
-1.78707e-02
4.00901e-02
2.65696e-02
3.75076e-02
-6.84283e-03
-1.41749e-02
-1.88008e-02
2.96533e-02
-4.05606e-02
3.92433e-02
8.61334e-03
4.19395e-02
-3.00617e-02
-1.56934e-02
-2.26433e-02
1.52984e-02
-2.75282e-02
8.46682e-03
-4.02832e-02
-3.51718e-02
4.01526e-02
-2.52231e-02
-2.36474e-02
-4.06215e-02
3.97778e-02
-1.50948e-02
3.25141e-02
-2.31870e-02
4.06291e-02
2.10494e-02
-3.45834e-02
-6.42277e-04
-3.29589e-02
-2.64857e-02
-2.73622e-02
3.07345e-02
2.59671e-02
-1.79353e-03
-3.51250e-02
2.96863e-02
-2.04898e-04
2.02582e-02
-3.06731e-02
3.83950e-02
2.49519e-02
-2.92699e-02
-8.03126e-03
-2.34703e-02
2.93859e-02
1.23096e-02
-2.14377e-02
-2.24186e-02
2.17679e-02
4.04938e-02
-3.11590e-02
3.65662e-02
-2.30198e-02
-1.57155e-02
-2.21295e-02
-5.23406e-03
-3.80668e-02
-2.06747e-02
1.27687e-02
3.18051e-02
-1.20707e-02
-1.46000e-02
2.36433e-02
-3.39463e-02
2.76824e-02
3.84043e-03
3.48152e-02
5.28923e-03
-2.24319e-02
-2.65741e-02
3.64539e-02
8.88664e-03
1.93169e-02
-6.28558e-03
2.03158e-02
3.55235e-02
-3.78565e-02
3.41921e-02
-9.32705e-04
1.91808e-02
3.55305e-02
2.45565e-02
-1.84008e-02
-3.47285e-02
2.71672e-02
-1.49937e-02
3.01730e-02
-3.91466e-02
-4.28863e-04
-1.94096e-02
-3.09965e-02
9.04509e-03
3.88798e-03
4.26005e-02
-3.84312e-02
-2.55105e-02
1.81295e-02
3.36972e-02
-2.41315e-02
9.23752e-03
1.99517e-02
3.54438e-02
3.79767e-03
2.07643e-02
-7.48532e-03
3.27889e-02
2.66811e-02
-4.76313e-03
3.93122e-02
9.03838e-03
-1.37611e-02
3.37570e-02
2.16123e-02
4.30353e-03
-4.31513e-02
-1.14191e-02
6.20417e-03
4.07883e-02
1.20840e-02
-3.69307e-02
1.06205e-02
-1.45653e-02
-3.26527e-03
3.58495e-02
-2.55328e-02
-6.17821e-04
-3.31997e-02
-2.99972e-02
9.00243e-03
6.75425e-04
7.78190e-03
-2.45094e-02
2.84661e-02
-1.10597e-02
1.20142e-03
-3.49325e-02
2.68047e-02
-3.12089e-02
8.76427e-03
-1.84268e-02
-1.62245e-02
-7.49806e-03
-3.62133e-02
-4.15653e-02
-3.55262e-02
2.66067e-02
-4.29315e-02
5.01432e-03
9.50470e-03
-2.72544e-02
2.80265e-02
9.13244e-03
2.31133e-02
-4.92616e-03
2.58165e-02
-1.26172e-02
1.43177e-02
-8.13956e-03
-2.70782e-02
1.74763e-02
3.54936e-02
-3.45865e-02
-1.33388e-02
-3.42548e-02
-2.43246e-02
-1.49435e-02
1.83309e-02
3.22192e-02
-6.97987e-03
3.84107e-02
-4.14393e-02
3.55178e-02
2.47693e-02
-3.19070e-02
1.18560e-02
3.91442e-02
-2.65339e-03
5.57287e-03
2.60990e-02
-4.03069e-02
-2.63384e-02
-1.62259e-02
2.23617e-02
-3.74881e-03
1.76586e-02
-3.03152e-02
-8.56897e-03
-4.21464e-02
9.92382e-03
2.98804e-02
-1.05480e-02
-1.46379e-02
1.01239e-02
-3.79173e-02
3.68807e-02
-7.49921e-03
2.39089e-02
1.14619e-02
2.76043e-02
-2.73034e-02
-5.18122e-03
-2.10935e-02
2.56953e-02
4.26212e-02
-1.15251e-02
2.00170e-02
7.24421e-03
-1.29522e-02
1.89402e-02
2.37044e-02
6.39227e-03
-2.50622e-02
-2.23738e-02
-2.98235e-02
-5.82236e-03
1.98737e-02
-2.29680e-02
8.37234e-03
-2.96589e-02
-1.33172e-02
-1.99292e-02
2.85569e-02
2.26059e-02
6.11806e-03
-2.83350e-02
2.78150e-02
-4.34233e-03
4.09080e-02
-1.70467e-02
4.63842e-03
-2.15529e-02
2.56222e-02
1.08511e-02
-1.74050e-02
3.03369e-02
-3.55404e-02
4.32112e-02
-1.05504e-02
-4.27869e-02
-7.60637e-04
-2.68004e-02
1.19664e-02
1.53930e-02
-2.18732e-02
-4.02918e-02
-2.11424e-02
-2.13542e-02
1.52889e-02
-2.47695e-02
-2.01530e-02
2.51980e-02
2.75070e-02
2.79992e-02
1.91509e-02
1.54431e-02
-9.48355e-03
2.21221e-02
-2.26954e-03
2.81031e-02
1.88120e-02
-4.21722e-02
1.48383e-02
-3.96654e-02
-1.36799e-02
-1.57177e-02
-5.87467e-04
-3.87719e-02
-4.19668e-02
3.03644e-02
-1.12319e-02
2.58475e-02
-2.93018e-03
6.43388e-03
3.65748e-02
1.65199e-03
-4.00047e-02
-1.96345e-02
3.97073e-02
1.70119e-02
-4.32313e-02
1.84203e-02
1.49299e-03
2.52397e-02
-3.07852e-02
-1.25535e-02
1.26488e-02
2.54816e-02
2.34855e-02
3.10425e-02
1.14249e-02
-4.04137e-02
-2.34405e-02
-3.45779e-03
-2.50067e-02
3.92475e-02
3.37592e-02
-3.81065e-02
-1.05994e-02
3.44369e-02
-1.47977e-02
-1.53927e-02
-2.12611e-02
2.63667e-02
6.67296e-03
-2.44822e-02
4.28536e-02
-6.64695e-03
3.53285e-02
1.25720e-02
-5.77728e-03
-7.47405e-04
-2.80610e-02
2.55621e-02
-1.94618e-02
3.58580e-02
-8.74907e-03
2.99304e-02
1.06330e-03
-1.88352e-02
-2.94986e-02
-9.76828e-03
4.05250e-02
4.30004e-02
-2.73987e-02
2.87708e-02
1.89297e-02
-4.23559e-02
-2.71486e-02
-3.83710e-02
1.91978e-02
3.46661e-02
-1.96326e-02
1.83489e-02
-3.71979e-02
-9.38339e-03
7.26148e-04
-4.30625e-02
1.77101e-02
-8.07808e-03
-3.52459e-03
1.27322e-02
-7.39199e-03
3.74369e-02
-3.82019e-02
9.64213e-04
-1.95057e-02
1.51913e-02
-2.06088e-02
-1.55759e-02
-1.59982e-02
-1.09501e-02
2.00461e-02
-3.61594e-02
2.61060e-02
-2.30172e-02
3.29205e-02
2.85923e-02
-1.80039e-02
1.81163e-02
-4.17476e-02
-4.25619e-02
3.67511e-02
2.42055e-02
1.87563e-02
3.39098e-02
3.94845e-03
-2.97427e-05
-3.44669e-02
-2.63931e-03
5.07704e-03
-2.03322e-02
-3.87582e-03
1.47292e-02
1.79896e-02
5.27627e-03
2.34983e-02
-3.82446e-02
-2.33752e-02
2.01608e-02
2.96523e-02
4.32603e-02
-1.18992e-02
4.09043e-02
1.65192e-02
5.89592e-03
3.03022e-02
3.25660e-02
3.47609e-02
-3.57520e-02
-1.91533e-02
-4.75084e-03
-9.20639e-03
-3.76136e-02
-3.69939e-02
1.67255e-02
2.24212e-02
-3.06075e-02
3.00849e-02
2.87004e-02
-2.60656e-02
-2.17944e-02
3.00011e-02
-1.74476e-02
-2.78507e-03
2.34606e-02
1.97883e-02
2.98946e-02
4.20854e-02
3.50904e-02
2.91484e-02
-8.12396e-03
6.49468e-03
-1.18252e-02
2.61194e-02
-4.01709e-04
-1.98697e-02
2.31876e-02
2.44325e-02
-3.02571e-02
2.25983e-02
-2.25220e-02
-1.19959e-02
-3.37250e-02
-4.24658e-02
-3.59793e-02
-7.40302e-03
-4.47369e-03
4.70413e-03
-4.03449e-02
-3.42622e-02
-4.01616e-03
2.64060e-03
2.36490e-02
3.30963e-02
1.45546e-02
-3.93402e-02
2.67107e-02
-3.61625e-02
2.75731e-03
4.01962e-03
-2.71830e-02
-3.60272e-02
5.63835e-03
3.71607e-02
2.61038e-02
-2.79656e-02
-1.98508e-02
1.50137e-02
-1.85144e-02
3.90010e-02
2.84879e-02
2.40136e-02
3.82922e-02
1.23022e-02
-3.89210e-02
3.61859e-02
-1.93795e-02
-3.10802e-02
-1.30717e-02
-3.67023e-02
2.73918e-02
-3.12234e-02
-2.24203e-02
2.77891e-03
2.94255e-02
1.13535e-02
2.62133e-02
-2.77557e-02
3.27719e-02
1.97016e-03
-1.94523e-02
-3.77361e-03
4.27384e-02
-2.30102e-02
-1.06881e-02
-2.48930e-02
3.34802e-02
2.26179e-02
1.36353e-02
3.51474e-02
1.66405e-02
4.30880e-02
6.12159e-03
2.78719e-02
1.77255e-02
-9.77559e-03
-1.62635e-02
-2.47096e-03
-5.55866e-03
-2.88427e-02
2.59584e-02
-3.38493e-03
-2.77646e-02
-1.96754e-02
-1.97369e-02
5.53182e-03
-2.75190e-02
8.05659e-03
-2.98609e-02
3.34937e-02
-1.63261e-02
3.14705e-02
-1.63566e-03
4.16996e-03
3.76980e-02
1.76337e-02
3.37235e-02
-3.28254e-02
-2.55629e-02
7.94641e-03
-2.33971e-02
-2.28433e-02
2.75525e-02
-2.09704e-02
2.89995e-02
2.43735e-02
3.76527e-03
1.08092e-02
2.10024e-02
3.41936e-02
-2.37110e-02
2.73609e-02
-2.98998e-02
-1.48335e-03
-2.01882e-03
2.16319e-03
1.07370e-02
3.92693e-02
2.18016e-03
3.61818e-02
-3.42228e-03
1.13592e-02
3.29606e-02
-4.21349e-02
2.14423e-02
2.80745e-02
-2.29898e-03
-8.43125e-03
1.00827e-02
1.88132e-02
1.08077e-03
5.90853e-04
3.37442e-02
3.92739e-02
-1.56576e-02
-3.99984e-02
3.10766e-02
3.92472e-02
4.30263e-02
1.69424e-02
3.99604e-02
-2.42041e-02
-2.34725e-02
-1.05614e-02
9.81035e-03
4.01864e-02
-1.68541e-02
2.37618e-02
2.21586e-02
7.03527e-03
3.81823e-02
-2.23123e-02
3.89821e-02
3.94016e-02
2.60079e-02
-1.38527e-02
3.46897e-02
-1.71932e-02
-1.09705e-02
-2.20496e-02
-3.60095e-02
-4.20889e-02
-8.70228e-06
2.00079e-02
-4.02429e-03
2.58366e-02
2.47816e-02
1.62025e-02
-4.44923e-03
-3.57349e-02
1.46625e-02
1.30448e-02
1.85767e-03
-1.15171e-02
3.20298e-02
3.93610e-02
-2.79507e-02
-2.43951e-02
4.30068e-02
7.86473e-03
2.90145e-02
3.52916e-02
-4.02216e-02
9.63767e-03
-1.58074e-02
-1.99726e-03
-9.20556e-04
-3.60032e-02
4.31835e-02
-3.65411e-02
-3.81120e-02
2.00972e-03
3.44507e-02
-3.68829e-02
-3.16705e-03
-2.94119e-02
-6.92502e-03
2.31710e-02
-1.58873e-03
3.84323e-02
3.22440e-02
3.99258e-02
-1.30279e-02
4.10216e-02
6.51798e-03
-1.23620e-02
-2.61669e-02
-4.07124e-02
-4.00477e-02
1.54636e-02
-2.82202e-04
4.07090e-02
4.75235e-04
-6.29040e-03
4.26794e-02
3.93074e-02
-3.56067e-02
-1.93624e-02
-7.37276e-03
-1.96334e-02
1.37946e-02
9.96101e-03
-3.43886e-02
3.24165e-02
4.05841e-02
2.01288e-02
2.22369e-02
3.95201e-02
-2.42841e-03
-3.17737e-02
2.91075e-02
-3.91211e-03
-2.61508e-02
3.40538e-02
-3.73048e-02
1.13124e-02
-1.41111e-02
2.56624e-02
-2.15332e-02
1.52195e-02
-2.26176e-02
-1.19664e-02
-7.72255e-03
8.50634e-03
8.11183e-03
1.72183e-02
7.86972e-03
6.43981e-03
2.10887e-02
2.48747e-03
1.11499e-02
-5.83351e-03
-2.71205e-02
-8.80633e-04
1.67486e-02
-2.80159e-02
-4.16335e-02
-4.12033e-02
-9.09354e-03
-3.66023e-02
2.25503e-02
1.20024e-02
4.21182e-02
4.18920e-02
3.40552e-02
2.73513e-02
-3.87487e-02
9.59156e-03
7.69215e-03
5.83497e-03
4.29269e-02
-9.37656e-03
2.08695e-03
-1.20796e-02
-1.11452e-02
3.21061e-03
3.77375e-02
-1.73611e-02
-1.27564e-02
4.31125e-02
4.21392e-02
-3.61013e-02
3.61517e-02
-2.73624e-02
7.88489e-03
4.23004e-02
-1.44530e-02
2.05909e-02
-3.68530e-02
-3.04099e-02
-2.63322e-02
1.28073e-02
1.88372e-02
-1.66506e-03
3.84038e-02
3.27539e-03
1.56112e-02
3.03752e-02
2.48862e-02
-3.22411e-02
-2.15068e-02
-1.20281e-02
-1.47777e-02
1.59923e-02
-1.39616e-02
-3.37073e-02
-1.26923e-02
2.76953e-02
1.84370e-02
1.46677e-02
1.49029e-02
-2.01592e-02
1.71671e-03
-2.48404e-02
1.40006e-02
-5.16810e-03
4.24835e-02
3.05202e-02
2.20743e-02
1.20629e-02
2.82891e-02
-3.32005e-02
1.73566e-02
-3.43719e-02
-1.62913e-02
1.68042e-03
-2.37184e-02
2.16401e-02
-8.65638e-03
-2.60599e-02
4.24117e-02
3.33527e-02
6.17325e-03
6.46907e-03
-8.61450e-03
-2.62295e-02
9.99516e-03
2.55653e-03
3.03254e-02
3.83044e-02
2.93257e-02
-1.47332e-03
-3.76297e-02
8.25396e-03
-2.77053e-02
-2.11135e-02
1.46716e-02
-3.08602e-02
2.70738e-02
-8.20130e-03
7.64432e-03
-4.19103e-02
-2.51178e-02
2.69858e-02
1.47892e-02
2.43743e-02
1.56065e-02
2.81004e-02
-2.11027e-02
-4.52625e-03
2.47971e-03
-3.39056e-02
2.76856e-02
-2.77511e-02
2.88837e-02
-1.05380e-02
3.78732e-02
-1.99156e-02
-5.95983e-04
-2.11369e-02
-2.36899e-02
2.98101e-02
-3.55027e-02
1.24612e-02
-1.91014e-02
-1.04622e-02
2.73407e-02
6.01535e-03
-4.30770e-02
3.26849e-02
-7.17273e-03
-8.03559e-03
2.21118e-03
2.49272e-02
-3.65214e-02
1.30345e-02
4.08199e-02
-7.65337e-03
-3.60904e-02
-2.11324e-02
7.57067e-03
2.27270e-02
3.60662e-02
8.15213e-03
3.54469e-02
2.58787e-02
3.77110e-02
-1.85072e-02
4.10932e-02
4.83014e-03
-2.89946e-02
4.24889e-02
3.82267e-02
-2.51736e-02
6.08759e-03
-1.92217e-02
2.45000e-02
2.52440e-02
4.11175e-02
-2.81189e-03
2.71474e-02
9.81545e-03
4.06115e-02
-3.17834e-02
-2.66076e-02
1.10354e-02
-1.26694e-02
2.29983e-03
-3.47634e-02
1.44087e-02
-3.10353e-02
-1.13613e-03
4.02992e-02
-3.29935e-02
3.07245e-02
-2.27563e-02
-4.09355e-02
3.24053e-03
-2.32545e-02
1.23805e-02
-9.60097e-03
-2.17755e-02
-3.59855e-02
5.48682e-03
-1.01637e-02
-3.99749e-02
-2.17015e-02
-3.14621e-02
3.82407e-02
-3.06816e-02
3.24150e-02
-3.32923e-02
-1.03158e-02
3.00850e-02
3.33429e-02
2.56978e-02
-5.31381e-03
7.91364e-03
-1.89980e-02
-2.09849e-02
-2.56961e-02
1.98568e-02
8.89331e-03
9.11664e-03
-4.86950e-03
2.16143e-02
1.03358e-02
1.25419e-03
-8.61573e-03
-3.22586e-02
-3.36613e-02
-7.23312e-03
-3.44127e-02
4.27665e-02
3.18518e-02
-2.59209e-02
-3.81221e-02
2.11359e-02
1.56691e-02
1.82289e-03
-1.79241e-02
-1.87392e-03
2.11116e-02
-2.69796e-02
-4.28387e-02
2.38869e-02
-2.18430e-02
2.62127e-03
-1.04570e-02
-1.04377e-02
2.40953e-02
-1.32369e-02
-4.22475e-02
3.04012e-02
-3.91028e-02
-4.05138e-02
6.13447e-03
3.94196e-03
3.92466e-03
-2.63680e-02
1.76365e-02
4.12697e-02
-1.88276e-02
-4.19770e-03
-1.73489e-02
2.64120e-02
-4.19632e-02
2.99870e-02
2.86638e-02
3.88568e-02
2.94645e-02
-3.50146e-02
-2.84973e-02
9.73107e-03
3.33346e-02
-7.15420e-03
7.27548e-03
-1.68569e-03
-1.60076e-02
-1.29333e-02
4.55776e-03
-2.62290e-02
-2.45837e-02
-8.95376e-03
2.86830e-02
2.45845e-02
-1.93623e-02
-2.26068e-02
2.06970e-03
1.94981e-02
-3.68746e-02
3.56326e-02
-3.68463e-02
-3.55601e-02
3.74177e-02
-3.37208e-02
-3.76903e-02
2.86302e-02
-3.47379e-02
-4.09359e-02
3.38342e-02
2.13688e-02
-2.11451e-02
2.20744e-02
-2.30180e-02
-1.53982e-02
3.72069e-02
2.85751e-02
2.56895e-02
-3.34677e-02
-3.03317e-02
-3.17040e-02
-1.97995e-02
-1.44974e-02
-2.48400e-03
3.71362e-02
-6.43569e-03
-3.55945e-02
8.54377e-03
-2.21890e-02
-3.45647e-02
-1.61699e-03
-2.90776e-03
3.39745e-03
2.13897e-02
-3.59504e-02
2.63608e-02
3.12957e-02
-3.56985e-02
7.88766e-03
2.21806e-02
-1.03815e-03
7.43999e-03
2.32500e-02
1.48188e-04
-9.05576e-03
3.50746e-02
-2.34720e-02
-3.54508e-02
-2.96282e-03
3.64917e-02
-4.05015e-02
-1.17636e-02
-3.31079e-02
1.23064e-02
-7.37987e-03
-9.50278e-03
-5.66397e-04
2.87092e-02
-3.37536e-02
-3.17706e-02
3.08549e-02
2.45859e-02
-2.41652e-02
2.61529e-02
1.56456e-02
-4.42985e-04
3.82034e-02
1.12626e-02
-1.16263e-02
4.03067e-02
-1.23666e-02
1.03062e-02
-3.72880e-02
4.11255e-02
1.48653e-02
4.01675e-02
2.63951e-02
8.55751e-04
2.46499e-02
-1.78529e-02
1.60780e-02
2.41399e-02
2.84136e-02
9.83592e-03
-3.43285e-02
2.59692e-02
-3.14679e-02
-5.09414e-03
-1.42714e-02
2.96527e-02
-2.20204e-02
3.12981e-02
-6.65118e-03
-1.99990e-02
1.11300e-02
6.72222e-03
-1.76810e-03
-2.02191e-02
4.78487e-03
-1.76430e-02
9.97802e-03
3.80325e-02
-3.79707e-02
2.00915e-02
2.48202e-02
-4.16073e-03
3.50543e-03
3.44443e-02
3.37316e-03
-3.94706e-02
-4.23211e-02
3.61646e-02
-1.05833e-03
-1.62183e-02
4.27990e-02
-2.66370e-02
2.38604e-02
3.52327e-02
-4.13505e-02
-1.94181e-02
2.88361e-02
-2.13716e-02
-2.63046e-02
3.32469e-02
-8.22441e-03
8.34292e-03
-2.55099e-02
-4.26699e-02
1.40146e-02
3.19158e-02
1.78840e-02
8.94620e-03
4.29625e-02
-3.30295e-02
8.85046e-03
-1.41324e-02
-2.05394e-02
2.80813e-02
-7.64257e-03
-3.40305e-02
3.57190e-02
1.32685e-02
-3.51740e-02
2.74932e-02
-3.32024e-04
2.38996e-02
3.54750e-02
3.57532e-02
-2.70650e-02
2.63452e-02
-1.81313e-02
2.28760e-02
1.33332e-03
-6.50281e-03
1.29737e-02
3.09929e-02
-1.90520e-02
-3.56258e-02
4.18639e-02
-3.46963e-02
-1.97891e-02
1.14462e-02
-2.88737e-02
3.02143e-02
2.24120e-02
-4.05131e-02
1.15565e-02
-4.32269e-02
-2.97465e-02
3.24945e-02
-2.75895e-02
1.74018e-02
2.33432e-02
-6.10540e-03
5.96769e-03
-2.40445e-02
-4.00110e-02
-4.21827e-02
-1.23826e-02
-1.77241e-02
1.34688e-02
-3.15504e-02
2.34577e-02
3.70853e-04
-1.37869e-02
2.07914e-02
-3.87980e-02
4.76414e-03
-2.86399e-02
-5.34490e-03
-1.83618e-02
-6.39211e-04
3.13122e-02
-3.55199e-02
2.00324e-04
4.00928e-02
8.45940e-03
1.96680e-02
7.94326e-03
3.93786e-02
-2.75933e-02
-2.45200e-02
3.83184e-02
-1.16434e-02
-3.38455e-02
3.64214e-02
1.84201e-02
1.58194e-02
-4.50300e-03
2.63104e-02
-2.52174e-02
-1.47163e-02
4.09799e-02
-3.32806e-02
-1.88949e-02
-1.11773e-02
-2.86963e-02
-3.14988e-02
4.27990e-02
-1.98223e-02
-2.35637e-02
-2.66064e-02
3.32606e-02
-5.61405e-03
7.48585e-03
-1.78762e-02
1.12343e-02
2.13538e-02
-9.76052e-03
-3.62014e-02
-2.35183e-02
-4.02458e-02
-3.66831e-02
-2.90808e-02
3.97884e-02
-3.14353e-02
3.18289e-02
-3.59387e-02
3.15002e-02
-2.32415e-02
-3.83314e-02
2.65923e-02
2.97286e-02
2.43189e-02
-4.31048e-02
-2.05635e-02
-2.01663e-02
3.12066e-02
-1.00998e-02
4.93666e-03
-3.91045e-02
-3.89669e-02
2.45502e-02
-1.16680e-02
4.19654e-02
2.51035e-02
3.46931e-02
-5.73691e-03
8.67821e-03
-3.05099e-02
-2.89322e-02
2.68446e-02
-1.97817e-02
8.15107e-03
1.30080e-02
2.80751e-02
-3.82876e-02
-6.28615e-03
2.57120e-02
1.53667e-02
-3.10833e-02
-1.18466e-02
9.28219e-03
-2.98343e-02
4.16620e-02
2.53426e-02
-2.74958e-02
-2.46233e-03
-2.90827e-03
4.22629e-02
1.00771e-02
-2.06800e-02
-9.88030e-03
-2.07012e-02
-2.88367e-02
-6.74025e-03
-4.12376e-02
2.31094e-03
2.21539e-02
3.93279e-02
3.32438e-02
-2.88528e-03
2.62613e-02
-2.29393e-02
4.07004e-02
-2.97565e-02
3.44676e-02
-1.47770e-02
8.00975e-03
2.83584e-02
4.11075e-04
-4.20015e-02
1.57586e-03
-1.06688e-02
-2.85110e-02
-5.36172e-03
-2.29098e-02
5.52945e-03
2.25873e-02
-1.38737e-02
4.26418e-02
4.28090e-03
2.65127e-02
1.77416e-02
-3.31469e-02
2.25698e-02
9.68681e-03
3.87001e-02
9.58331e-03
-3.08164e-02
-2.86921e-02
-4.08631e-02
2.76352e-02
-6.03687e-04
-3.72833e-02
-2.94924e-02
-2.28274e-02
-4.62814e-03
-2.64399e-02
2.47819e-02
-3.41192e-03
-1.96032e-03
4.24158e-02
-2.55783e-02
-9.58377e-03
-2.95091e-02
-2.58659e-02
3.32960e-02
3.68953e-02
3.27193e-02
-2.92974e-02
2.19425e-02
1.60718e-02
4.26699e-02
-3.38712e-02
-1.80512e-02
-3.27355e-02
-1.92284e-02
-8.31161e-03
-1.59978e-02
2.18107e-02
-9.38512e-03
3.81208e-02
-3.83480e-02
-3.14834e-02
-3.32243e-02
-4.33962e-03
4.46898e-03
3.02620e-02
3.91395e-03
3.97478e-02
-4.00948e-02
1.37586e-02
-9.43888e-04
-1.30030e-02
-2.50795e-02
-1.79607e-02
1.41146e-02
-3.38892e-02
-3.97461e-02
-1.30891e-02
1.26427e-02
3.97270e-02
-3.24798e-02
3.13627e-03
-3.35799e-02
-1.89152e-02
-3.57552e-02
1.46039e-02
-1.25071e-02
2.30423e-02
-1.56439e-02
-2.33287e-03
-4.14157e-02
2.84184e-02
2.02613e-02
1.97393e-02
2.73443e-02
2.98214e-02
-1.67761e-04
-1.47371e-02
-1.74808e-02
-1.17177e-02
8.68229e-03
2.93549e-04
-3.02902e-02
2.11350e-02
2.49700e-02
3.82831e-02
9.62645e-03
-9.42877e-03
2.63524e-02
-3.79879e-02
3.27718e-02
5.73497e-03
1.21538e-02
-8.13395e-03
2.38067e-02
-4.27450e-02
1.33575e-02
2.61370e-02
2.78721e-02
-3.26541e-02
6.00867e-03
1.09236e-02
2.02704e-02
-1.34812e-02
-2.06068e-02
-1.04780e-02
3.22533e-02
-1.68368e-02
1.31781e-02
-2.83452e-02
-3.33572e-02
3.76629e-02
-2.97173e-02
7.43934e-03
4.01546e-02
-4.25961e-04
-2.01121e-02
1.08306e-02
-4.21817e-02
6.95826e-03
3.47336e-02
-3.47514e-02
6.42818e-03
2.39707e-03
-5.91500e-03
2.67838e-02
-7.22694e-03
3.05276e-04
-4.27037e-02
1.02214e-02
-3.58848e-02
-5.85521e-03
2.75572e-02
1.31502e-02
3.72298e-02
1.41578e-02
-2.08907e-02
-4.13060e-02
-2.07184e-03
-3.85180e-02
2.59684e-02
1.71856e-02
-3.58375e-02
-1.46332e-02
-1.56403e-02
3.08993e-02
5.93460e-03
5.79439e-03
-2.97671e-02
2.81400e-02
-3.28942e-02
-1.40457e-02
-3.28535e-03
-1.32805e-02
-2.99550e-02
-1.76796e-02
-2.55142e-02
-4.95839e-03
-3.72895e-02
1.14079e-02
-8.41855e-03
2.48785e-02
-2.20398e-02
-3.90910e-02
-4.16966e-02
1.24106e-02
-1.07833e-02
1.40580e-02
5.27633e-03
-4.15131e-02
-3.55393e-03
4.28715e-02
6.45023e-04
1.68219e-02
-3.52452e-02
-4.19377e-02
2.13548e-02
-1.31701e-02
2.94086e-02
1.47229e-02
-2.14475e-02
-2.10064e-02
-2.05096e-02
1.87371e-02
-6.06089e-03
-3.68599e-02
6.81442e-03
2.11406e-02
2.10193e-02
-1.31351e-02
-2.55088e-02
-3.89159e-02
3.03157e-02
2.37271e-02
-3.92161e-02
-2.39522e-02
-2.18018e-02
-2.59738e-02
-2.67954e-02
8.88129e-03
-1.91500e-02
-1.52655e-02
6.01828e-04
4.10631e-02
6.27233e-03
1.68991e-02
-3.87233e-02
4.17193e-02
-5.91387e-03
-1.50197e-02
-2.34871e-02
-4.90057e-03
3.80753e-02
9.58690e-03
4.44701e-03
5.54004e-03
-3.15271e-02
-2.02442e-02
1.01807e-02
4.32295e-02
4.29156e-02
-5.72893e-03
-3.19314e-02
-1.64461e-02
4.15816e-02
5.23715e-03
2.66765e-02
-4.09807e-02
3.93765e-03
-3.68660e-02
-2.82381e-02
1.40200e-02
-3.37499e-02
2.99994e-02
3.96167e-02
-2.12097e-02
1.10810e-02
1.59481e-02
2.54271e-02
-2.83494e-02
-3.03994e-02
-1.14338e-02
3.48235e-02
-3.09617e-02
4.46155e-03
-2.07387e-02
3.22580e-02
3.96115e-02
-5.61341e-03
2.18175e-02
-2.72563e-02
-3.34160e-02
2.46194e-02
-2.13458e-02
-3.76097e-02
3.31192e-02
3.28485e-02
2.14667e-02
-2.39121e-02
-2.28059e-02
7.41555e-03
3.25285e-02
4.07197e-02
1.43457e-02
3.17377e-02
-4.17425e-03
2.55633e-02
-3.41703e-02
3.56507e-02
-2.18108e-02
1.84632e-02
1.51087e-02
-1.08676e-02
9.00296e-03
-3.34519e-03
3.11310e-02
2.84949e-02
-4.56747e-03
-4.27499e-04
3.80502e-02
-3.74237e-03
-1.01779e-02
2.28899e-02
-1.53106e-02
-1.54746e-02
-1.95041e-02
5.04295e-03
2.22014e-02
2.61995e-02
3.04576e-02
2.26778e-02
3.77878e-02
-3.40542e-03
-3.83692e-02
-1.68261e-02
-3.69967e-02
-4.15973e-03
1.26749e-02
-2.45433e-02
-2.46632e-02
-2.82839e-02
4.06814e-02
3.56944e-02
-2.85764e-02
-3.39055e-03
-3.24185e-02
8.48307e-03
-2.98003e-02
1.76513e-02
-1.37082e-02
3.53412e-03
-1.08396e-02
2.28330e-02
4.52708e-04
-3.73964e-02
5.28761e-03
2.45683e-02
2.06865e-02
1.22475e-02
2.01462e-02
-6.14370e-03
2.85886e-02
1.17535e-02
2.51003e-02
-3.63452e-02
3.95153e-02
7.03761e-03
2.00433e-02
-2.61672e-03
3.68789e-02
-3.72685e-02
-1.90639e-02
3.67921e-04
-4.07598e-02
-5.00600e-03
-2.97415e-03
4.07459e-02
2.54169e-03
-2.39888e-02
-3.48904e-02
2.16640e-02
9.16965e-03
1.92595e-02
1.07271e-02
3.15817e-03
-3.01410e-02
-3.87684e-02
2.25336e-02
-2.98372e-02
2.11772e-04
-4.23061e-02
2.75893e-02
-3.56045e-02
2.85895e-02
-1.04284e-02
-2.22311e-02
2.69311e-03
-2.74123e-02
3.66735e-02
-4.05402e-02
3.77717e-02
-3.67845e-02
-9.50607e-03
3.67473e-02
8.93140e-03
1.81358e-02
2.09329e-02
3.13523e-02
2.28859e-02
-4.18082e-02
-1.02927e-02
-3.44214e-02
-3.18162e-02
3.51762e-02
6.93075e-03
1.23279e-02
-3.51986e-02
-3.34987e-03
2.13116e-02
-7.91337e-03
-2.25451e-02
-4.45433e-03
-1.52108e-02
2.31269e-02
-1.27149e-02
-3.83601e-03
-8.16346e-03
2.22307e-02
-4.72877e-03
1.41079e-02
-3.06638e-02
2.51270e-02
-1.48823e-02
-3.08622e-02
-2.69351e-02
1.35862e-02
3.75858e-02
-1.12497e-02
-3.48404e-02
2.95233e-02
2.49568e-02
-2.05030e-02
-1.09284e-02
1.13058e-02
-2.29790e-02
1.92940e-02
3.36233e-02
2.84043e-02
1.86138e-02
-2.19916e-02
4.13763e-02
1.18831e-02
-3.64554e-02
-3.09219e-02
-3.64222e-05
-2.20977e-02
3.93837e-02
3.24308e-02
1.50788e-02
-4.11546e-02
1.21188e-03
-2.68927e-02
-1.21900e-02
-2.99109e-02
-2.78248e-02
-4.01356e-02
-7.40983e-04
-2.82971e-02
-1.51969e-02
2.58335e-02
3.17291e-02
-1.10512e-02
-1.02724e-02
3.25093e-02
-3.97082e-02
1.36907e-02
-3.45074e-02
-6.82950e-03
-2.15885e-02
2.61036e-02
-3.05518e-02
2.51980e-02
5.50668e-03
2.18958e-03
-6.72466e-03
-1.08460e-02
-4.04854e-02
3.26570e-03
-3.55663e-02
-3.55652e-02
9.49311e-03
-3.97700e-02
-4.19670e-02
4.01943e-02
7.27395e-03
7.00913e-03
-1.28107e-02
-2.45363e-02
7.20103e-03
3.52013e-02
3.04976e-02
3.29893e-02
2.36144e-02
4.15029e-02
2.71197e-02
3.63785e-02
1.79237e-02
3.07564e-02
1.53452e-02
-2.44451e-02
-1.20790e-02
-1.16743e-02
-2.17038e-02
-3.09459e-03
4.79903e-03
8.81119e-03
-3.73724e-02
4.18184e-02
-2.49795e-02
2.04580e-03
-3.34228e-02
-8.60528e-03
-1.31800e-02
1.75042e-02
3.40043e-02
6.40718e-03
-1.05571e-02
3.90822e-02
-2.68565e-02
-3.66408e-02
3.50105e-02
-3.67672e-02
-2.79409e-02
-3.14693e-02
-8.86921e-04
-1.07458e-02
-2.16716e-02
-3.50054e-02
4.22739e-03
-1.17352e-03
3.87665e-02
2.66816e-03
-1.96271e-02
2.53810e-02
2.68836e-02
3.66481e-02
3.88933e-03
-3.58515e-02
-3.98759e-02
-3.48145e-02
1.98217e-02
-2.13532e-02
-4.90395e-03
-2.09779e-04
-3.91473e-02
-4.12137e-02
-3.26321e-02
3.36133e-02
3.16218e-02
-1.51201e-02
-3.76189e-02
-4.30276e-02
-2.44634e-02
4.10319e-02
1.02792e-02
-3.09110e-02
-4.03102e-02
3.98918e-02
2.58263e-02
-8.52550e-03
-3.02561e-02
-2.42124e-02
-1.03067e-02
-2.01338e-02
3.57271e-02
-3.36573e-02
-1.04764e-03
2.54829e-02
-2.70464e-02
2.93765e-02
1.31441e-02
1.44147e-02
1.23613e-03
3.35582e-02
-1.76808e-02
2.79291e-02
2.01759e-02
-2.14349e-02
-1.85674e-02
5.97674e-03
-2.04240e-02
1.74786e-02
-3.21158e-02
1.12833e-02
2.59314e-02
-3.02149e-02
-3.27550e-02
-5.82607e-03
-2.72333e-02
-3.14623e-02
-2.47190e-02
1.82843e-02
-3.94174e-02
-3.76385e-02
5.13050e-03
1.90031e-02
4.13503e-02
2.22140e-02
3.05820e-02
1.22857e-02
-3.79051e-02
-2.41136e-02
-1.33991e-02
-4.00799e-03
3.11558e-02
1.53119e-02
-3.95036e-02
-2.05078e-02
-2.35389e-02
2.57942e-03
-7.66725e-03
2.31239e-02
3.63937e-03
2.02370e-02
-3.56641e-02
9.22216e-03
-3.44585e-02
1.41121e-02
-1.38506e-02
-3.49668e-02
4.28108e-02
-1.86437e-02
-2.04921e-02
-3.47538e-02
1.63978e-02
-2.58458e-03
-1.50061e-02
3.51457e-02
3.75416e-02
-2.38055e-02
-4.51436e-03
-6.35877e-04
2.19008e-02
2.84100e-02
-1.91654e-02
-8.29098e-03
-2.93564e-02
4.17809e-02
3.26624e-02
7.10126e-04
3.61463e-03
-4.05822e-02
2.80711e-02
-3.10799e-03
4.48671e-03
2.26732e-02
8.98792e-03
-3.18572e-02
4.06803e-02
-1.68655e-02
-2.86207e-02
1.38487e-02
-6.71369e-03
-9.76100e-03
1.80635e-02
1.99508e-02
3.28585e-02
-2.06283e-02
3.36886e-03
-6.84232e-04
-1.61939e-02
-4.52428e-03
2.62759e-02
-4.05320e-02
-5.62917e-04
1.01335e-02
6.55878e-03
7.41686e-03
-3.31654e-02
2.50038e-02
-3.44042e-02
2.33287e-02
1.09242e-02
-2.27594e-02
-6.71386e-03
-1.52796e-02
9.50130e-03
-3.91898e-02
2.97555e-02
-2.08311e-03
-3.33775e-02
-2.33080e-02
1.03661e-02
3.26852e-02
-2.88263e-04
-3.39848e-02
1.90221e-02
2.41235e-02
3.12959e-02
-6.81043e-04
3.08922e-02
4.10153e-02
2.03775e-02
7.24749e-03
3.51422e-02
6.93769e-03
8.27102e-03
-3.90838e-02
-1.78519e-02
-2.78230e-02
-3.14463e-02
2.87806e-02
2.50600e-03
-1.46642e-02
-2.03997e-02
-1.53336e-02
8.51068e-03
-2.92886e-02
-3.79789e-02
1.16305e-02
-3.48815e-02
3.08800e-02
1.88508e-02
8.22201e-03
-1.22171e-02
6.80304e-03
3.00923e-02
-3.26550e-02
-3.50277e-02
3.34065e-02
2.21542e-02
-3.21390e-02
-2.22848e-02
1.76577e-02
-2.50718e-02
-3.41117e-02
1.89167e-02
9.64854e-03
2.71088e-02
-1.58407e-02
-6.84270e-03
3.66389e-03
9.10883e-03
-1.65843e-02
-3.58288e-02
2.22642e-04
4.13987e-02
2.96830e-02
-1.60018e-02
2.57024e-03
-1.62128e-02
-2.63412e-02
-3.01379e-02
-4.15261e-02
1.87298e-02
2.50775e-02
2.74912e-02
4.12765e-02
4.00428e-02
-1.79071e-02
2.10784e-02
-1.42075e-02
-1.57077e-04
3.59171e-02
-1.09645e-02
2.81809e-02
-8.09234e-03
3.08053e-02
3.08706e-02
-1.41480e-02
-2.30147e-03
-1.84886e-02
-2.37057e-03
-2.94280e-03
-2.17403e-02
-3.37078e-02
2.12945e-02
-3.56268e-02
-2.69258e-02
3.23615e-02
4.14480e-02
3.56524e-02
-3.53597e-02
3.99112e-02
-1.41207e-02
3.39640e-02
1.24700e-02
1.06402e-03
2.83270e-02
1.46397e-03
-2.39301e-02
-2.54376e-02
-1.93501e-02
3.32944e-02
-2.75982e-02
-4.02375e-02
1.16951e-02
-3.18056e-02
1.49278e-02
-2.50700e-02
-2.53231e-02
3.29937e-02
-6.94229e-03
-3.50487e-02
-2.57483e-02
1.09227e-02
-3.41171e-02
-3.12226e-02
-2.35330e-02
1.71692e-02
-3.30369e-02
3.46367e-02
1.70282e-02
2.74985e-02
3.44717e-03
-5.21113e-03
3.35294e-02
-3.00979e-02
-4.24262e-03
4.03591e-02
2.99326e-02
-1.95362e-02
3.26906e-02
2.43103e-02
-1.69435e-02
1.23178e-02
-1.66886e-02
2.99454e-02
-1.55119e-02
3.63111e-03
-3.11865e-03
-1.24885e-02
-2.04969e-02
-2.02846e-02
-1.88573e-02
1.54036e-02
2.91426e-02
3.88918e-02
-9.48989e-03
5.62517e-03
1.67826e-02
8.78457e-03
2.22344e-02
2.49908e-02
1.56968e-03
3.88748e-02
-9.54490e-04
3.76272e-02
-1.81755e-03
1.57544e-02
3.49990e-03
2.07736e-02
-3.14879e-03
3.30509e-02
-2.92371e-02
-2.53041e-02
-2.82953e-02
-1.83761e-02
2.50452e-02
1.62559e-02
-1.87761e-03
3.04950e-02
-4.39152e-03
2.85742e-02
1.02716e-02
-2.09322e-02
-3.36744e-02
-4.22970e-02
4.17914e-02
2.25697e-03
-1.81300e-02
3.52230e-04
3.41554e-02
2.61311e-02
2.06448e-02
-1.55283e-03
1.60696e-02
-3.09117e-02
-1.46295e-02
9.63316e-03
-1.63964e-02
-8.84808e-03
5.81551e-04
-3.89577e-03
-3.50192e-02
7.46389e-03
-1.26476e-02
-8.92666e-03
1.58517e-02
-1.39066e-02
1.30939e-02
-3.03274e-02
-1.35444e-02
3.17020e-02
-9.98848e-03
-1.03662e-02
-9.47913e-03
-2.24132e-02
-3.54981e-02
-1.11785e-02
3.31871e-02
2.39216e-02
3.20842e-03
3.41320e-02
-2.93120e-02
3.36965e-02
-1.12170e-02
2.31013e-03
-5.14131e-03
-2.34866e-02
8.46799e-03
3.83149e-02
4.19730e-02
6.77658e-03
3.12443e-02
3.01742e-02
3.73086e-02
-3.15102e-02
-2.85909e-02
-2.89810e-02
7.53880e-03
4.14912e-03
-1.55442e-02
-8.55926e-03
-4.31898e-02
-3.77301e-02
-3.97491e-02
-2.93485e-02
-1.11195e-02
3.28235e-02
3.01424e-02
-3.49091e-03
-2.28343e-02
-1.62514e-02
2.98933e-02
-3.39858e-02
1.38322e-02
3.79184e-02
-4.30640e-02
-1.81608e-02
1.20966e-02
3.34860e-03
-1.78902e-02
-1.14077e-02
-3.02066e-02
-2.09272e-02
-5.52543e-04
3.56498e-02
7.90980e-04
3.93365e-02
-1.86420e-02
1.34857e-02
3.80110e-02
-2.79120e-02
-1.21958e-02
2.35693e-02
2.72370e-02
-1.83899e-02
2.75333e-02
2.93968e-02
1.91013e-02
-1.79966e-02
-1.19599e-02
-1.19508e-02
-2.38813e-02
-2.52650e-02
9.55715e-03
-3.22080e-02
-1.72171e-02
-6.72390e-03
-1.58020e-02
4.13777e-02
1.79276e-02
4.06596e-02
1.72233e-02
-1.30001e-02
3.57310e-02
-4.09545e-02
1.78050e-02
1.11775e-02
-2.23269e-02
-1.13999e-02
2.16363e-02
2.20787e-02
-1.34389e-02
3.30545e-02
1.75071e-02
3.83353e-02
-1.75642e-02
-2.93564e-02
-2.22509e-02
1.82420e-02
3.25448e-02
-2.14012e-02
6.99584e-03
-2.12659e-02
-2.92702e-02
-2.96228e-02
-1.81338e-02
2.51815e-02
1.07070e-02
-2.15430e-02
-6.58994e-03
3.73727e-02
3.61032e-02
2.03470e-02
-3.12200e-02
-2.72754e-02
2.10198e-02
-4.23179e-02
3.14836e-02
1.87154e-02
1.33081e-02
6.88979e-03
2.24265e-02
-3.78967e-02
2.82116e-02
-4.11180e-02
9.01464e-03
-4.75758e-03
-3.95526e-02
3.31128e-02
3.48322e-02
-1.46672e-04
9.26082e-03
-3.63453e-02
3.31746e-02
-2.18338e-02
-1.41794e-02
2.78486e-03
1.72328e-02
-2.39511e-02
2.17981e-02
3.38443e-03
-8.33445e-03
2.50406e-02
2.26318e-02
1.57581e-02
-3.48846e-02
-2.03700e-02
1.25493e-02
1.49607e-02
-3.01668e-02
-1.64990e-02
2.71956e-02
-2.94130e-02
-2.56502e-02
3.78702e-02
-2.72345e-02
2.70001e-02
-2.67038e-02
3.92187e-02
-3.71847e-02
-3.51238e-02
-1.11354e-02
-2.99527e-02
4.21006e-02
2.31618e-02
8.75277e-03
-2.39253e-02
3.12484e-02
-9.26062e-03
-7.06425e-03
7.20764e-03
2.42010e-02
-3.52660e-02
-7.55164e-03
4.25961e-02
-6.59107e-03
4.30617e-02
2.78363e-02
2.14182e-02
-3.23376e-02
-2.55859e-03
2.53718e-02
-1.00500e-02
5.00038e-03
6.28697e-03
3.53974e-02
-1.44969e-02
8.01533e-03
-8.18118e-03
-3.40634e-02
-2.64009e-02
3.33824e-02
-1.14285e-02
1.02441e-02
2.77579e-02
-6.72144e-03
-3.55970e-02
1.59435e-02
-1.08219e-02
-3.69842e-02
4.29094e-02
3.68049e-02
-3.59875e-03
6.45195e-03
-3.00817e-02
-3.44309e-03
-3.80575e-02
4.07446e-02
-3.87273e-03
-2.76542e-03
-9.95419e-03
-3.54378e-02
-2.35517e-02
8.51426e-04
2.20552e-02
-1.64799e-04
4.05712e-02
2.25052e-02
1.10831e-02
9.23993e-03
-3.99482e-02
3.26171e-02
1.04388e-02
4.04021e-02
3.93338e-02
1.82387e-02
3.65281e-02
-4.48954e-03
-6.60608e-03
9.97102e-03
-2.18781e-02
4.25224e-02
2.24722e-02
3.18505e-02
-3.98626e-02
1.11317e-02
1.05895e-02
3.82766e-02
3.71563e-02
-4.24143e-04
-9.20643e-03
-3.39380e-02
3.93904e-02
-1.40788e-02
4.12411e-02
4.65706e-03
1.73662e-02
1.26719e-02
2.88737e-02
-1.54451e-02
1.06908e-02
-6.99382e-03
9.96222e-03
3.11237e-02
4.19547e-02
-2.83238e-02
4.26277e-02
-3.14170e-02
-3.87209e-02
7.41769e-03
-3.72473e-02
3.00057e-03
-4.28238e-02
-3.67798e-03
3.68638e-02
2.32772e-02
2.92534e-02
-1.85570e-02
-1.17095e-02
3.45130e-02
8.00282e-04
-6.48705e-03
-6.74549e-03
-4.17925e-02
2.60616e-02
-1.82837e-02
-8.13079e-03
3.05352e-02
3.13619e-02
-3.79672e-02
3.76376e-02
1.54808e-02
1.93299e-02
2.16125e-02
-3.63003e-02
-8.34281e-03
3.11985e-02
-4.46295e-03
-3.74264e-02
1.39975e-02
-3.89976e-02
1.99246e-02
-9.92926e-03
-1.89391e-02
-2.83129e-02
-3.39880e-02
-2.42022e-02
4.06312e-02
-7.98418e-03
2.04765e-02
-2.72646e-02
2.25995e-02
8.15240e-03
-3.77008e-02
-4.26810e-02
4.27178e-02
2.40531e-02
-1.10338e-02
1.90549e-02
-2.59756e-02
-4.10749e-02
-3.99565e-02
-2.05694e-02
-4.15244e-02
2.41627e-02
-1.49514e-02
-3.61879e-02
2.53030e-02
-3.12562e-02
-8.35455e-03
9.02158e-03
2.40419e-02
-1.92702e-02
-3.74016e-02
-1.91856e-04
-3.57439e-02
-2.85227e-02
2.47103e-02
-1.21017e-02
-1.67500e-02
6.73659e-03
-1.34075e-02
-2.12588e-02
3.85317e-02
-1.07179e-02
2.37107e-02
-1.94517e-02
6.02125e-03
-2.79833e-02
1.77371e-02
-3.27534e-02
-2.87175e-02
6.88739e-03
-3.21518e-02
7.26027e-03
-2.96702e-02
6.07952e-03
1.83529e-02
7.15776e-03
-4.12720e-02
-2.35859e-02
7.00302e-03
1.39731e-02
-3.55063e-02
-3.82795e-02
-2.11599e-02
1.46404e-02
3.77407e-02
-1.21877e-02
-3.94620e-02
-2.43428e-02
-1.24790e-02
-2.58768e-02
-1.27997e-02
-1.50078e-02
-2.17396e-02
3.30383e-02
-2.36419e-02
4.24906e-02
-2.75794e-02
8.65049e-03
2.38466e-02
3.00730e-02
2.63441e-02
4.75357e-03
-2.48900e-02
-3.07754e-03
-3.88892e-02
3.78108e-02
-4.00895e-02
5.41604e-03
4.27008e-02
1.72511e-02
1.96699e-02
3.23288e-02
3.04378e-02
3.66910e-02
-5.13425e-03
3.59799e-02
-3.38462e-03
1.42824e-02
-3.65559e-02
2.85934e-02
-3.09145e-02
-8.32948e-03
-2.56485e-02
-1.16080e-02
-3.37006e-02
-7.02927e-03
-2.02268e-02
6.19309e-03
-2.01718e-02
-2.99663e-02
2.53698e-02
2.26465e-02
3.29555e-02
-1.24061e-02
1.30316e-02
1.58866e-02
-4.19447e-02
3.21660e-02
-3.09934e-02
1.08161e-02
1.89231e-02
1.70330e-03
1.97010e-02
-8.57767e-03
-3.38247e-02
4.15508e-02
1.52384e-03
-1.00175e-02
-4.05771e-02
5.77867e-03
-2.80989e-02
-3.36551e-02
-2.03060e-02
2.27130e-02
2.39025e-02
6.31064e-04
-3.85898e-03
-3.48482e-02
-2.02992e-02
9.64873e-03
4.90950e-03
-4.29273e-02
3.95172e-02
-5.32257e-03
-4.15059e-02
-2.80548e-02
2.46369e-03
3.41470e-02
-4.11466e-02
-2.00828e-02
2.59448e-02
-1.01858e-02
-5.03544e-03
7.25934e-03
-3.40031e-02
2.93319e-02
-1.59007e-02
-1.41992e-02
-3.08098e-02
-1.10779e-02
1.42924e-02
-2.62121e-02
-2.00588e-02
-3.63624e-02
-3.60585e-02
-1.23507e-03
-2.16685e-02
-1.23803e-02
-3.31496e-02
-3.60468e-02
1.23112e-02
-2.22505e-02
3.34752e-02
3.67303e-02
4.23733e-02
2.76369e-02
-1.96807e-02
-1.29877e-02
-3.22020e-03
2.43890e-03
-3.61082e-03
-3.12120e-02
4.47316e-03
-3.39748e-02
2.79745e-02
-1.05349e-02
2.66731e-02
5.33383e-03
-2.16567e-02
3.61312e-02
8.98521e-03
2.69817e-02
-4.67506e-03
-3.92115e-02
1.56632e-02
-6.04354e-03
-1.54280e-02
-1.00732e-02
-2.77482e-02
1.74764e-02
1.92876e-02
-3.25371e-02
1.93331e-02
-3.16707e-02
4.09087e-02
-2.39623e-02
-7.13268e-03
-3.27412e-02
1.67275e-02
2.32896e-02
-2.21233e-02
4.11272e-02
-1.53645e-02
-4.06467e-02
-7.19517e-04
3.95240e-02
3.45952e-02
-3.66116e-02
-8.09629e-03
1.33928e-02
1.10106e-02
7.82004e-03
4.12772e-02
-6.22771e-03
-3.21943e-02
4.22848e-02
-4.19149e-02
-4.10503e-02
-1.60261e-02
1.49710e-02
3.99143e-02
3.93444e-03
-3.69059e-02
-3.13357e-02
1.71754e-02
3.09126e-02
2.91834e-02
-2.19438e-02
-1.22575e-02
7.96156e-03
2.69577e-02
-2.94761e-02
4.14777e-02
-3.50354e-02
9.30943e-03
1.67233e-02
2.58258e-02
-1.42673e-02
-2.94705e-02
-3.97240e-02
-2.00762e-02
4.25106e-02
2.40298e-02
-2.82422e-02
-2.54857e-03
2.53736e-02
-4.02570e-02
1.39193e-02
-3.17994e-02
1.82723e-02
3.99887e-02
1.06947e-02
3.63032e-02
-5.09498e-03
7.01504e-03
-1.62042e-02
2.08983e-02
-7.29677e-03
-6.66431e-03
-4.03145e-03
-2.84906e-02
2.70396e-02
-2.30245e-02
-4.12955e-03
-3.24134e-02
4.68377e-03
-2.57712e-02
4.04474e-02
2.56326e-02
4.18190e-02
-8.33423e-03
3.18151e-02
3.14431e-02
-1.18114e-03
1.58851e-02
-1.84738e-03
-1.27517e-05
2.76108e-02
3.42331e-02
-3.04180e-02
1.13999e-02
1.05458e-02
1.81461e-02
6.52571e-03
7.72436e-03
-3.71777e-02
-5.37066e-03
-1.09523e-02
-1.38628e-02
-4.25485e-02
2.68744e-02
-3.63512e-02
-2.05506e-02
-3.48397e-02
2.06946e-02
-1.78054e-02
-3.06483e-02
-4.25406e-02
2.86232e-02
3.12416e-02
-3.35885e-02
-1.84433e-02
-6.13037e-03
1.49250e-02
7.90950e-03
-2.35845e-02
-2.42352e-02
1.12194e-02
-1.98058e-02
-9.46318e-03
-3.15477e-02
3.47319e-02
2.49691e-02
1.48290e-02
2.28251e-02
4.16520e-02
2.65707e-03
1.87553e-02
-2.38752e-02
-1.83367e-02
4.22689e-03
4.16668e-02
1.67317e-02
1.00474e-03
-1.69166e-03
4.08617e-02
-3.80245e-02
2.10923e-02
2.96664e-02
-1.26467e-02
-1.10035e-02
-2.90935e-02
1.39648e-02
-2.92449e-02
1.05766e-02
2.61783e-02
-6.46270e-03
1.80434e-02
1.89849e-02
-2.83906e-02
3.23634e-02
4.26049e-02
3.72040e-02
2.54323e-02
1.70843e-02
2.23976e-02
-3.50738e-03
1.79932e-02
1.35406e-02
3.10480e-02
1.61842e-02
-2.98579e-02
-1.85801e-03
-2.58836e-02
-2.67944e-02
-2.80945e-02
1.86254e-02
1.26539e-02
-4.24965e-02
3.10008e-03
2.20017e-02
-4.32402e-02
-1.95484e-02
1.54442e-02
1.04387e-02
2.79542e-02
-2.47956e-02
-7.43592e-03
-3.63514e-02
-2.31942e-02
-4.09903e-03
2.28350e-02
2.49927e-02
-3.74691e-02
6.18764e-03
1.24664e-02
-3.32479e-02
7.30595e-03
4.09814e-02
-5.78536e-03
1.26126e-02
2.07315e-02
1.12925e-02
3.06230e-02
3.93550e-02
-3.07764e-02
4.32907e-02
-2.22295e-02
-4.13553e-02
2.84124e-02
3.55589e-02
-2.47820e-03
1.67775e-02
2.11305e-02
-3.79351e-03
1.77951e-02
-4.04314e-02
3.81347e-02
7.85572e-03
-2.15847e-03
4.14951e-02
-4.00944e-02
3.21895e-02
3.23830e-02
1.89848e-02
1.75488e-02
-3.14738e-02
-1.16179e-02
-1.86295e-02
-3.46803e-02
2.48630e-02
-3.38189e-02
3.35261e-02
-2.61857e-02
-4.05672e-02
-2.13896e-03
-1.73896e-02
1.57590e-02
2.87567e-03
-1.35382e-02
1.63056e-02
-6.40465e-03
3.14122e-02
3.67761e-02
2.30156e-02
3.53292e-02
1.21026e-03
3.54940e-02
-2.36938e-02
5.43697e-03
6.56105e-03
1.37484e-02
5.87208e-03
1.47949e-02
3.14962e-03
-1.54366e-02
-3.47854e-02
1.58359e-02
-1.24568e-03
5.45567e-03
2.18867e-03
2.76925e-02
7.87623e-03
-9.07741e-03
-1.74867e-02
-3.94303e-02
1.42886e-02
-2.82321e-02
-1.32578e-02
3.44770e-02
-6.77598e-03
3.75905e-02
4.10661e-02
-4.01127e-02
1.03775e-02
1.23297e-02
2.57565e-02
-3.13273e-02
4.22896e-02
4.97396e-03
3.98208e-02
-1.14941e-02
-5.46378e-03
2.18963e-02
4.04340e-02
2.87592e-02
-3.89915e-02
3.30146e-02
-1.53752e-02
3.70255e-02
-3.83715e-02
2.47873e-02
-1.27126e-02
7.45514e-03
4.17223e-02
2.44020e-02
4.08480e-02
2.42167e-02
2.93035e-02
-2.92111e-02
-5.69319e-03
-1.43090e-02
-7.12062e-03
1.23679e-02
9.52275e-03
2.12509e-02
2.23217e-02
-2.18572e-02
-1.56872e-02
1.92535e-02
-2.37736e-02
1.85444e-03
2.59721e-02
-2.05228e-02
-2.59428e-02
1.88203e-02
1.40419e-02
-4.32826e-02
-3.75088e-03
3.30027e-02
3.07355e-02
1.02645e-02
-1.34033e-02
5.56938e-03
4.28608e-02
-8.70917e-03
-8.04846e-03
2.20204e-03
6.73430e-03
-1.24318e-02
2.47562e-02
-2.97984e-02
2.65315e-02
3.19167e-02
-1.08804e-02
-2.59147e-02
-1.47670e-02
2.06902e-02
1.32849e-02
4.91589e-03
-3.12854e-02
-7.62536e-03
1.65643e-02
-3.78689e-02
4.17910e-02
-4.25877e-02
-6.69461e-04
1.66680e-02
1.52123e-02
-1.41377e-02
-3.08039e-02
-2.02949e-02
2.78892e-02
2.72068e-02
-1.44016e-04
3.23052e-03
-1.75409e-02
1.76124e-02
-9.79236e-03
1.18424e-02
-3.30606e-02
2.41389e-02
-3.42707e-02
-4.92755e-04
4.07444e-02
-1.37216e-02
4.13577e-02
-2.35885e-02
1.93268e-02
-4.01909e-03
-1.38041e-02
-2.53018e-02
2.29656e-02
-2.34089e-02
-2.99810e-02
5.55783e-03
1.76013e-02
3.85285e-02
-3.86422e-02
4.19096e-03
-4.28629e-02
-2.56047e-02
7.42021e-03
4.01835e-02
-2.84540e-02
1.85864e-02
2.44752e-02
-4.24412e-02
-3.34330e-02
-1.62612e-02
3.44262e-03
1.25041e-02
1.10018e-02
-2.57785e-02
-3.37480e-02
2.26419e-02
2.79344e-02
-4.01129e-02
7.89637e-03
-1.54298e-02
-3.57261e-03
3.07484e-03
1.14083e-02
-2.71606e-02
-3.89061e-02
-1.37448e-02
4.23555e-02
-2.08066e-02
3.76586e-03
-2.29993e-02
3.57002e-02
-1.88593e-02
1.54165e-02
-2.35096e-02
-2.51708e-02
-1.20939e-02
1.00727e-02
1.53596e-02
3.95096e-02
-2.06594e-02
-3.41493e-02
-3.98033e-02
-2.24502e-02
-2.18446e-02
2.24710e-03
-3.97592e-02
-1.72465e-02
-1.49038e-02
-7.44887e-03
4.21677e-02
-1.00265e-02
2.24255e-02
2.77154e-02
-3.84178e-02
2.21408e-02
2.77808e-03
6.34082e-05
-6.51103e-04
-4.44725e-03
-3.89906e-02
-3.63916e-02
-2.08512e-02
-4.13886e-02
8.80603e-03
3.75548e-02
-9.79797e-03
3.44925e-02
3.33204e-03
1.06820e-02
-2.52181e-02
-4.19218e-02
-7.49229e-03
2.41783e-02
8.40231e-03
-1.99152e-02
1.90059e-02
3.83587e-02
-2.77453e-02
-3.05343e-02
-3.37343e-02
-7.49885e-03
3.91662e-02
-2.54614e-02
2.84229e-02
-2.37699e-02
-3.68804e-02
-3.21618e-02
-4.37249e-03
-3.44143e-02
-2.54536e-02
3.87093e-02
1.49803e-02
-1.64442e-02
3.47542e-02
-2.53841e-02
1.01403e-03
-4.13541e-04
2.94495e-02
-3.74359e-03
3.55048e-02
3.00671e-02
-3.18494e-02
-9.69031e-03
1.63815e-02
1.94174e-02
4.08262e-03
3.91516e-03
-7.95764e-03
-2.46568e-03
-3.91751e-02
-4.28102e-02
-9.87943e-03
-4.16383e-02
-4.26442e-03
-2.32033e-02
1.50464e-02
1.84964e-02
-3.93266e-02
3.27032e-02
1.49734e-02
1.70062e-02
2.00294e-03
3.93483e-02
-3.01911e-02
-8.87477e-03
-9.05813e-03
-1.51521e-02
9.21091e-03
-1.02037e-02
7.06412e-03
2.04761e-02
5.64385e-03
1.09706e-03
3.52389e-02
3.26653e-02
7.02313e-03
-1.49920e-02
-9.39771e-03
-1.31576e-02
6.58372e-03
-2.45478e-02
-2.12028e-02
2.94685e-02
-1.01424e-02
-2.54781e-02
-2.59864e-03
1.15958e-02
4.85625e-03
6.67053e-03
9.37709e-03
2.73153e-02
3.75782e-02
-2.06599e-02
2.97383e-02
2.66849e-02
-1.10370e-02
-3.39542e-02
-4.06199e-02
-3.55422e-02
-1.59182e-02
3.11699e-02
-2.20003e-02
-1.67847e-02
5.26626e-03
1.20632e-02
4.10592e-02
-2.05862e-03
3.79172e-03
1.22653e-02
-3.37961e-02
1.88998e-02
-3.68585e-02
3.69259e-02
1.65232e-02
-2.86304e-02
-7.92723e-03
2.85033e-02
-1.76870e-02
4.15988e-02
2.41756e-02
2.12718e-02
2.03618e-02
-4.30094e-02
-2.07335e-02
1.35612e-03
2.19369e-02
-2.47151e-02
3.52004e-03
2.61627e-02
1.70512e-02
-3.26147e-02
-3.91699e-02
4.15212e-02
1.45828e-02
3.10169e-02
2.93394e-02
-3.44665e-02
8.34588e-03
-1.30393e-03
1.22245e-02
2.01712e-02
-1.28753e-02
-4.26391e-02
2.20173e-02
3.40654e-03
-4.12352e-02
-2.63440e-02
4.01546e-02
-1.23286e-02
-3.78623e-02
-8.72844e-03
-1.72073e-02
3.96038e-02
-7.18284e-03
1.99350e-02
1.85081e-02
-2.41131e-02
3.00268e-02
-3.18703e-02
2.09283e-04
3.60620e-02
-1.92530e-02
-3.79464e-02
3.20988e-02
3.72351e-03
-1.54252e-02
-4.36927e-03
1.25913e-02
-3.09772e-02
-9.06004e-03
-3.86662e-02
-1.01809e-02
-3.28387e-02
7.45121e-03
-2.94916e-02
4.42942e-03
-5.37599e-03
2.38442e-02
-1.94893e-02
-1.25207e-02
-5.18031e-03
4.21272e-02
1.52739e-03
-3.04438e-02
-6.48578e-03
3.05499e-02
4.32617e-02
3.37450e-02
-3.62988e-02
1.07447e-02
7.65491e-04
6.36888e-03
-1.86356e-02
3.85509e-02
-1.12458e-02
2.91651e-02
-4.03615e-02
-1.28925e-02
8.38102e-03
-4.01884e-02
2.91382e-03
-3.42056e-02
3.78615e-02
-7.31643e-03
-1.85054e-02
3.84142e-02
-4.28152e-02
-3.52685e-02
1.96486e-02
8.08842e-04
5.09090e-03
1.93873e-02
-1.32240e-02
1.92742e-02
-2.48823e-02
6.47005e-04
-4.05979e-02
2.39304e-02
-2.82029e-02
2.90367e-02
-2.89213e-02
2.82187e-02
2.76697e-02
7.52829e-03
1.92850e-02
3.44332e-02
3.01526e-02
2.10927e-02
9.10370e-03
3.64262e-02
-1.98683e-03
3.08058e-02
2.24538e-02
-4.10599e-02
-4.19664e-02
-4.26675e-02
3.36394e-02
3.57767e-02
-1.09733e-02
6.69602e-03
2.32616e-02
-1.64019e-02
-2.13271e-02
8.19279e-03
9.12370e-03
-3.97730e-02
4.24306e-02
6.32261e-03
-1.82775e-03
-1.98428e-02
-5.90290e-03
5.63108e-03
2.17735e-02
4.23601e-03
-3.47701e-02
1.04266e-02
-5.19715e-05
-2.92988e-02
2.96499e-02
5.43190e-03
-2.54040e-02
-2.61880e-02
1.06904e-03
-3.87593e-02
-2.80829e-02
9.46376e-04
-1.49015e-02
3.36332e-02
-1.20353e-03
6.11918e-03
3.06391e-02
-4.14506e-02
3.14363e-03
-2.72798e-03
-2.88267e-02
8.77944e-03
3.50863e-02
-1.67787e-02
1.76080e-02
4.12843e-02
-7.94214e-03
-2.56391e-02
-1.61927e-02
-3.71944e-02
-3.88877e-02
3.95230e-02
-4.25525e-02
1.82270e-03
-1.82038e-02
1.36092e-02
7.23597e-04
-2.38292e-02
2.33808e-03
-4.04776e-03
1.27923e-02
-1.33163e-02
2.43753e-02
-3.62102e-02
6.92657e-03
-2.75227e-02
5.70333e-03
1.36766e-02
-3.89270e-02
2.04085e-02
-2.58092e-02
4.28987e-02
6.92855e-03
3.09271e-02
-2.90028e-02
2.48603e-02
-3.27912e-02
2.09575e-02
9.62598e-03
1.10644e-02
-3.76258e-03
-1.07614e-02
3.91032e-02
1.79995e-02
3.12135e-02
-2.33792e-02
-2.97225e-02
6.27119e-03
-2.46387e-02
1.93953e-02
-3.76578e-02
-4.24499e-02
-7.16004e-03
-2.60125e-02
2.47755e-02
3.74633e-02
-3.07636e-02
3.28843e-02
-2.29528e-02
-1.64854e-03
-2.17833e-02
1.51084e-02
2.90872e-02
-2.07951e-02
3.17125e-02
2.23412e-02
4.78405e-03
2.93109e-02
2.46543e-03
2.65488e-02
-1.18432e-02
-4.06286e-02
-5.44800e-03
-3.24547e-02
-1.86232e-02
3.27394e-02
2.89058e-02
1.07517e-02
-1.47416e-02
-4.42933e-04
-1.35058e-02
3.93264e-02
2.69412e-02
1.64218e-02
-2.69436e-02
6.14939e-03
8.69597e-03
-1.32580e-02
-7.61785e-05
-4.21337e-02
-1.94987e-02
-4.17679e-02
2.94276e-02
2.95007e-02
-3.90463e-02
3.18562e-02
-3.30725e-02
-2.58279e-02
1.81932e-03
-2.66392e-02
-4.02397e-02
3.01133e-02
3.38821e-02
-3.37634e-02
-2.87005e-02
-2.57746e-02
7.39120e-03
-9.81751e-03
-3.04016e-02
-5.99226e-03
4.03804e-02
-1.75007e-02
-1.91891e-02
2.73347e-02
8.06278e-03
-3.12074e-02
4.25698e-02
-1.14351e-02
-2.77618e-02
-9.09176e-03
4.86147e-03
-3.87981e-02
-8.85689e-03
5.23971e-03
1.96373e-02
-1.46519e-02
-2.18731e-02
2.07283e-04
-3.46236e-02
-6.39044e-04
-1.63602e-02
-2.93455e-02
3.30962e-02
2.91050e-02
-5.06177e-03
3.12616e-02
2.81876e-02
-4.28673e-02
-4.19663e-02
-2.17586e-03
2.31499e-02
4.08550e-02
-2.94853e-02
-2.88657e-02
-7.58807e-03
-4.19686e-02
4.17682e-02
3.44260e-02
-3.39204e-02
-3.98178e-02
-1.74123e-02
2.73633e-02
-2.96863e-02
-1.11945e-02
-2.36212e-02
-1.41148e-02
-1.13802e-02
1.90597e-02
3.66668e-02
-4.10360e-02
1.88169e-02
-4.30013e-02
2.90842e-02
3.57055e-02
-4.22376e-02
1.43578e-02
-1.15627e-02
-1.84800e-02
-2.68958e-02
1.62331e-03
3.10980e-02
-3.12277e-02
3.74841e-02
1.59735e-02
-1.77689e-02
-3.32087e-02
-3.04887e-02
3.33238e-02
-2.04559e-02
1.52537e-02
-4.13052e-02
-8.85701e-03
-7.32063e-03
-5.76031e-03
2.22921e-02
3.73938e-02
-4.18798e-02
-1.28159e-02
2.90925e-02
2.24063e-02
-2.59759e-02
2.67614e-02
-3.48294e-02
2.13310e-02
7.51152e-03
1.87932e-02
-4.12647e-02
-1.31411e-02
-3.50066e-02
2.85385e-02
-8.20156e-03
-2.64468e-02
3.98581e-02
3.45509e-02
1.11320e-02
1.98597e-02
2.14858e-03
2.66373e-02
2.44644e-02
-6.00198e-03
-2.60003e-03
-1.10338e-03
1.20027e-02
-6.90706e-04
6.44698e-03
-2.99527e-02
5.31607e-03
-3.93499e-02
4.94748e-04
2.40042e-02
-3.34146e-02
3.46892e-02
-4.27800e-02
8.73712e-03
-4.70622e-03
2.53963e-02
3.33944e-02
-1.92797e-02
-1.09280e-03
3.45414e-02
-4.11614e-02
2.99421e-02
-3.76973e-02
-1.98108e-02
-2.39151e-02
-3.57448e-02
6.66058e-03
2.03566e-02
-3.03271e-02
4.15865e-02
4.85639e-03
-1.63444e-02
3.72728e-02
3.49501e-02
3.29752e-02
-1.10693e-02
-4.25754e-02
6.59080e-03
-2.61227e-02
-2.73661e-02
-4.32910e-02
4.13213e-02
2.87955e-02
-7.68089e-03
1.09941e-02
-1.59107e-02
1.62288e-02
-3.85224e-02
-3.10142e-02
3.22568e-02
-2.43636e-02
-4.04789e-02
2.88901e-02
-2.65908e-02
1.31299e-02
-2.74269e-02
2.92295e-02
1.32671e-03
-1.50099e-02
2.63347e-02
-2.09095e-03
4.06176e-02
-4.19229e-02
-3.30381e-02
2.69877e-02
-8.95753e-03
6.61127e-05
-3.43638e-03
2.35128e-02
-3.67705e-02
9.89825e-03
2.35921e-02
-8.66073e-03
-2.80767e-02
1.83297e-02
4.17176e-02
-2.22331e-02
-1.90923e-02
3.77362e-02
2.28282e-02
-1.32372e-02
4.29236e-02
2.15392e-02
-1.39147e-02
2.03644e-02
-2.97606e-02
4.32769e-02
1.12278e-02
4.26481e-03
-1.43130e-02
-3.47750e-02
2.46627e-02
2.31307e-03
-1.05195e-02
7.06638e-03
1.68298e-02
3.82984e-02
-2.85502e-02
2.37055e-02
-1.71935e-02
2.93521e-03
-3.14743e-02
-5.23784e-03
-4.04824e-02
6.53168e-03
3.15962e-02
-1.58338e-02
-3.48515e-02
1.28135e-02
-1.90013e-02
1.71092e-02
-1.04816e-02
-1.47217e-02
4.26947e-02
3.46924e-02
1.60640e-02
5.63040e-03
-1.21405e-02
1.48069e-03
-1.70021e-02
1.22232e-02
1.27484e-02
6.21751e-03
-5.63677e-03
-1.61195e-02
2.40266e-02
-7.53540e-03
2.76974e-02
-2.14317e-02
-3.99396e-02
-2.83041e-02
-9.73013e-03
-1.50660e-02
-1.51658e-02
-2.79340e-02
-1.51290e-02
3.93936e-02
4.46760e-03
3.13327e-02
-1.97844e-02
1.43889e-02
3.24703e-02
-3.68328e-02
-1.11145e-02
4.20525e-02
3.01051e-02
-3.11820e-03
5.49599e-03
1.93315e-02
3.09295e-02
-3.78181e-03
-2.19058e-02
1.03099e-02
2.14714e-02
-2.73600e-02
2.59733e-02
-3.90420e-02
-3.72211e-02
2.20122e-02
4.32979e-02
-4.13819e-02
1.94237e-02
-9.03165e-03
-2.64368e-02
-1.29629e-02
-6.14762e-04
1.91143e-02
-9.96035e-03
-4.28850e-02
-1.56492e-02
-2.42420e-02
3.62536e-02
-3.20767e-02
-2.80322e-03
3.89791e-02
-9.15806e-03
-6.13705e-03
-5.95611e-03
-2.91520e-02
3.80118e-02
-1.89653e-02
-8.82893e-03
3.71525e-02
-2.93311e-02
-4.20301e-02
-3.31749e-02
-4.14251e-02
-1.20457e-02
-4.13465e-02
-2.88772e-02
2.41020e-02
-3.74094e-02
-3.53685e-02
-3.46315e-02
-4.19905e-02
3.57489e-02
-2.48331e-02
6.51262e-03
1.31105e-02
-2.30822e-03
-2.90654e-02
1.16089e-02
-3.94119e-02
1.28992e-02
-3.68403e-02
-3.23457e-02
-3.12731e-02
-1.54055e-02
-1.03436e-03
-3.47679e-03
3.43296e-02
-1.22437e-02
8.66443e-03
1.88863e-02
2.61606e-02
3.64950e-02
-2.34915e-02
-2.68972e-02
-1.64135e-02
-1.17950e-02
-2.37739e-02
-3.07611e-02
1.93575e-02
3.34975e-02
2.12104e-02
4.21651e-02
5.36758e-03
2.61589e-02
3.67099e-03
-1.35640e-02
9.98899e-03
-9.51954e-03
3.29711e-02
-1.89336e-03
3.93757e-02
-3.83754e-02
9.65469e-03
-3.95514e-02
-3.14043e-02
1.64194e-02
1.36335e-02
-8.43406e-04
3.77033e-02
1.08950e-02
3.66592e-02
1.73595e-02
3.70783e-02
4.65594e-04
-1.44749e-02
4.04386e-02
1.15625e-02
-5.21383e-03
-2.46304e-02
-3.98950e-02
1.17852e-02
-4.17744e-02
3.46290e-02
-2.57154e-02
-6.74129e-03
2.44140e-02
6.56668e-04
5.80639e-03
-3.39280e-02
-7.87665e-03
-4.25491e-02
-2.47303e-02
2.20103e-02
2.46754e-03
-2.84899e-02
3.48070e-02
-3.31124e-03
-2.84937e-02
3.85846e-02
-1.56499e-03
-4.26631e-02
2.17471e-02
1.95107e-02
-3.12458e-02
-4.14364e-02
-3.59583e-02
-3.99261e-02
-2.57536e-02
8.00318e-03
2.50824e-02
2.22166e-02
-8.96281e-03
7.50519e-03
-1.20750e-02
-1.22091e-02
-1.69386e-02
-4.00713e-02
-3.37333e-02
2.16319e-02
3.49281e-02
-8.26247e-04
-4.81137e-03
2.48037e-02
3.93290e-02
1.43791e-02
-3.35115e-02
-3.09542e-02
-2.99549e-02
1.50635e-02
-1.27778e-02
-4.19229e-02
-4.19994e-02
-3.27035e-03
2.33298e-02
2.42298e-02
3.41379e-02
-1.33256e-02
-1.47658e-02
3.76685e-02
-8.70471e-03
2.71247e-02
-4.20109e-02
4.18104e-02
-2.61138e-03
-1.15238e-02
4.32848e-02
3.53213e-02
3.76832e-02
2.04011e-03
1.82599e-02
1.98208e-02
1.54389e-03
3.11897e-03
-6.99692e-03
-1.76317e-02
5.32869e-03
3.99279e-02
-1.04087e-03
-1.32383e-02
-2.98264e-02
-2.52155e-02
3.68553e-02
2.15497e-02
-1.90875e-03
4.52044e-03
2.06815e-02
1.36252e-02
1.66498e-02
3.22537e-02
1.95324e-02
-2.21918e-02
3.57320e-02
2.04193e-02
4.70409e-03
-1.91285e-02
2.96133e-03
1.42259e-02
-6.87146e-03
3.97450e-02
3.21686e-02
2.80096e-02
2.48098e-02
-3.02827e-03
-4.12933e-02
-3.90972e-02
3.19841e-02
-3.18939e-02
-3.88907e-02
-4.17890e-02
2.89418e-02
-3.65294e-02
-1.81531e-03
9.91035e-03
2.09266e-02
4.11157e-02
-1.95814e-02
-3.03444e-03
2.20376e-02
2.51941e-02
-4.06366e-02
-2.80454e-02
3.44190e-02
3.27021e-02
8.20506e-04
4.07001e-02
-3.83836e-02
5.62724e-03
-3.95669e-02
1.11110e-02
2.08170e-02
3.88075e-02
-3.07076e-02
2.12156e-02
-3.84634e-03
7.44462e-04
-1.25470e-02
1.60147e-02
2.85350e-02
-2.45003e-02
-2.53061e-02
-1.05543e-02
3.40855e-02
3.51163e-02
4.16942e-02
7.24316e-03
2.75666e-02
-3.32503e-02
3.38980e-03
-2.15788e-02
-1.76684e-02
-1.71975e-02
1.59673e-02
1.75741e-02
3.66293e-02
1.61022e-02
4.05639e-02
4.32854e-02
-4.23171e-02
2.71817e-02
-7.27447e-03
3.96090e-02
1.36616e-02
2.61049e-03
-1.30904e-02
5.02995e-03
1.70577e-02
-2.99408e-02
-1.10383e-02
4.06563e-02
1.10540e-02
-3.87261e-02
-1.10833e-02
-5.46883e-03
4.27399e-03
-1.54223e-02
-3.34506e-02
-1.88260e-02
5.94280e-03
4.15884e-02
-1.76968e-02
-2.20229e-02
-3.34048e-02
2.43244e-03
-4.18777e-02
3.99690e-02
4.19498e-02
-2.20766e-02
-2.75481e-02
-1.38948e-02
2.32551e-02
4.02892e-02
-1.20466e-02
-4.02420e-02
7.69038e-03
-7.01207e-03
1.13987e-02
-3.78888e-03
2.91889e-02
5.62597e-04
-3.40216e-02
3.47615e-02
3.02422e-02
4.79577e-03
2.78282e-03
-2.04645e-02
-3.77321e-02
2.10920e-03
1.90405e-02
4.28022e-02
5.45792e-03
-3.53326e-02
3.06155e-02
-2.36100e-02
3.03108e-02
-2.41524e-02
-2.00955e-03
5.66942e-03
-3.22273e-02
-8.88896e-03
-3.23087e-02
1.28328e-02
4.04761e-02
-2.38202e-02
-2.39825e-02
2.01825e-02
-3.46999e-02
-1.93212e-02
-7.15149e-03
2.21931e-03
-1.16834e-03
2.94235e-03
1.61502e-02
3.60451e-02
3.80988e-02
3.28377e-02
-3.52051e-03
1.11780e-03
2.85638e-03
3.54004e-02
-4.00892e-02
-1.40954e-02
-1.75326e-02
1.35037e-02
-2.45944e-02
3.05253e-02
-2.70336e-02
2.63294e-02
-3.74287e-02
2.27948e-03
1.48537e-03
-1.32580e-02
2.64461e-02
1.40864e-02
-2.20231e-02
2.80561e-02
-4.00393e-02
-3.57351e-02
4.32850e-02
3.58574e-02
3.47614e-02
-8.07326e-03
-2.20710e-02
1.19871e-02
2.62697e-02
-2.59042e-02
-2.32765e-02
2.74273e-02
-3.54671e-03
3.93750e-02
-2.67524e-02
-3.94696e-02
-2.65888e-02
-2.35144e-02
-3.53470e-03
-2.93801e-02
-2.21394e-02
3.03279e-02
-3.86949e-02
-3.39064e-02
-2.99293e-02
3.20784e-02
-1.24134e-02
-9.44240e-03
2.72724e-02
1.09737e-02
2.06403e-02
1.94652e-02
-3.01185e-02
3.52379e-02
1.13373e-02
-2.13084e-03
-5.48867e-03
-1.87414e-02
2.06927e-02
-4.16159e-03
4.26836e-02
-5.78150e-03
-2.32742e-02
-3.23954e-02
-3.33282e-03
-2.69764e-02
3.07527e-02
5.34900e-04
-8.50358e-03
-2.66915e-02
-8.92935e-03
8.75451e-03
3.36233e-02
3.01428e-02
-3.34604e-02
-1.95770e-02
-8.35727e-03
2.12895e-02
-9.06565e-03
-7.22833e-04
1.19322e-03
-1.83006e-02
2.92325e-03
2.04699e-02
-2.88109e-02
-1.70463e-02
-3.99476e-02
3.52855e-03
3.95483e-02
-2.56121e-02
-4.32498e-02
-1.22899e-02
2.30552e-02
4.27424e-02
-8.54671e-03
-2.18587e-02
4.23135e-02
4.06926e-02
1.70005e-02
-1.75415e-02
1.99094e-02
-7.03941e-03
-1.38627e-02
3.97821e-02
2.01308e-02
-4.13990e-02
9.95065e-03
3.11563e-02
1.62043e-02
-8.67822e-03
-3.94509e-02
2.95278e-02
1.51363e-02
4.21479e-02
-1.51194e-02
1.07634e-02
-3.13238e-03
-4.12228e-02
2.54370e-03
3.82142e-02
-2.19722e-02
4.18874e-02
2.55741e-03
2.32925e-02
1.72173e-02
-3.54369e-02
3.00628e-02
-3.85701e-02
1.23236e-02
3.83414e-02
-3.10900e-02
1.71758e-02
-2.20707e-02
-3.39482e-02
1.59020e-03
-4.06843e-02
-1.44677e-02
-3.66958e-03
2.68471e-02
-5.68426e-03
-4.03470e-02
-8.23957e-03
-6.93989e-03
3.41825e-02
-2.10353e-02
-4.10767e-02
5.15595e-03
3.03865e-02
-3.18830e-02
1.61972e-02
3.33457e-02
-3.13716e-02
4.39764e-03
-1.27085e-02
2.46178e-02
3.62501e-02
5.94429e-03
-1.29909e-02
2.20963e-02
3.18675e-02
2.24261e-02
4.65776e-03
1.83038e-02
-3.86406e-02
5.41322e-03
-1.03125e-02
9.72478e-03
-3.61673e-02
-1.60914e-02
-1.88480e-03
-6.29853e-03
-1.65855e-02
-1.69558e-02
2.95177e-02
3.30264e-02
3.10460e-02
-3.47230e-02
-3.76171e-02
4.32089e-02
-3.42254e-02
2.12020e-02
3.34446e-02
-4.05379e-02
-2.11634e-03
1.93026e-02
1.05109e-02
2.92056e-02
-2.58268e-02
-7.64349e-03
-7.52165e-03
8.32401e-03
-9.72874e-04
-4.32544e-02
-5.42082e-03
-3.28296e-02
3.41255e-02
2.58672e-02
2.09061e-02
-9.90332e-03
3.05453e-02
1.79456e-03
2.04276e-02
1.04759e-03
-4.27682e-02
2.31718e-02
-7.17491e-05
1.19258e-02
3.71670e-02
1.84487e-02
2.80640e-02
-2.28737e-02
-7.43392e-03
5.11603e-03
-4.17714e-02
6.73588e-04
-1.54771e-02
3.87531e-02
-3.35218e-02
-1.75712e-02
-2.30551e-02
2.98677e-02
-2.36257e-02
-1.15430e-02
2.79467e-02
-1.46579e-02
3.03414e-02
4.76117e-03
3.68413e-02
1.95436e-02
2.26778e-02
2.36678e-02
-7.17733e-04
-4.08586e-02
1.01995e-02
4.04076e-02
-2.09960e-03
-1.17582e-02
3.16939e-02
2.37883e-02
-2.22224e-02
2.07474e-02
3.51623e-02
-1.58059e-02
4.07242e-02
-4.13043e-02
-1.50993e-02
-2.80210e-02
1.25313e-03
1.89621e-02
3.79840e-02
-6.99412e-03
-2.53022e-02
-4.20189e-02
-1.01032e-02
4.19423e-02
-3.71875e-02
2.85485e-02
2.38536e-02
-1.19955e-02
-2.65019e-02
-3.79596e-02
-7.84409e-03
-4.07568e-02
2.47983e-02
-1.80916e-02
1.05073e-02
-3.70060e-02
-2.63613e-02
3.85394e-02
3.92941e-02
2.91445e-02
3.29230e-02
-3.90516e-02
-3.78518e-02
-2.95573e-02
-4.19818e-02
-1.98545e-02
-1.43708e-02
-4.27839e-02
4.00612e-02
2.99042e-02
3.87155e-02
1.92356e-02
-3.67445e-02
7.82804e-03
2.90698e-02
1.56030e-02
2.92448e-03
-4.29435e-02
-2.00624e-02
1.39352e-03
-5.73324e-03
3.19254e-02
3.89369e-02
-4.15164e-02
1.25990e-02
1.02233e-02
1.46282e-02
1.50715e-02
-4.83456e-03
-9.60933e-03
-4.08923e-03
7.45510e-03
3.02704e-02
6.86199e-03
1.10626e-02
2.61720e-02
1.38388e-02
-2.87504e-02
1.80635e-02
3.69896e-02
-3.11709e-02
2.60758e-02
-3.70650e-02
4.82537e-05
2.49218e-02
2.93427e-02
-3.39419e-02
3.55542e-02
1.32143e-02
1.21016e-02
-4.64486e-03
1.90848e-02
-3.55333e-02
-1.88360e-02
3.80214e-02
-1.57501e-02
-2.65935e-02
4.10013e-02
1.90779e-02
4.26075e-02
-1.43372e-02
-1.95363e-02
-2.41421e-02
2.06192e-02
4.15746e-03
2.66259e-02
4.53589e-03
2.97706e-02
-2.19401e-02
-2.62915e-02
3.90335e-02
-2.91304e-02
-2.80341e-02
-2.73764e-02
1.12181e-02
4.10779e-02
-4.01636e-02
-2.37498e-02
-7.76347e-03
3.02219e-02
1.00765e-02
3.22415e-02
2.39548e-02
5.77674e-03
-1.93360e-02
2.85808e-02
-2.36939e-03
9.48466e-03
3.90083e-02
1.99388e-02
-3.81184e-02
-2.62598e-02
4.69910e-03
-2.24407e-03
-3.64959e-02
-5.92371e-03
2.84852e-02
-1.27477e-02
1.92194e-03
3.66308e-02
1.79548e-02
1.33439e-02
-1.27992e-02
1.09125e-02
1.66545e-02
4.18583e-02
-1.81364e-02
1.82072e-02
-2.28447e-02
-2.43644e-02
4.27723e-02
-3.56050e-03
1.95906e-02
4.03563e-02
3.38369e-02
3.41944e-03
-3.10623e-02
2.77715e-02
-3.55720e-03
-1.60658e-02
2.36657e-02
2.18561e-02
-3.93032e-02
2.98031e-02
2.23139e-03
1.82952e-02
1.46747e-02
-4.06240e-02
2.83888e-03
-1.57385e-02
1.81331e-02
-6.99442e-03
-9.81735e-03
1.59644e-02
2.67915e-02
-2.89335e-02
-3.67131e-02
2.48460e-02
-3.89143e-02
1.09416e-02
3.76986e-02
1.61640e-02
4.63475e-03
6.71671e-03
-1.23673e-02
1.26010e-02
-6.06753e-03
1.62958e-02
-1.53794e-02
8.63788e-03
-5.19549e-03
2.41624e-02
1.57432e-02
-1.27250e-02
1.44766e-02
3.64173e-02
-2.68030e-02
3.14981e-02
-4.16077e-02
-3.97974e-02
-2.53954e-02
3.68233e-02
2.37906e-02
2.09292e-02
-2.13140e-02
-1.45137e-03
-1.55849e-02
3.20007e-02
2.61933e-02
-2.31938e-02
1.29864e-02
-1.18076e-02
2.82119e-02
8.37149e-03
-2.40978e-02
4.25382e-02
-2.06529e-02
-2.05479e-03
-2.41314e-02
2.44804e-02
1.92383e-02
-1.62985e-02
3.50370e-02
2.36432e-02
4.17191e-02
-1.21390e-02
-2.02617e-02
2.37735e-02
5.88448e-03
4.36625e-03
1.84993e-02
-1.37394e-02
-2.98195e-02
-6.31716e-04
-1.90609e-02
-2.11587e-02
-3.90446e-02
2.22704e-02
-2.87632e-02
-3.07926e-03
4.05480e-02
2.25554e-02
-1.66300e-02
1.87656e-02
-2.09315e-02
-2.14874e-02
1.58845e-02
-1.83041e-02
-2.90098e-02
3.73803e-02
1.59349e-02
-9.45019e-03
-2.79793e-02
3.71241e-02
2.14978e-02
4.25085e-03
-3.52301e-02
8.07744e-03
-2.25173e-02
-4.25268e-02
4.26384e-03
4.29677e-02
-3.36610e-02
-3.95129e-02
-3.14010e-02
9.07595e-03
-1.24263e-02
-3.12932e-02
-3.09856e-02
1.95329e-02
2.71985e-02
3.84437e-02
-3.65138e-02
-3.03027e-02
-3.60716e-02
3.55284e-02
2.12927e-02
-1.35603e-02
-3.68071e-02
7.22572e-03
8.61760e-04
1.55114e-02
-4.29630e-02
-3.23283e-02
-6.12528e-03
1.61591e-02
-9.24449e-03
1.55799e-02
4.20704e-02
-1.94136e-02
3.07212e-02
3.02433e-02
8.20216e-03
4.47677e-03
-2.85195e-02
1.29060e-02
-3.43803e-02
4.28439e-02
-4.30190e-02
3.73624e-02
1.22220e-03
-2.07405e-02
-1.04583e-02
4.24704e-02
3.72009e-02
2.70741e-02
-3.15222e-02
1.02072e-02
4.03500e-02
-4.22757e-03
-3.18867e-02
-3.43444e-02
-7.60593e-03
3.00801e-02
3.23744e-02
3.75218e-02
3.33378e-02
1.17358e-02
-2.84898e-03
-2.02829e-02
-3.77120e-02
-3.37027e-02
-1.28625e-02
-2.40912e-02
5.24903e-03
1.22256e-03
-1.46547e-02
-3.91307e-02
-1.60708e-02
-1.83053e-02
-3.26594e-02
-3.23793e-02
-1.93118e-02
1.29103e-02
1.08091e-02
1.57265e-02
-1.10420e-02
-3.92775e-02
3.64764e-02
3.88981e-02
-3.19055e-02
-1.76274e-02
1.83977e-03
2.85324e-02
7.55668e-03
2.29142e-02
-1.28251e-02
1.51153e-02
1.50029e-02
-7.79532e-03
-2.44386e-02
3.01750e-02
8.88874e-03
7.34016e-03
5.35456e-03
-5.34490e-03
-2.10843e-02
-1.37845e-02
-3.88719e-03
-1.83615e-02
-1.58284e-02
1.40137e-02
-3.60183e-02
-4.26665e-03
3.89117e-02
3.80076e-02
1.95277e-02
1.72953e-02
1.07820e-03
2.84052e-02
-8.89364e-03
3.74408e-02
-1.20447e-02
3.74222e-02
-3.90156e-03
-1.12231e-02
3.56213e-02
-7.52269e-03
-1.14855e-02
1.69641e-02
1.66845e-02
-2.73230e-02
-1.15385e-02
-1.81250e-02
-3.04802e-02
-2.71380e-02
-3.16793e-02
-2.17446e-02
-1.73178e-02
-2.19996e-02
-2.07051e-02
1.67782e-02
1.77438e-02
2.02624e-02
-3.33030e-02
-5.66103e-03
-1.27537e-02
1.70083e-02
1.49571e-02
3.04171e-02
-1.36177e-02
-2.22085e-02
9.30374e-03
-2.55648e-02
-3.97353e-02
2.81611e-02
-6.66243e-03
-3.40068e-03
-3.40347e-02
3.92560e-02
-4.20161e-04
-1.10588e-02
3.40770e-03
2.07585e-02
2.87319e-02
-1.09664e-03
1.31099e-02
-2.66887e-02
2.74399e-02
2.55079e-02
2.24071e-02
3.73879e-03
1.06632e-02
1.35360e-02
-3.76244e-02
-3.18473e-02
-1.26655e-03
1.16005e-02
-1.72672e-02
4.31195e-04
1.71663e-02
2.10840e-02
-4.32372e-02
-8.80729e-03
-1.83038e-02
3.30484e-02
-1.20321e-02
3.32647e-02
6.11276e-03
2.96377e-02
1.20002e-02
1.69981e-04
-3.75484e-02
4.58888e-03
1.03391e-02
-3.73035e-02
-4.00245e-02
4.01648e-02
2.91164e-02
-4.34695e-03
1.09619e-03
3.79043e-02
-2.68387e-02
-8.88211e-03
-8.51088e-03
2.33153e-02
1.43167e-02
-9.47147e-03
3.20830e-02
3.81725e-02
3.29775e-02
-8.74645e-03
-3.75248e-02
5.16157e-03
-2.39864e-02
2.94939e-02
-2.43329e-02
3.91298e-03
3.06448e-02
-1.27413e-02
-2.81886e-03
3.57116e-02
-4.12034e-02
-9.82793e-03
1.80386e-02
-3.67178e-02
1.13358e-02
-1.53936e-02
3.47404e-02
-2.95005e-02
-4.31584e-02
2.63975e-03
2.38749e-02
1.87832e-02
1.55928e-02
-2.82845e-02
2.54415e-02
3.36006e-02
-2.28564e-03
2.85800e-02
3.88473e-05
-1.01759e-02
-3.81974e-02
1.99855e-02
1.21807e-02
3.44276e-02
2.60629e-02
-3.53544e-02
-3.90063e-02
1.44848e-02
2.66449e-02
-3.34538e-02
-1.04348e-02
1.90579e-02
-3.25487e-02
-4.29400e-02
6.53963e-03
3.00332e-02
3.91055e-02
3.42384e-02
2.97019e-02
1.62082e-02
-4.03845e-02
1.64563e-02
1.25598e-02
1.53748e-02
-2.84456e-02
2.83478e-02
1.81227e-02
-4.04444e-02
-1.03578e-02
-2.67637e-02
1.58572e-02
-2.79233e-02
2.19806e-02
-3.06932e-02
-1.92647e-02
-3.16487e-02
2.92980e-02
2.88808e-02
-4.20477e-02
1.52143e-02
2.86345e-02
-1.53511e-02
-2.62411e-02
-2.18576e-02
-2.75701e-02
1.17806e-02
-1.26093e-02
1.56849e-02
1.73434e-02
2.30993e-02
-1.78301e-02
2.80385e-02
-4.00545e-02
-2.01762e-02
-2.42084e-02
-1.64791e-02
2.93366e-02
-1.02666e-02
-3.10226e-02
4.35222e-03
1.99403e-02
-1.56979e-03
-3.73180e-02
1.56039e-02
-4.85813e-03
-3.94669e-02
6.68187e-03
-7.65758e-03
1.12011e-02
1.76213e-02
1.10254e-02
1.12175e-02
3.59450e-03
6.83198e-03
-3.64936e-02
-1.22184e-02
2.74098e-02
-3.40300e-03
-2.40889e-02
-1.75538e-03
2.04585e-02
-1.91379e-02
-1.59010e-02
-2.80913e-02
2.24832e-03
-3.05535e-02
-2.23157e-02
3.29315e-02
-2.96287e-02
-2.15364e-02
2.91670e-02
1.11061e-02
2.87210e-02
-1.56285e-02
-2.34155e-02
2.65055e-02
3.84188e-02
-3.07494e-02
-2.15439e-02
-2.09634e-02
3.46849e-02
-3.77961e-02
-4.69851e-03
-1.31509e-02
3.91577e-02
3.35078e-02
2.81581e-02
2.82538e-02
3.57944e-02
-1.92079e-02
3.56792e-02
-1.80286e-02
8.40705e-03
-3.69160e-02
-2.45327e-02
3.79396e-02
1.25892e-02
-3.23036e-03
-2.08759e-02
-4.18370e-02
8.19543e-03
-1.24864e-02
-1.98909e-02
1.78380e-02
9.64274e-03
6.34768e-03
-1.31844e-02
3.64458e-02
4.16039e-02
9.30851e-03
-1.08201e-02
-1.97324e-02
-8.35655e-03
-9.89047e-03
-2.01000e-02
-3.69734e-03
2.09715e-02
1.37885e-02
2.61668e-02
1.36355e-02
4.83372e-03
4.09757e-02
-2.82253e-02
-3.29574e-02
1.60211e-02
2.76068e-02
1.82897e-02
-3.36095e-02
-4.27735e-02
2.88677e-02
1.29417e-03
4.31430e-02
-1.00098e-03
8.54172e-03
-3.34689e-02
-1.49008e-02
8.71446e-04
-1.75074e-02
-1.76877e-02
2.15980e-02
2.85932e-03
3.55229e-02
-2.19333e-02
2.68654e-02
1.76235e-02
-1.23948e-02
3.67151e-02
-2.85437e-02
2.53666e-02
2.98719e-02
-1.73070e-02
-3.40573e-02
4.66693e-03
-4.26423e-02
-1.75932e-03
-2.63643e-03
-3.99731e-02
4.28979e-02
-4.30449e-02
4.03057e-02
-4.95175e-03
-3.23693e-02
-1.76043e-02
-3.17377e-02
4.17435e-02
3.91590e-02
1.32855e-02
1.00841e-02
-2.43529e-02
-2.11475e-02
-3.84923e-02
-4.18172e-02
1.79971e-02
1.10833e-02
2.76173e-02
-2.90652e-02
3.44846e-02
3.49111e-02
2.29145e-02
6.65501e-03
2.30400e-02
3.98399e-02
2.11020e-02
3.85316e-02
-1.51842e-02
1.02778e-02
-3.59707e-02
2.40866e-02
-7.82295e-03
4.28816e-02
3.90486e-03
-8.52806e-03
1.80006e-02
-2.13250e-02
-3.46985e-02
-2.36685e-02
-3.64604e-02
-2.47650e-02
5.69029e-03
-1.75761e-02
-7.07273e-03
1.96794e-02
-2.48410e-02
3.52191e-02
-1.95099e-02
-2.31200e-02
2.60235e-02
3.27568e-02
-2.92500e-02
1.58317e-02
4.99312e-03
1.78377e-02
-2.93121e-02
4.32057e-02
3.77590e-02
3.43685e-03
2.67223e-02
2.64532e-02
-2.75639e-02
-2.61809e-02
-3.18186e-02
-3.85334e-02
3.43539e-02
-2.60465e-02
-3.32024e-02
-5.24649e-03
-2.71960e-02
3.06229e-02
2.50345e-02
2.80697e-02
3.25998e-02
2.51683e-02
4.69347e-03
7.50424e-03
1.44378e-02
-3.76277e-02
-1.63498e-02
3.92545e-02
1.26815e-02
-1.52683e-02
1.75444e-02
1.65735e-02
1.89889e-02
2.51335e-02
6.30105e-03
-5.72114e-03
-2.02018e-02
2.75089e-02
6.94266e-03
-3.49554e-02
-1.98265e-02
-2.98889e-02
-1.19971e-02
2.59163e-02
-8.34971e-03
9.04516e-03
1.46329e-02
4.24417e-03
-3.49268e-02
-3.31885e-03
-1.94506e-02
5.44779e-03
3.03657e-02
-2.32707e-02
-2.44915e-02
-2.31270e-02
3.29091e-02
3.66645e-02
-4.25591e-02
-1.16627e-02
-1.19914e-02
4.01654e-02
-1.36285e-02
7.42212e-03
3.96878e-02
2.20775e-02
-3.41577e-02
-8.37127e-03
1.96877e-02
4.29460e-02
1.22873e-02
-7.15556e-03
4.08980e-03
4.98498e-03
-6.82020e-03
-1.22582e-02
2.27609e-02
-4.04670e-02
1.73129e-02
-3.28805e-02
3.51612e-02
1.46208e-02
-2.80256e-02
-3.83024e-03
-1.93144e-02
6.77596e-03
-9.13514e-03
4.26054e-02
3.30293e-02
-1.54965e-02
-6.69994e-03
1.96362e-02
1.75486e-02
1.80463e-02
9.80899e-03
-2.38096e-02
-3.75682e-02
-3.13789e-02
-1.26546e-02
-2.16275e-03
2.57137e-03
-3.56157e-02
1.97726e-02
3.73809e-03
-8.85551e-03
-6.74735e-03
-4.10335e-02
1.39456e-02
-7.77466e-03
9.90134e-03
-1.18366e-02
-5.02202e-03
2.32525e-02
-3.42795e-02
-1.82426e-02
2.39387e-03
3.74802e-02
-4.83508e-03
9.87840e-03
1.04909e-02
-1.02109e-02
2.97596e-02
4.24546e-02
1.99407e-03
-1.06572e-02
-2.70882e-02
-1.61936e-02
-2.23504e-02
-4.02145e-02
-2.99718e-03
3.96274e-02
1.91158e-02
-2.43767e-02
-2.60280e-02
1.24950e-04
-5.57555e-03
-3.08477e-02
-2.57740e-02
-2.23073e-03
-5.25264e-03
-7.58779e-03
-2.79440e-02
3.85904e-03
-6.10210e-03
1.05500e-02
-7.65988e-03
-2.15808e-02
-2.87676e-02
4.08604e-02
2.65340e-02
1.00101e-02
-1.57736e-02
2.88045e-02
-2.06674e-02
1.62527e-02
1.18835e-02
-1.21654e-02
-2.92268e-02
-3.41615e-02
8.45669e-03
-2.69153e-02
3.74831e-02
-1.90996e-02
-1.27069e-02
-4.01429e-02
9.37604e-03
-3.41791e-02
-3.78293e-02
3.80032e-02
-1.60965e-02
-2.28895e-02
2.35983e-02
-2.24367e-02
1.56163e-02
3.13265e-02
-1.87195e-02
4.16236e-02
1.85551e-02
4.19547e-02
4.11897e-03
-3.39862e-02
4.40674e-03
-2.50990e-02
-2.89208e-02
-1.25740e-03
2.47948e-02
2.75212e-02
-1.00090e-02
7.67481e-03
4.05986e-02
3.97163e-02
1.77588e-02
1.71387e-02
9.83073e-03
2.71368e-02
2.04434e-02
-2.55302e-02
3.72094e-02
-5.99692e-03
3.44311e-02
2.73215e-02
-2.30436e-03
-9.52341e-04
-3.24934e-03
3.55627e-02
2.61284e-03
9.48076e-03
6.79842e-03
2.06226e-03
-3.02463e-02
-2.76313e-02
4.16429e-02
5.91284e-03
6.20216e-03
-2.19162e-02
1.29341e-02
-4.28993e-02
-2.23722e-02
-2.20599e-03
-2.17794e-02
-1.24391e-02
4.04545e-02
3.07275e-02
-2.55806e-02
-1.09383e-02
-1.72682e-02
-2.62340e-02
3.36477e-02
2.55976e-02
3.80539e-02
3.49711e-02
2.92566e-04
-3.74819e-02
3.09896e-02
2.69979e-02
-1.15780e-02
1.94985e-02
4.32527e-02
2.93410e-02
-2.69338e-02
1.05193e-02
-9.16945e-03
-1.62430e-02
-2.02497e-03
3.75537e-02
-2.40432e-02
3.65808e-03
4.11203e-02
-8.07406e-03
4.19971e-02
1.00791e-02
1.17027e-02
5.88699e-03
-4.19690e-02
-2.17970e-02
-1.47370e-02
-1.43498e-05
1.82895e-02
2.02463e-02
-1.70186e-02
3.69334e-02
-3.68701e-03
-1.58116e-02
3.19359e-03
2.10250e-02
-1.80489e-02
2.19988e-02
1.53083e-02
3.21912e-02
-8.68710e-03
1.51348e-02
1.91604e-02
2.37044e-02
3.97155e-03
-1.02323e-02
1.14543e-02
4.00283e-02
-7.35037e-03
-1.20526e-02
-3.70827e-02
2.46388e-02
2.88934e-04
-3.76939e-02
2.62099e-02
-2.98458e-02
-2.06298e-02
-2.58390e-02
1.31689e-02
2.92273e-02
1.14869e-02
-4.08894e-03
3.95798e-02
6.84384e-03
2.97190e-02
-3.32544e-02
-4.45355e-03
-2.01915e-02
3.23414e-03
1.17129e-02
8.61472e-03
2.19975e-02
-3.94549e-02
-3.19496e-02
2.32285e-02
3.07060e-02
-9.94119e-03
6.22267e-03
-1.52470e-02
-2.00866e-02
-1.48753e-02
3.11444e-02
3.67295e-02
-3.05171e-03
9.39959e-03
-1.14317e-02
-3.06823e-02
-2.04596e-02
3.65103e-02
-1.09322e-02
2.05915e-02
1.45252e-02
1.55903e-02
-3.60630e-02
9.86251e-03
3.70648e-02
-9.15524e-03
2.99181e-02
1.98353e-03
-4.20857e-02
5.73231e-03
2.68898e-02
2.94322e-02
8.37210e-03
3.81816e-04
2.05134e-02
-1.63049e-03
-3.72696e-02
-2.10425e-03
4.09311e-02
-4.09929e-02
2.72804e-02
-2.39826e-02
-3.52240e-02
2.11258e-02
4.31862e-02
-2.52114e-02
-2.17656e-02
-1.33203e-02
7.94417e-03
3.19862e-02
-1.98473e-02
-3.20164e-02
-1.23830e-02
-2.26591e-02
-1.79417e-02
-9.05591e-03
2.51933e-02
-2.49149e-02
3.59667e-02
2.76663e-02
-4.29402e-02
3.77732e-02
-1.05842e-02
-6.03357e-03
3.02942e-02
1.61034e-02
-3.42202e-02
-5.92947e-03
6.02147e-03
-2.03642e-02
3.88754e-02
3.16191e-02
1.36570e-02
2.19333e-02
-3.80536e-02
-2.99174e-02
-7.33656e-03
6.71416e-03
-5.47193e-04
-1.47288e-02
-5.89434e-03
3.25610e-02
-2.93355e-02
4.32730e-03
1.52294e-02
4.00247e-02
7.11544e-03
-2.23367e-02
-2.49323e-02
-1.37291e-02
-5.65798e-03
3.69105e-02
4.54113e-06
-3.23632e-02
-1.23723e-02
1.67421e-02
-9.89478e-04
-6.44269e-03
2.59332e-02
-3.33837e-02
-2.54973e-02
-8.02948e-03
2.95469e-02
-3.03609e-02
2.48264e-02
9.37640e-03
-3.53558e-03
8.58092e-03
-1.83550e-02
-3.05440e-02
-3.49580e-02
3.18270e-02
-1.62938e-02
3.10812e-02
-4.50976e-03
-1.52012e-02
7.12559e-03
-2.60441e-02
3.55045e-02
-2.46812e-02
-3.90248e-02
-4.18155e-02
-1.82887e-02
-3.16518e-02
-2.17114e-02
3.06130e-02
-2.96176e-03
-2.68608e-02
-8.66637e-03
2.44469e-02
-3.67109e-02
1.21830e-02
1.50472e-02
-2.05631e-02
1.04508e-02
3.60374e-03
2.95383e-03
1.70553e-02
3.08273e-02
-4.65884e-03
-2.81454e-02
-5.15315e-03
1.49079e-02
-2.78273e-02
-6.37179e-03
3.79339e-02
-4.15955e-02
4.15206e-02
-3.47466e-02
1.35016e-02
2.35537e-02
-3.19375e-02
-1.88649e-02
3.44886e-02
7.32264e-03
2.85357e-02
1.46146e-02
2.05726e-02
1.48060e-02
-3.67062e-02
2.69383e-02
-5.37025e-03
1.30268e-02
8.10334e-03
-1.68214e-02
5.63087e-03
-2.70270e-02
6.07008e-03
-2.98442e-02
3.10359e-03
-3.42078e-02
-2.54350e-02
-3.34728e-02
3.81826e-02
-4.22759e-02
5.45105e-03
-6.01280e-03
1.80188e-02
-6.21442e-03
3.78443e-02
1.17041e-02
4.28306e-03
2.79240e-02
-1.27211e-02
-2.24111e-02
-2.53491e-02
-3.24391e-02
-3.38343e-02
3.43171e-02
-2.68923e-02
-1.98712e-02
-2.39253e-04
2.20988e-02
4.27966e-02
1.28696e-03
3.78856e-03
2.24075e-02
-2.63300e-02
-2.71819e-02
1.90725e-02
1.74464e-02
-2.01518e-02
-3.27603e-02
4.31427e-02
3.94393e-02
-2.86767e-03
-7.51780e-03
6.36401e-03
-3.30347e-02
-3.45238e-04
-3.47433e-02
-3.71835e-02
9.70205e-03
2.55558e-02
-4.03307e-02
2.71198e-02
-4.16627e-02
-3.50618e-02
-3.27557e-02
-2.85716e-02
7.40864e-03
-2.13347e-02
-3.44041e-02
2.61160e-02
2.54691e-02
9.76081e-03
2.88020e-02
-4.84240e-03
3.70896e-02
-1.13009e-02
-2.60270e-02
-2.81919e-02
-1.53171e-02
-3.37128e-02
-3.90347e-03
-7.93732e-03
7.85509e-03
3.07412e-02
-2.38065e-02
9.65381e-03
3.00230e-03
7.78547e-03
-2.01879e-02
-3.36880e-02
3.48699e-02
-3.57072e-02
3.76971e-02
8.35467e-03
4.02329e-02
2.06755e-03
-4.05008e-02
1.71546e-02
-3.46241e-02
-7.36110e-04
-3.81239e-02
1.22151e-02
-6.32282e-03
2.82402e-02
-7.98061e-03
2.66013e-02
-1.19304e-02
-3.28138e-03
-2.43865e-02
-4.76985e-03
-7.47093e-03
-2.36372e-03
1.99570e-02
-3.58156e-02
2.21392e-02
4.49216e-03
-3.43535e-02
3.43273e-02
3.54197e-02
-2.00140e-02
4.07814e-02
8.17915e-03
-1.28029e-02
3.26519e-02
3.70060e-02
1.59538e-02
3.83875e-02
-2.60539e-02
4.03554e-02
2.69947e-02
-3.33950e-02
1.05993e-02
-9.54361e-03
3.84417e-02
-2.80918e-02
3.35918e-02
-1.00649e-02
-3.69298e-02
-2.16031e-02
4.33179e-03
-3.88285e-02
-3.19046e-02
1.18883e-02
-3.33838e-02
7.20510e-03
1.07124e-02
-1.50226e-03
-3.28281e-02
-3.41568e-02
-1.02978e-03
4.06315e-02
1.63366e-02
-1.41213e-02
-3.95762e-02
-1.78322e-02
-2.39143e-02
1.50539e-02
4.26852e-02
2.26528e-02
3.77421e-02
3.73834e-02
3.66296e-02
1.66887e-02
2.18749e-05
-2.88302e-02
4.06319e-02
-3.35149e-02
4.04994e-02
2.10972e-02
-2.92746e-02
-2.11749e-03
-8.46581e-03
-1.52080e-02
2.05604e-02
-2.38027e-02
3.31656e-02
4.07204e-02
-3.72067e-02
1.73746e-02
-2.68385e-02
-3.39387e-03
2.60563e-02
2.07140e-02
3.71834e-03
8.03756e-03
-1.59810e-02
-6.40910e-03
3.78818e-02
-6.76673e-03
2.78848e-02
-2.04605e-02
-4.23934e-02
3.15796e-02
-3.27234e-02
7.63611e-03
-1.16256e-02
-6.64991e-03
3.10731e-03
1.20258e-02
-2.58768e-02
-1.43091e-02
1.34728e-02
-3.73037e-03
3.75526e-03
-9.41582e-03
-4.26871e-02
1.95223e-02
7.83138e-03
-2.99372e-04
3.73628e-02
-8.49451e-03
-1.59338e-02
2.29998e-02
3.60408e-02
-2.07400e-02
-3.81304e-02
-4.03491e-02
1.28542e-02
-2.66798e-02
-3.79635e-02
3.51132e-02
1.15702e-03
-1.94449e-02
1.31851e-02
2.77674e-02
1.71073e-03
2.91947e-02
-2.12710e-03
-8.37706e-04
-7.07854e-03
4.24428e-02
2.04834e-02
1.37730e-02
-2.82127e-02
1.13700e-02
1.91176e-02
-9.79038e-03
3.01744e-02
1.13227e-02
3.98976e-02
2.66312e-03
4.19424e-02
1.87871e-02
6.68354e-03
-1.20667e-02
-1.48329e-02
-5.68937e-03
4.40213e-03
3.35432e-02
1.25826e-02
1.12922e-02
2.73986e-02
2.19481e-02
7.24285e-03
-9.80022e-03
-9.39225e-03
6.92543e-04
4.61603e-03
-6.66739e-03
-2.54451e-03
-8.44799e-03
6.90414e-03
-3.02797e-02
-1.10369e-02
-2.46425e-02
1.94056e-03
3.86494e-02
4.26695e-02
8.01579e-03
2.61372e-02
4.77321e-03
-2.68713e-02
-2.15413e-02
4.00018e-04
6.99577e-03
-9.17475e-03
2.49788e-03
3.27020e-02
-1.39417e-02
4.31236e-02
-2.27232e-02
2.69488e-02
3.83629e-02
2.85083e-02
3.80500e-02
6.74186e-03
-5.88001e-03
8.34508e-03
4.74349e-04
2.29271e-02
-4.09618e-02
-1.00599e-02
-3.36831e-02
-2.52666e-02
3.05911e-02
5.60383e-03
-1.64088e-02
2.98433e-02
2.67365e-02
2.90938e-02
-2.04268e-02
2.07451e-02
-9.78077e-03
1.25647e-02
-1.28788e-02
8.53195e-03
-4.90425e-03
-2.48319e-03
3.31520e-02
-2.18320e-02
1.76286e-02
-2.69848e-02
-1.57405e-02
1.56259e-02
2.76371e-02
-3.01316e-02
2.52563e-02
2.13125e-02
2.88161e-03
-2.30551e-04
-3.03218e-02
-3.84504e-02
8.73691e-03
1.39175e-02
-3.05824e-02
-4.32604e-02
3.38205e-02
3.11766e-02
-2.64610e-02
3.56942e-03
2.24830e-02
4.21317e-02
2.76513e-02
3.16195e-02
-3.27183e-02
7.47764e-03
7.67533e-03
1.22341e-02
3.05409e-02
1.39104e-02
2.69558e-02
-2.62665e-02
-1.43475e-02
-3.23045e-03
3.25476e-02
-3.72300e-02
-4.06039e-02
2.94659e-02
2.50171e-02
1.15839e-02
-2.78199e-03
-2.82041e-02
-3.63106e-02
-3.46970e-02
-1.95463e-02
-3.52171e-02
-2.32354e-02
2.71629e-02
2.72025e-02
4.23671e-02
2.06127e-02
1.36122e-02
4.21317e-02
1.19775e-02
-2.87496e-02
1.09853e-02
1.00113e-02
2.98186e-02
4.83717e-03
2.25384e-02
1.58702e-02
2.04689e-02
1.48591e-03
2.86902e-02
-1.73830e-02
-2.15666e-02
-3.07367e-02
9.02775e-03
1.28772e-02
9.28371e-03
1.81244e-02
2.03033e-02
-1.71542e-02
-2.32742e-02
1.65468e-02
1.87117e-02
-4.22638e-02
-4.17118e-02
4.32107e-02
-9.25082e-03
5.12096e-03
-1.29065e-02
-5.90085e-03
-2.76020e-02
-1.89048e-02
-2.48133e-02
-9.61186e-03
3.07650e-02
-1.11493e-03
6.12270e-03
2.40821e-02
3.61801e-02
2.38375e-02
7.04748e-03
2.28166e-02
3.81343e-02
2.19313e-02
4.02024e-02
-2.52925e-04
4.11883e-02
1.16569e-02
-3.38823e-02
3.11472e-02
-9.38576e-03
2.05611e-02
-3.39202e-02
-8.25713e-03
-2.13091e-02
-3.54638e-02
-2.72232e-02
1.74962e-02
3.09553e-02
-2.54569e-02
-3.11769e-02
1.57736e-04
1.06996e-02
1.93930e-02
-4.32014e-02
2.07579e-02
5.91978e-03
3.26576e-02
-3.55123e-02
-2.41570e-02
-2.11665e-02
-2.32040e-02
1.32772e-02
-2.16741e-02
1.21254e-04
-3.93328e-02
2.46913e-02
-1.73244e-03
-1.79799e-02
-1.04434e-02
2.44673e-03
-8.21263e-03
-2.71993e-02
-2.44072e-02
-1.08866e-02
2.65938e-02
2.14554e-02
-9.08062e-03
-2.96440e-02
2.47111e-02
5.86648e-03
2.40385e-02
2.31118e-02
-2.34824e-02
-7.18986e-03
2.84966e-02
-1.02155e-02
3.58397e-02
-1.76090e-02
-2.68178e-02
-9.40396e-03
2.49116e-02
-1.48583e-02
-3.92178e-02
1.72723e-02
-4.23905e-02
-2.61177e-02
-3.75975e-02
3.08562e-02
3.49883e-04
-3.42099e-02
-3.38643e-02
2.89854e-02
-2.74369e-02
4.30648e-02
-1.71953e-02
2.44458e-02
-2.13619e-02
2.43906e-02
1.69714e-02
1.99913e-02
-2.86188e-02
3.58725e-02
-2.04226e-02
1.19470e-02
-1.47013e-02
-2.87385e-02
-1.91526e-03
-2.37117e-03
3.50421e-02
-1.76855e-02
-2.11141e-02
-1.09566e-02
-3.47808e-02
-4.03131e-02
2.93127e-02
2.23711e-02
-1.28031e-02
-8.84911e-03
7.92667e-05
1.20037e-02
-4.05212e-02
-3.03267e-02
-1.97363e-02
2.04701e-02
-3.44354e-02
2.18524e-02
-3.44399e-02
4.27039e-02
-3.46104e-02
-6.15523e-03
4.87415e-03
1.14382e-02
4.15246e-03
5.09635e-03
2.52117e-02
-2.76721e-02
-9.45590e-03
-1.55457e-02
-1.98459e-02
-1.59692e-02
3.81189e-02
-2.10970e-02
-4.23282e-02
3.86493e-02
1.90029e-03
4.62117e-03
1.75363e-02
4.24311e-02
-2.67156e-02
-1.67407e-02
-1.52183e-02
3.85289e-03
-3.48176e-02
2.95043e-02
-4.83192e-03
1.91553e-02
2.95716e-03
-2.18605e-02
1.83043e-02
3.41243e-02
3.09077e-02
2.63938e-02
2.02533e-02
-3.18455e-02
-2.00436e-02
4.24158e-02
-1.08626e-02
1.66189e-02
2.27848e-02
-2.93189e-02
3.78888e-03
-3.89850e-02
-3.32580e-03
-2.08816e-02
2.56636e-02
-1.95710e-02
-4.87078e-04
-2.53842e-02
3.90237e-02
4.16504e-02
2.88063e-02
3.91791e-02
-3.56786e-02
-2.30974e-02
-1.04996e-02
-2.54579e-02
-3.05358e-02
-2.03563e-02
-3.62366e-02
2.51554e-02
2.98519e-02
3.30152e-02
-2.44259e-02
-9.80548e-03
-5.86728e-03
-4.43218e-03
-2.17289e-02
-2.38804e-02
-3.70679e-02
1.87946e-02
-3.86150e-02
-1.68051e-03
-2.33334e-02
2.39292e-02
7.94895e-04
2.43291e-02
2.15148e-02
7.95022e-03
3.39184e-02
-3.60632e-02
1.12374e-02
-3.67838e-02
4.19014e-02
2.87686e-02
-1.59913e-02
-1.02913e-02
-3.13538e-02
-2.95006e-02
-1.26447e-02
-3.69791e-02
4.10773e-02
-4.02404e-02
-2.22345e-02
4.19149e-02
-2.89762e-02
-2.37623e-02
-4.72999e-03
2.44860e-02
1.92712e-02
-6.01170e-03
3.01158e-02
-1.66185e-02
1.85721e-03
-3.65410e-02
4.77270e-03
2.43640e-02
1.87992e-02
-8.42335e-03
-2.12533e-02
1.51382e-02
-2.47881e-02
1.46674e-02
1.18230e-02
1.38990e-02
-4.32831e-02
-2.45935e-02
2.64767e-03
2.43158e-02
-2.11369e-02
5.12143e-03
2.69839e-02
2.99119e-02
1.41844e-02
-2.20724e-02
6.96233e-03
1.50186e-02
9.50936e-03
5.05259e-03
-4.06516e-02
-4.20525e-02
2.92878e-02
4.03273e-02
2.19581e-02
-3.54748e-02
-1.72568e-02
2.23028e-03
-1.75698e-02
-2.21038e-02
-3.74742e-02
2.83608e-02
-1.23600e-02
3.63569e-02
2.53428e-02
2.65386e-02
4.06930e-02
-1.08943e-02
-1.41154e-02
-3.93752e-02
-4.09558e-02
-3.20033e-02
-2.46104e-02
4.28260e-02
-3.21206e-04
4.26598e-02
-3.24339e-02
2.52443e-02
-2.81313e-02
2.10223e-02
-3.87942e-03
-3.50001e-02
4.24287e-02
-2.18816e-02
4.25503e-02
1.46102e-02
2.33330e-02
-4.70426e-04
2.00013e-02
7.94755e-03
3.51612e-02
2.38871e-03
-1.97806e-02
2.23598e-02
2.30764e-02
-2.54285e-02
2.25396e-02
-2.58303e-02
-3.88028e-02
-1.73046e-02
3.79663e-02
-1.37686e-02
1.64054e-02
-1.88525e-02
-1.87488e-02
-2.48471e-02
-1.04569e-02
-3.06224e-02
2.73767e-02
1.34383e-02
-2.34167e-02
-1.26003e-02
1.49988e-02
-3.58455e-02
-2.56104e-02
3.44624e-03
-4.22583e-03
-3.27602e-03
1.81669e-02
2.14121e-02
-7.22171e-03
-2.24399e-02
7.52760e-03
-2.11608e-02
-1.67447e-02
6.84798e-03
-2.01408e-02
1.30134e-02
4.27418e-02
-3.51022e-02
1.10409e-02
-1.28890e-02
3.13725e-02
-2.89941e-02
2.34391e-02
-3.82755e-02
-3.29882e-02
1.27189e-02
-3.65313e-02
-2.69474e-02
3.67044e-02
3.25711e-03
-2.81600e-02
1.63596e-02
1.41150e-02
3.59742e-02
-2.87075e-02
3.07529e-02
-1.03046e-02
-3.15860e-02
3.10152e-03
1.00768e-02
-6.52043e-03
-1.67810e-02
4.73916e-03
-4.80174e-03
-1.52993e-02
8.23938e-03
-2.17703e-02
-4.20834e-02
1.47503e-02
1.63912e-02
-2.55221e-02
-1.63545e-02
2.47632e-02
-1.56033e-02
1.16529e-03
3.55831e-02
-3.20072e-02
2.85732e-02
7.99912e-03
-5.02538e-03
-2.57308e-02
1.67376e-02
3.65879e-02
-3.01181e-02
8.35185e-03
-1.65340e-03
-2.49109e-03
-4.47473e-03
4.03081e-02
1.69886e-02
-3.75871e-04
2.15669e-02
-8.86220e-03
-3.16999e-02
2.10038e-02
-1.68499e-02
-4.59417e-03
1.07010e-03
4.71113e-03
-3.45641e-02
-4.30796e-02
-3.37012e-03
3.35832e-03
9.23809e-04
3.90373e-02
-2.44877e-02
-2.02559e-02
1.22207e-02
1.05592e-02
3.98163e-02
-5.68223e-03
-1.37788e-03
4.23104e-02
-7.44193e-03
-2.22608e-02
-3.99148e-02
-1.87719e-02
-1.39257e-02
6.46282e-04
6.35555e-03
-1.10478e-02
-7.25600e-03
1.61000e-03
6.70802e-03
2.20292e-02
1.27100e-02
-6.12176e-03
-1.34377e-02
2.63086e-02
-3.01677e-02
1.85433e-02
3.84092e-02
3.45370e-03
1.36495e-02
-3.11792e-02
8.24548e-03
1.07727e-02
-3.72108e-02
4.71842e-04
4.28385e-02
1.23005e-02
-3.44042e-03
-1.98768e-02
7.91202e-03
3.33712e-02
-3.64063e-02
3.90417e-02
3.67254e-02
-8.15865e-03
-3.41907e-02
-2.01506e-02
3.35233e-02
5.79658e-03
1.68883e-02
3.97732e-02
2.21083e-02
1.25431e-03
-1.34314e-02
-1.38254e-02
-2.35358e-02
-1.36379e-02
3.13714e-02
-3.65373e-02
3.68899e-02
7.20081e-03
4.30337e-02
-8.06950e-04
1.70131e-02
1.78009e-02
-1.11451e-02
-1.43287e-02
2.72156e-02
2.49242e-02
3.80496e-02
-4.08288e-02
-4.13592e-02
-7.13226e-03
-3.50179e-02
-3.68333e-02
2.02554e-02
-3.40257e-03
3.79165e-02
1.04399e-02
-6.04935e-04
5.97022e-03
2.90101e-02
-4.55247e-03
-4.46008e-03
4.26043e-02
2.44078e-02
-3.33526e-02
-1.68435e-02
1.84214e-02
-3.81707e-02
1.84987e-03
-3.14339e-02
1.62765e-02
1.36758e-02
1.15535e-02
3.26217e-02
8.10801e-03
-3.44761e-02
-1.68757e-02
2.79461e-02
-2.46471e-02
2.84553e-02
-4.24284e-02
-3.92401e-02
-1.83679e-02
-8.92858e-03
2.23477e-02
-7.02269e-03
-2.48125e-02
1.53712e-02
-3.65247e-02
-2.85749e-02
-3.40420e-02
-3.67710e-02
-1.87153e-02
-2.78707e-02
-3.52875e-02
-6.36353e-03
2.11375e-03
-3.47523e-02
-1.06274e-02
9.60203e-03
-2.00576e-02
-4.06388e-02
-3.79234e-02
-2.15290e-02
3.14727e-02
3.22764e-02
-2.61931e-02
-3.37292e-02
-1.11137e-02
1.78558e-02
3.58642e-03
-3.48741e-02
2.77354e-02
-1.85888e-02
-1.55130e-02
3.91111e-02
3.17407e-02
7.26001e-03
2.34337e-02
1.40643e-02
9.45313e-03
-5.64505e-03
1.75981e-02
-2.64922e-02
-3.46461e-02
3.10511e-02
1.12266e-02
-1.19370e-02
3.26806e-02
-6.18964e-03
-2.81790e-02
-3.22311e-02
-2.15509e-02
-2.87088e-02
3.14298e-03
3.40671e-02
8.33679e-04
3.57191e-03
-3.34645e-02
4.15451e-02
3.40977e-02
3.64733e-02
-2.04019e-02
1.06411e-02
-1.00318e-02
3.94194e-02
1.53939e-02
2.37293e-02
5.23887e-03
-3.48991e-02
-5.45983e-03
-1.59226e-02
1.33330e-02
-1.34394e-02
1.34469e-02
1.65846e-02
1.81948e-02
1.41869e-02
3.89351e-02
2.12717e-02
3.28540e-02
1.18264e-02
-3.22152e-02
-1.29950e-02
-1.04083e-02
3.94680e-02
-2.71017e-02
-3.97838e-02
-4.31075e-02
2.33989e-02
2.87392e-02
2.86373e-03
3.55521e-02
1.42757e-02
1.19685e-02
2.22342e-02
3.22194e-02
2.89628e-02
-6.28702e-03
2.14383e-02
-1.08164e-02
9.21031e-03
-2.91885e-02
-3.41097e-02
3.49742e-02
2.81832e-02
2.09102e-02
-2.26936e-02
-4.41174e-03
-3.22177e-02
-1.95102e-02
2.86693e-02
-3.76488e-02
-1.47420e-02
-1.30132e-02
2.44289e-02
-1.33277e-02
3.54204e-02
2.69136e-03
2.35028e-02
5.78689e-03
2.31460e-02
-1.04344e-02
1.46008e-02
1.08448e-02
1.12008e-02
2.10081e-02
-3.10150e-02
2.81438e-02
3.12942e-02
1.59253e-02
9.36992e-03
3.05237e-02
5.37314e-03
-8.03563e-03
-2.26789e-02
-3.26249e-02
-3.99787e-02
-2.50954e-02
2.57618e-02
1.27389e-02
-5.15515e-03
2.08451e-02
-2.08531e-02
1.55272e-02
1.57529e-02
-2.13504e-02
1.01690e-02
6.89842e-03
-2.76738e-02
-2.05577e-02
-3.99797e-03
1.02683e-02
-2.35924e-02
2.31349e-02
1.38505e-02
2.73909e-03
4.24964e-02
-2.46459e-02
1.14299e-02
-2.60404e-02
4.07814e-02
2.35702e-02
-4.17322e-02
-1.75821e-02
3.31258e-02
-3.27334e-02
-3.84845e-02
-2.41734e-03
-3.30816e-02
1.48825e-02
-4.01880e-02
-4.15874e-02
4.01196e-02
2.91990e-02
1.34227e-03
-3.13923e-02
1.27198e-02
3.45741e-02
-3.44276e-02
2.76986e-03
-2.05734e-02
-6.41531e-03
8.02084e-03
-1.57573e-02
-1.89294e-02
3.19885e-02
-1.25671e-02
3.63821e-02
-1.93335e-02
1.42150e-02
2.22344e-02
3.32664e-02
2.58797e-02
3.87851e-02
1.43031e-02
1.34412e-02
2.12611e-02
1.82396e-02
1.27274e-02
3.44642e-02
-6.59749e-03
-1.52618e-02
-2.01018e-02
-3.63121e-02
2.45687e-02
3.95766e-02
-8.59961e-03
-3.86630e-02
8.02699e-03
2.60319e-02
2.00647e-02
1.45000e-02
-1.28948e-02
4.54583e-03
1.35932e-02
-3.77285e-02
1.02338e-02
-4.25054e-02
-1.45932e-02
4.06007e-02
3.88414e-02
2.48642e-02
-3.43169e-02
3.18365e-02
-1.73617e-04
-4.02207e-03
-1.22840e-02
1.59682e-02
-3.26992e-02
1.11785e-02
-3.68503e-02
-2.96005e-02
1.94248e-02
-4.08866e-02
1.52497e-02
-2.10782e-02
3.33879e-02
3.64398e-02
-3.16974e-04
1.03364e-02
-9.38190e-03
2.36712e-02
2.90399e-02
4.00695e-02
1.23494e-03
-1.33908e-02
5.11183e-03
-1.94346e-02
9.04534e-04
4.72951e-03
1.28709e-04
7.65409e-03
1.42802e-02
2.33423e-02
1.68772e-02
7.64988e-05
1.46760e-02
3.04253e-02
-2.63764e-02
-3.19284e-02
-3.83436e-02
-1.14107e-03
-3.37108e-02
2.86549e-02
3.24406e-02
3.33933e-02
8.49026e-03
4.17955e-02
-9.89983e-03
-1.91021e-02
-4.10289e-02
-2.83165e-03
3.11937e-02
-6.70013e-03
2.92937e-02
1.56190e-02
2.09619e-02
-1.77053e-02
-4.28467e-02
2.30116e-02
-3.14053e-02
1.20828e-02
-3.42138e-02
3.06552e-02
2.06431e-02
-3.18794e-02
-1.93236e-02
-2.72182e-02
-1.82067e-02
-4.18698e-02
-3.73425e-02
-3.28935e-02
3.11279e-02
-2.24232e-02
1.95811e-02
1.89579e-02
-6.21036e-03
-2.83201e-02
-1.82195e-02
-3.95507e-02
-2.38659e-02
3.66703e-02
1.20060e-02
-3.23942e-02
-3.16438e-02
5.57968e-03
-6.87466e-03
-2.40592e-02
-4.04826e-03
-1.15256e-02
-2.66969e-02
-3.78369e-03
8.97668e-03
1.81436e-02
2.25712e-03
-4.05767e-02
3.63678e-02
2.80901e-03
4.31372e-02
4.57468e-03
-1.50678e-03
2.45588e-02
3.83588e-02
-3.92319e-02
-1.38803e-02
-1.30909e-02
2.98721e-02
-3.47660e-02
-4.04732e-02
-2.10597e-02
8.69255e-03
1.64819e-02
-6.72793e-03
2.37159e-02
1.02122e-02
-2.67807e-02
1.77630e-02
-2.75388e-02
1.18069e-02
-2.47371e-02
3.58723e-02
-3.84761e-02
-3.20383e-02
-2.82804e-02
-2.99393e-02
1.66831e-02
3.84052e-02
3.12378e-03
2.48007e-02
-3.77458e-02
5.91451e-03
-4.32022e-02
-1.27793e-02
-1.20381e-02
4.17833e-02
-1.56695e-02
6.53185e-03
-3.16103e-02
2.60762e-02
-1.36145e-02
2.86405e-02
1.30506e-02
-1.79000e-02
-3.81623e-02
-3.30660e-02
2.94274e-02
-2.50277e-03
5.53302e-03
-1.30515e-03
2.04724e-02
-3.89653e-03
1.46088e-02
-8.22783e-03
1.92896e-03
-3.92056e-02
-2.27615e-02
-1.49749e-02
-3.00126e-03
3.32065e-02
6.00528e-03
3.71889e-02
8.85024e-03
-3.66270e-02
-3.53012e-02
3.49729e-02
-1.52899e-02
-3.19946e-02
3.56610e-02
-2.85105e-02
2.84335e-02
-4.07842e-03
-1.70136e-02
1.81389e-02
4.26934e-02
-1.52620e-02
-1.24325e-02
-1.21716e-02
1.55483e-02
2.02640e-02
-2.71970e-02
-4.21710e-02
-5.60892e-03
3.66478e-02
-4.26907e-03
4.25099e-02
-1.22989e-02
-1.29578e-03
-2.08857e-02
6.78804e-03
2.07505e-02
-1.16865e-02
-5.95108e-03
-4.21354e-02
1.60291e-02
1.99673e-02
2.71880e-02
1.87452e-02
3.20173e-02
3.45898e-02
2.14870e-02
3.16193e-02
1.40195e-02
2.58117e-02
1.16780e-02
-1.10203e-02
1.29658e-02
1.88695e-02
-8.92875e-03
-1.99929e-02
-1.52428e-02
-1.16048e-02
2.43113e-02
2.16882e-02
3.97302e-03
-9.64120e-03
-2.42801e-02
-3.56319e-02
4.26688e-02
2.39686e-03
2.71401e-02
3.26259e-02
-2.61970e-02
5.79838e-03
-3.03869e-02
1.27099e-02
1.65229e-02
-3.91405e-02
4.98456e-03
1.15828e-02
3.33249e-02
3.18271e-02
-9.09118e-03
1.60033e-02
-1.82585e-02
2.01321e-02
-2.22511e-02
-3.06996e-02
-1.62896e-02
4.15971e-02
3.83022e-02
-2.14912e-03
5.57363e-03
1.62036e-02
-3.54799e-02
-3.09631e-02
3.69326e-02
-6.97121e-03
2.51639e-02
3.84093e-02
-2.21671e-02
4.21280e-02
-2.15056e-02
2.48684e-03
-5.49711e-04
1.26629e-02
2.86359e-02
1.30357e-02
-3.89035e-02
5.83924e-03
-3.99360e-02
-4.06796e-02
-2.97606e-02
-4.29144e-02
3.12693e-02
1.08088e-02
1.67218e-02
1.37479e-02
3.85251e-02
9.33724e-03
9.10366e-03
-2.27058e-03
3.10121e-02
-4.14158e-02
9.56296e-03
3.09998e-02
-3.51901e-02
1.62211e-02
-1.86451e-05
3.70440e-03
7.99147e-03
-4.79929e-03
2.83659e-02
4.86317e-03
-2.09894e-04
-2.05243e-02
3.86882e-02
3.43885e-02
-4.28406e-02
-3.79189e-02
-2.71740e-03
2.78625e-02
-3.79584e-02
5.10307e-03
-2.81273e-02
2.66082e-02
1.98555e-02
-2.28836e-02
-2.46044e-02
1.75376e-02
-1.29897e-02
-1.80661e-02
3.97021e-02
1.17544e-02
-2.82935e-02
1.69822e-02
-2.74656e-02
1.75607e-02
-3.99017e-03
3.97094e-02
-4.04789e-02
3.61280e-02
9.13512e-03
3.37601e-02
-1.16485e-02
2.53727e-02
3.05309e-02
1.25621e-02
2.80135e-02
8.38950e-03
1.90806e-02
6.24631e-03
-7.32296e-03
-2.97524e-02
-4.18022e-02
-2.24278e-02
1.22678e-02
2.96410e-02
7.24029e-04
3.81223e-02
2.50745e-02
-1.48025e-02
2.69101e-02
1.71808e-02
1.78156e-03
1.26524e-02
3.54505e-02
1.18288e-02
-3.36516e-02
-4.08609e-02
-2.51545e-02
3.91025e-02
-2.48551e-02
5.61289e-03
1.18869e-02
-7.16564e-03
-1.81709e-02
1.01073e-02
-1.40502e-02
-3.85031e-02
3.63688e-02
-1.97589e-03
3.29133e-02
-5.54723e-03
-1.44135e-03
2.84481e-02
7.86025e-04
-3.53156e-02
3.79461e-02
-1.74406e-02
3.00511e-02
-2.78098e-02
-2.64938e-03
1.05938e-02
-1.06833e-02
-1.58166e-02
7.04253e-03
2.28197e-02
3.89900e-02
-1.53606e-02
-4.10222e-02
-3.36864e-02
-2.95151e-02
-1.33908e-02
-3.57089e-02
2.92813e-02
5.89338e-03
-3.33584e-02
-1.39569e-03
-2.82267e-02
-3.03429e-02
-3.99933e-02
4.27968e-02
-1.07820e-02
-1.66510e-02
2.41726e-02
8.06030e-03
-4.26764e-02
4.13956e-02
4.71635e-03
2.29997e-02
3.40004e-02
4.15397e-02
-4.14955e-02
3.75085e-02
-1.18024e-02
-3.96016e-02
3.74859e-02
1.19632e-02
-1.61564e-02
-3.53729e-02
-2.93130e-03
1.84888e-02
-2.65154e-02
-2.94461e-02
-1.84206e-02
9.17341e-03
-2.29558e-02
9.30111e-03
-2.61628e-02
3.78648e-02
-3.01882e-02
6.28367e-03
-2.21940e-02
1.83622e-02
1.63629e-02
-3.60040e-03
-2.53480e-03
2.19537e-02
-4.00048e-02
-3.56417e-02
-4.07510e-02
-2.67903e-03
1.45950e-02
3.72609e-02
-3.98580e-02
3.01236e-02
1.91220e-02
1.62888e-02
5.87001e-04
1.90521e-02
-2.71679e-02
1.15720e-02
3.71716e-02
3.13928e-02
1.56400e-02
-1.34605e-02
-1.98950e-02
4.28273e-02
2.35744e-02
1.35493e-02
3.85854e-03
-2.88586e-02
3.41380e-02
1.81029e-02
-3.41124e-02
-1.13484e-02
3.34569e-02
2.66969e-02
-8.39286e-04
-2.12846e-02
6.91488e-05
1.13141e-02
-2.43075e-02
3.28988e-02
-3.62549e-02
-9.26430e-03
6.05504e-03
-6.77758e-03
-7.01288e-03
-2.26154e-03
3.75226e-02
-4.02657e-02
3.35598e-03
-2.21212e-02
1.88803e-02
1.26125e-02
2.97062e-02
-1.81749e-02
-3.18852e-02
-4.01041e-02
4.70918e-03
-3.57034e-02
4.18085e-02
2.38867e-03
-8.16374e-03
1.83445e-03
-2.46342e-02
-3.26470e-02
-2.04507e-02
1.49887e-02
-4.79051e-03
-4.13204e-02
2.51795e-02
2.38200e-02
-4.06720e-02
2.06789e-03
4.82444e-03
-2.23054e-02
7.53868e-03
-2.22026e-02
-1.60658e-02
1.44214e-02
1.63818e-02
1.79275e-02
2.21165e-02
-4.11067e-02
-3.10803e-02
4.01628e-02
-9.79505e-04
2.46091e-02
-2.36668e-02
-1.68848e-02
1.38914e-02
-1.97039e-02
1.73779e-02
1.38616e-03
-2.86785e-02
3.37971e-02
-7.49908e-03
1.84972e-02
-1.11505e-03
1.56252e-02
-8.83315e-03
1.02481e-02
-3.75717e-02
1.97004e-02
3.28959e-02
2.90574e-02
2.98960e-02
2.69301e-02
-3.94565e-02
-3.57821e-02
-1.82785e-02
-1.98458e-02
2.02505e-02
4.23882e-02
4.35975e-03
-1.42131e-02
-1.87600e-02
-3.33599e-02
-2.14439e-02
1.93988e-02
8.60501e-04
3.76199e-02
4.30002e-02
5.39396e-03
-8.64318e-03
-3.16999e-02
1.27538e-02
-2.06207e-02
-8.86128e-03
1.57619e-02
8.66176e-03
1.13350e-02
-3.69627e-02
7.23229e-03
-2.14568e-02
3.65516e-02
-1.83080e-02
-3.29324e-02
-1.06802e-02
-1.99446e-03
-9.99503e-04
-5.34105e-03
1.85870e-02
1.38897e-02
1.22494e-02
-3.59911e-03
1.60039e-02
-3.19099e-02
4.08479e-02
-3.76589e-02
3.88736e-02
-1.33543e-02
-2.26269e-02
-4.10142e-02
-3.83908e-02
-3.03195e-02
2.52947e-02
3.62966e-02
-1.29742e-02
-3.45910e-02
6.20774e-03
2.70485e-02
3.95290e-02
-8.48963e-03
1.21214e-02
1.22552e-02
-2.96680e-02
-4.23208e-02
2.54663e-02
-6.57409e-04
-1.83638e-03
-4.14473e-02
3.09638e-02
6.94491e-03
1.82501e-02
2.34531e-02
-1.72590e-02
-1.29492e-03
-3.17000e-02
1.12869e-02
8.87435e-04
-3.66781e-02
9.02829e-03
-4.26009e-02
1.15846e-02
3.70573e-02
3.98705e-02
2.17092e-03
-1.18480e-02
-1.88521e-02
-2.03069e-02
2.11090e-02
-2.68794e-02
2.82630e-02
-1.45287e-02
3.89717e-02
-1.77843e-02
1.53028e-02
5.86213e-03
-1.20842e-02
-4.16804e-02
7.44896e-03
3.29935e-02
-3.51576e-02
1.11489e-02
8.77370e-03
-2.99582e-02
-1.49057e-02
-3.88719e-02
-1.49772e-02
-3.13564e-03
-1.99691e-02
-8.54088e-03
-1.18253e-02
-1.24064e-02
-3.33589e-02
-3.53000e-02
-1.71588e-02
2.92623e-02
2.70891e-02
1.30524e-02
3.59856e-02
1.22310e-02
-2.62272e-02
-3.15790e-02
-4.03578e-02
-5.97608e-03
8.87882e-03
2.54972e-02
2.78400e-02
-1.08666e-02
-4.16539e-02
-2.20986e-02
2.85436e-02
3.19201e-02
-1.45933e-02
-5.84279e-03
-3.48331e-02
3.32317e-02
-3.50457e-02
-2.35814e-02
-3.47488e-02
6.94764e-03
-2.90806e-02
-2.63301e-02
2.64476e-02
-2.52230e-02
8.96923e-04
1.48804e-02
1.58893e-02
1.28774e-02
-2.46144e-02
-1.90905e-02
2.19874e-02
1.82957e-02
-3.30559e-02
1.93822e-02
-9.73080e-03
2.76729e-02
2.93438e-02
3.43872e-02
3.69776e-02
-3.07528e-02
-1.73157e-02
-1.03657e-03
2.92094e-02
5.99041e-03
2.00977e-02
9.31750e-03
1.25710e-02
-1.24595e-02
-4.25495e-02
-2.32968e-02
-1.79128e-02
3.38895e-02
-1.92616e-02
2.18968e-02
-1.94326e-02
-4.24262e-02
-9.26167e-03
-3.69222e-02
-3.07718e-02
2.92642e-02
-2.92927e-02
-3.66555e-02
1.26449e-02
3.65582e-02
-4.38948e-03
3.09886e-02
-4.12789e-02
-3.16777e-02
2.02445e-02
2.82914e-02
-3.54676e-02
-1.04390e-03
7.48992e-04
1.54047e-02
3.99630e-02
1.28887e-03
-4.30679e-02
-2.72658e-03
4.41599e-03
-6.90374e-03
-3.18425e-02
2.90022e-02
-1.60397e-02
-8.93734e-04
-4.56560e-04
-2.91550e-02
-7.44051e-03
-1.22978e-02
-1.77146e-02
2.98610e-02
-2.72492e-02
-2.27333e-02
3.47044e-02
-9.83014e-03
3.85763e-02
1.90277e-03
4.06607e-02
-5.26176e-03
2.86741e-02
2.00384e-03
4.18917e-02
3.01254e-02
-6.11869e-03
-4.20801e-02
3.29003e-02
-2.63092e-02
-1.89703e-03
4.01611e-02
-3.81629e-02
2.53249e-02
2.61995e-02
-3.18312e-02
9.79217e-03
-2.60976e-02
-1.72789e-02
-4.45459e-03
2.36076e-02
-4.26837e-02
2.61240e-02
5.48633e-03
-1.02078e-02
6.36374e-03
-2.64527e-03
-3.90270e-03
1.41324e-02
-1.15685e-02
-3.29658e-02
-4.27639e-02
-2.27212e-02
3.68780e-02
-7.95159e-03
2.61831e-02
-2.37863e-02
-2.24207e-02
-2.11934e-02
3.70256e-02
-2.08563e-02
1.76361e-02
-2.67113e-02
1.65422e-02
7.85363e-03
2.48466e-02
-2.17965e-03
-1.80827e-02
-2.84766e-02
-4.28447e-02
1.84527e-02
3.34330e-02
-2.15045e-02
-4.03038e-02
3.84272e-02
-1.07218e-02
-3.47685e-02
2.07738e-02
1.01274e-02
-1.08366e-02
1.41001e-02
2.25191e-02
1.80631e-02
5.49263e-03
1.86240e-02
4.07673e-02
3.73550e-02
-8.06145e-04
2.89902e-02
-1.16655e-02
1.74468e-02
1.81292e-02
2.86923e-03
-1.34988e-02
3.61799e-02
-2.84611e-02
2.32803e-02
7.16786e-03
