-0.005892
-0.041705
0.003095
-0.028389
-0.017835
0.029312
0.005874
0.031967
0.041009
-0.001578
0.005424
0.011107
-0.040804
0.004376
0.022002
0.018520
0.040002
-0.015495
-0.021808
0.016740
-0.025423
-0.008859
0.012752
0.042800
0.040914
0.035450
0.028393
-0.014623
0.021695
-0.027587
0.030978
-0.028883
0.008064
0.000930
0.030986
0.038350
-0.022174
0.002329
0.027961
0.006489
0.033886
-0.000256
-0.000619
0.027236
0.022632
0.004230
0.038563
0.017040
-0.038694
-0.027748
-0.034875
-0.035076
-0.009902
0.004728
0.035930
0.006394
-0.023339
0.037303
0.022907
0.034080
0.026781
0.039456
0.036783
-0.040269
-0.027737
-0.033351
-0.038995
-0.039420
0.005658
0.026130
-0.027433
-0.037552
-0.041657
-0.037197
-0.031242
-0.043415
-0.005186
-0.008042
0.038017
0.031802
0.012634
0.011137
0.017212
-0.006072
-0.008855
-0.032011
0.000652
0.029715
-0.018721
0.017516
-0.018263
0.008591
0.010430
-0.034875
-0.027188
0.018922
-0.005028
-0.028331
0.010986
-0.041804
-0.029305
-0.041456
0.009434
-0.023394
0.017454
-0.000092
0.027756
0.041917
0.037112
-0.028367
-0.034794
-0.012931
-0.031103
-0.006845
-0.014081
-0.013861
-0.029026
0.016194
0.011591
0.034194
0.016092
0.026401
0.010320
-0.037328
0.015612
-0.024101
-0.020904
0.005764
0.029686
0.010891
-0.020307
0.037076
0.038683
-0.034827
0.009434
-0.008866
-0.020563
-0.016278
0.037354
-0.003073
0.031572
0.012854
0.001252
-0.058386
0.031414
-0.032352
0.032308
0.009353
-0.009657
-0.018640
0.027536
-0.032839
-0.013081
-0.014074
0.037709
0.024493
0.036882
-0.000985
-0.007028
-0.004940
-0.022629
-0.018362
-0.032417
-0.009657
0.036215
0.040408
-0.035018
0.021691
0.042485
-0.022295
-0.003823
-0.017714
0.033340
-0.014850
0.003637
-0.022387
0.033326
0.015213
0.025002
0.030407
0.027975
-0.020772
0.001740
0.013766
0.020574
-0.017674
0.007954
0.021076
-0.007647
0.001619
0.040163
-0.020746
0.030378
0.001860
0.014641
-0.003468
0.041646
0.022874
-0.007042
-0.021391
0.019505
0.030129
-0.031868
0.022090
0.015923
0.028730
-0.033655
-0.022306
-0.038123
-0.002618
0.033245
0.023079
0.041057
-0.004369
-0.036852
0.041624
0.020779
-0.027836
-0.015363
-0.030246
-0.011137
-0.012755
-0.006431
0.024287
0.026917
0.028667
0.005775
0.009778
0.007918
-0.010968
0.021464
0.003431
-0.015158
0.002816
-0.048231
0.010412
0.001271
-0.038973
-0.042360
0.038702
0.030597
0.013239
0.032146
-0.011569
-0.011887
0.011843
-0.012232
-0.000099
0.016018
-0.038607
0.007841
-0.019215
-0.003560
0.063755
0.028466
0.009386
0.012664
0.035472
-0.027415
-0.004442
0.023885
-0.028404
0.018703
0.033780
-0.041994
0.001721
0.028049
0.006229
-0.038782
0.011920
-0.010324
0.004662
-0.032428
-0.025840
-0.023595
0.010415
0.041093
0.007251
0.026521
0.029715
-0.043518
-0.029184
-0.043635
0.043239
0.063458
-0.041100
0.005541
-0.019351
0.013488
-0.025657
-0.038508
-0.041558
0.005010
0.015564
0.028158
0.038006
0.031026
-0.016081
0.012660
0.032352
0.020424
-0.026082
0.018743
0.024778
0.027865
0.034355
0.035930
-0.025844
-0.006200
0.010448
0.038369
0.000601
0.016256
-0.003673
0.011338
0.034465
-0.034813
-0.015575
0.018340
0.028426
0.042730
0.032161
-0.000439
0.028763
0.027781
-0.009668
-0.015692
0.004248
0.035435
0.019501
-0.005658
0.033842
0.000820
-0.008661
-0.009258
-0.043730
0.003281
-0.035351
0.015736
0.015542
-0.017556
0.011360
0.009386
-0.017025
-0.005083
-0.000908
-0.036409
0.037413
0.068644
0.008452
0.004929
-0.019446
0.013821
0.032978
0.033857
0.009382
0.039639
0.012986
0.033692
-0.014788
0.014729
0.005446
-0.012616
-0.016359
-0.016835
-0.041657
-0.022215
0.026807
0.024764
-0.005691
-0.026683
0.028396
-0.027909
-0.000267
-0.030392
0.001406
0.044352
-0.028092
0.026899
0.034197
-0.003604
0.032571
-0.020874
0.006848
-0.039643
0.037112
0.006669
-0.041415
0.006325
-0.037006
-0.042463
-0.027203
0.031634
-0.034564
-0.008511
-0.024544
0.043254
-0.000919
-0.017908
0.054127
-0.012964
0.029623
-0.040291
-0.022768
0.019970
-0.044089
0.004885
0.024742
-0.010620
0.017263
0.040672
0.021365
0.027865
-0.025053
-0.033011
-0.038694
0.029393
0.015740
0.028547
0.016575
0.034831
-0.012243
0.018410
-0.006548
-0.035794
-0.004028
0.030271
-0.007266
-0.025661
-0.015026
0.016289
0.004724
0.011122
0.033597
-0.008225
-0.034699
0.020977
0.025599
-0.027323
0.013275
0.016242
-0.035314
-0.012360
-0.034355
-0.030645
0.026060
0.016985
0.032608
-0.040522
-0.022281
-0.010331
-0.037204
-0.002618
0.002128
-0.011605
0.049249
-0.020222
-0.032945
0.026470
-0.030019
0.010774
0.009906
0.007555
-0.055745
-0.024185
-0.013312
0.000337
-0.024408
0.035915
0.035915
-0.044345
-0.006259
0.030217
0.003768
0.021149
0.014081
0.120000
0.009474
-0.015832
-0.053457
-0.012763
0.028645
0.026353
-0.003384
-0.003919
0.023350
0.041236
-0.040324
-0.014081
0.022716
-0.025203
-0.020182
0.039855
-0.028664
-0.028495
-0.029806
0.007515
0.032370
-0.040178
-0.002970
-0.046700
0.009254
-0.008280
-0.026111
0.021673
0.015879
-0.022672
-0.012788
-0.038054
-0.038566
0.007544
0.023394
-0.001238
-0.001765
0.044276
0.026327
0.014700
-0.044327
0.000527
-0.009075
0.022841
0.029100
-0.002981
-0.036105
-0.051402
0.063802
-0.008145
0.082069
0.043587
-0.004314
-0.014733
-0.011638
0.021043
-0.042829
0.020764
0.016688
-0.018139
-0.010016
-0.015963
0.027419
-0.119998
0.041441
-0.009207
-0.012605
-0.039691
-0.041218
0.021310
0.034051
0.042064
0.038914
-0.014945
-0.006618
-0.011444
0.032696
0.013814
-0.002761
0.038266
0.031271
0.005109
-0.032879
0.006694
-0.040855
0.039921
-0.019021
0.022607
-0.012536
0.008595
-0.005856
-0.000084
-0.037958
-0.037654
0.027177
-0.035783
0.037061
-0.036717
-0.008097
-0.010104
0.027799
-0.028210
-0.036182
0.004526
0.019234
-0.023929
-0.028964
0.033348
0.040416
0.002307
0.015875
-0.007361
-0.010206
-0.001600
0.002022
-0.013667
-0.016315
0.015645
0.023372
0.013755
-0.016652
-0.023573
0.026327
0.009075
0.011408
0.000535
-0.037504
0.024613
0.036208
0.029169
-0.034677
0.008093
0.023174
0.037460
0.007083
-0.034457
-0.034600
-0.012092
0.036182
-0.018743
0.000403
0.036508
0.005094
0.039877
0.020721
0.020343
-0.014458
-0.025192
-0.028407
0.002582
-0.025295
-0.015517
-0.011225
0.008804
0.032278
-0.020120
-0.013458
-0.019472
-0.006310
0.017113
0.023998
-0.026595
0.003373
-0.007460
0.042595
-0.032363
0.025229
0.013938
-0.082095
-0.020717
0.018677
-0.016732
0.011261
-0.024808
-0.022782
0.000828
0.073815
0.031073
-0.047198
0.046685
-0.015967
0.038372
-0.022394
-0.036431
0.038683
-0.042536
0.037676
-0.028023
0.043843
-0.026763
0.005083
-0.021431
-0.022174
0.001014
-0.009522
0.016201
-0.001644
0.045422
-0.043078
0.038365
0.032088
-0.022848
0.001187
-0.031982
-0.035003
0.027177
0.015062
-0.027748
0.010346
0.025503
0.009203
-0.025375
-0.027734
-0.011404
-0.023064
-0.023559
-0.008789
-0.040606
-0.027474
-0.009668
0.033395
0.022874
-0.012144
-0.004190
0.004896
-0.023643
0.040119
0.011561
-0.042496
0.006489
-0.005105
-0.007727
0.040837
0.003680
-0.035959
0.009287
0.027880
0.038043
-0.032641
0.039866
0.014993
0.008738
0.022698
0.017692
0.012982
0.021497
-0.035281
0.017307
-0.024247
0.021336
-0.025686
-0.017802
0.012360
-0.035007
-0.018076
0.024991
-0.041558
0.029059
-0.009474
-0.009485
0.007182
-0.005614
0.000194
0.026250
-0.035497
-0.013133
-0.033227
0.024610
0.013349
0.012404
-0.003245
0.042836
0.037779
0.036786
0.024233
-0.033593
-0.004336
-0.016472
-0.042067
-0.040295
0.016989
0.025705
0.009485
0.004080
0.016311
0.027481
-0.028243
-0.035904
0.043602
0.010781
-0.004537
-0.028140
0.033908
-0.014462
0.042221
-0.037687
-0.057284
-0.017406
0.020325
0.007042
0.011290
0.015180
-0.013975
0.049754
0.000923
-0.024119
-0.043400
-0.000289
0.034450
0.017469
-0.006709
-0.033758
0.016439
0.007416
0.013191
0.041862
0.015843
0.007987
-0.017106
0.067600
0.004644
-0.020977
-0.058939
-0.031275
-0.036252
0.006856
-0.034065
-0.031542
-0.032553
0.021706
-0.033589
0.018604
-0.000443
-0.027807
-0.027821
-0.015773
-0.041906
-0.031429
-0.025155
0.017084
-0.037017
-0.027345
0.032703
0.033274
0.004061
-0.036710
0.004915
-0.003757
0.001838
0.034706
0.025386
0.038911
0.032751
0.006599
0.005870
-0.035600
-0.018036
-0.044891
0.000300
-0.038936
-0.001794
0.041075
0.030191
-0.043492
-0.017512
0.031989
-0.036336
0.012777
-0.015784
-0.005607
-0.046883
-0.011415
-0.040540
-0.018033
-0.025888
0.036219
-0.039929
-0.005523
0.036490
0.004937
-0.029327
0.005134
-0.022076
0.003860
-0.023698
0.004962
0.002721
0.017278
0.014469
-0.037728
-0.040405
-0.034849
0.040522
-0.017425
0.007756
0.006119
-0.004299
0.002022
0.003051
-0.023478
0.036977
0.021237
0.027704
-0.014982
0.020779
-0.029803
-0.034153
-0.025555
0.039299
-0.038046
0.005874
-0.029312
-0.024646
0.024914
0.007811
-0.023639
0.028829
-0.005167
-0.049747
0.034098
0.007460
-0.006369
-0.009133
0.023874
0.028858
-0.043151
-0.040936
0.019864
-0.013920
-0.004797
0.035362
-0.016905
0.022698
-0.014627
-0.048505
0.056537
0.032245
-0.045257
0.027518
-0.009529
0.027924
-0.033333
0.030004
0.015136
0.003351
0.029469
0.003073
-0.000959
-0.023006
0.003710
-0.028279
0.014326
-0.031132
0.009013
0.001608
0.039412
0.031583
0.044748
0.025837
0.002252
-0.031751
0.034754
0.034040
0.024958
-0.037995
-0.009562
0.011415
0.008496
-0.036490
-0.008569
-0.040064
0.015143
0.024328
0.039262
0.026503
-0.046590
0.038361
-0.042781
0.036314
0.024079
0.028287
-0.023042
-0.003615
0.041357
0.023478
-0.041093
-0.009529
0.010510
-0.019424
-0.021043
-0.008969
0.027078
-0.002109
0.016667
-0.031762
-0.001952
0.009317
0.013198
0.063634
0.032011
0.007284
-0.016619
-0.029096
0.019087
0.036127
0.013477
0.033381
0.043441
0.035944
-0.035593
-0.025789
0.021475
0.007720
0.008551
0.039042
-0.027199
-0.005024
0.016359
0.026309
-0.011459
0.023691
0.020131
0.016846
0.043027
-0.008665
0.012539
-0.020658
0.028770
0.034651
-0.038515
0.001216
0.023152
-0.030535
0.042554
0.031172
-0.016608
0.043569
0.014934
0.017084
-0.018981
-0.041456
0.030824
0.002922
0.013550
0.011214
0.015205
0.020259
0.002322
-0.040170
-0.014883
-0.011243
0.018087
-0.031879
-0.013935
-0.004146
0.010412
-0.039793
-0.020472
0.041507
-0.017216
-0.030931
-0.046535
0.023445
0.008961
0.024515
0.038775
-0.035384
0.010291
-0.011261
-0.001040
-0.004801
0.019706
0.010833
-0.028272
-0.012748
0.021321
0.032703
-0.014524
-0.044254
0.026412
0.016410
-0.021673
-0.004512
-0.012363
-0.017696
0.009785
-0.038090
0.038812
-0.040192
0.005713
-0.010965
-0.017230
0.032059
0.012840
0.036918
0.041921
0.008108
-0.008694
0.010023
0.032641
-0.028272
0.012429
-0.036948
0.048260
-0.037376
0.007346
0.024441
-0.034626
0.045015
0.023665
-0.024507
0.037482
0.013107
-0.001908
0.033201
-0.001747
-0.035849
-0.009335
0.036065
0.025426
0.029129
-0.016135
-0.007522
-0.004468
0.013140
-0.023918
-0.032201
0.022021
-0.022918
-0.002673
0.016989
0.041390
0.031648
0.037021
-0.017274
0.023764
0.021347
-0.034739
0.034351
0.004358
0.018633
-0.007544
0.028960
0.031575
0.028085
-0.005369
-0.018985
0.025166
0.037577
-0.026137
-0.013737
0.006087
0.029693
0.015520
0.009935
-0.001080
-0.003743
0.005603
0.024174
0.015344
0.007962
-0.012913
-0.025024
-0.025708
0.040694
0.020783
0.033414
-0.033443
0.009924
-0.014835
-0.010573
0.000311
-0.005241
-0.030751
-0.043821
0.032293
-0.035036
-0.014096
-0.019259
-0.031817
0.011785
0.035431
0.042529
0.028525
-0.023606
-0.004058
-0.013502
-0.021358
-0.005024
-0.038581
-0.086343
-0.007687
-0.033362
0.037958
-0.019362
0.024427
0.025170
-0.021145
-0.024141
-0.032791
-0.031128
0.024020
0.021471
0.066234
0.015275
0.017857
0.043268
-0.040577
0.018179
-0.009016
-0.026060
-0.029524
-0.021120
-0.018622
0.028697
-0.028027
0.027657
0.005087
-0.024873
-0.041837
0.020468
-0.040994
-0.023951
0.008408
0.027642
-0.009082
-0.044433
-0.005317
0.038848
0.005914
0.000161
-0.027378
0.023998
-0.039273
-0.003497
-0.020431
0.048264
-0.018318
-0.040716
0.014275
0.001699
0.021973
-0.039273
-0.010199
0.005779
0.035739
0.045206
-0.032824
-0.016000
-0.031634
-0.026558
-0.033545
0.007819
-0.015854
0.048172
-0.030074
-0.026631
0.027287
0.012880
0.037303
0.015583
0.030953
-0.037870
0.010518
-0.001721
-0.040156
0.008965
-0.047601
0.005797
0.033476
-0.027690
-0.027624
-0.011653
-0.016333
0.034717
0.028030
0.025694
-0.001128
-0.028012
0.043030
0.041961
0.050545
-0.010097
-0.018424
-0.015352
-0.011298
0.032385
-0.023570
-0.020486
0.016472
-0.050285
0.004889
-0.011920
-0.010309
-0.036823
0.023445
-0.009840
-0.034761
0.038273
0.037911
-0.003743
-0.033014
-0.034545
-0.041240
-0.016930
-0.000227
0.013711
-0.007621
-0.035270
0.030136
-0.021197
0.005409
-0.012118
-0.014334
-0.047788
0.029513
-0.034157
0.042847
-0.046209
0.010741
0.016022
0.034835
-0.026415
-0.025060
0.035479
-0.043247
0.027492
-0.014074
-0.031604
0.011690
0.043129
0.006804
0.030740
0.008408
-0.011737
-0.019717
0.013440
-0.045620
0.031015
-0.034842
-0.008251
-0.000820
0.026459
0.047656
0.042833
-0.010686
-0.039720
-0.021724
0.006442
-0.018000
0.017553
-0.021244
0.036757
0.023493
0.029660
-0.012005
0.005424
0.030960
-0.024716
-0.000374
0.012711
-0.037944
-0.029169
-0.024002
0.027005
-0.020552
0.029433
0.042390
0.028920
0.014048
0.024123
-0.015718
0.009199
-0.013070
-0.042741
-0.000128
-0.032831
0.019431
-0.015425
0.032385
-0.035867
0.017201
-0.015290
-0.000751
-0.023105
0.030026
0.034479
-0.005065
-0.003497
0.022878
0.025500
-0.041126
-0.029902
0.036424
-0.028147
0.058994
-0.011924
0.025719
-0.017875
-0.000187
0.028305
-0.002282
0.016066
0.041642
0.011983
0.039943
0.038358
0.023009
0.022453
0.029154
0.044744
0.000073
0.041892
-0.030323
0.024661
-0.006171
-0.040493
-0.009954
-0.008804
0.008727
-0.012224
-0.027690
0.028063
0.010910
0.026587
-0.008712
0.005929
0.007771
-0.026236
-0.031026
-0.020182
0.020918
-0.043983
-0.034369
-0.035120
-0.016527
-0.031850
0.028239
-0.029517
0.001230
-0.038442
-0.021449
0.027093
-0.003886
-0.017761
0.019149
-0.086932
0.029133
-0.036310
-0.010785
0.019831
-0.027767
-0.032271
-0.007647
0.017157
-0.025192
-0.023716
-0.018867
0.015337
-0.007822
-0.038566
0.016436
-0.038405
-0.020431
-0.007244
0.036636
0.018633
-0.024196
-0.030231
0.008320
-0.011463
-0.001505
0.020827
-0.031568
-0.026481
-0.000626
-0.029378
0.006087
-0.017315
0.026899
-0.043060
-0.004574
-0.010950
-0.045246
0.034109
-0.000476
0.018794
-0.006530
-0.030396
-0.034516
0.022716
0.012210
0.016081
-0.010488
0.040584
-0.037662
-0.028125
0.019127
-0.031147
-0.024965
-0.029316
0.016168
-0.006874
-0.025426
-0.020450
0.038365
-0.034325
-0.028309
0.007841
-0.031011
-0.001263
-0.007463
-0.022398
-0.037178
0.026503
0.019325
-0.021676
0.004574
0.015238
0.040159
0.013136
-0.024042
-0.023354
0.050340
-0.002501
0.014960
-0.028997
-0.014081
0.006687
-0.033414
0.028404
-0.006035
0.037189
-0.037881
-0.016754
0.021306
-0.027298
-0.020318
0.004032
-0.004830
-0.013209
-0.040756
0.038570
0.045561
0.000282
0.035351
0.034003
-0.013081
0.032663
-0.006434
0.035120
-0.011756
0.011909
-0.030447
0.031498
-0.016238
-0.032787
-0.015784
0.013953
0.020636
-0.038702
-0.017501
0.037065
-0.038548
-0.071720
-0.031769
-0.002285
-0.004926
0.013678
0.009708
-0.007661
-0.037149
-0.039423
0.019501
-0.052208
0.004534
0.029861
0.012755
-0.017084
-0.038918
0.041108
0.025122
0.021204
0.004014
0.004102
-0.011785
-0.030726
0.037003
0.000751
0.036457
0.002747
-0.012667
0.015359
0.004545
-0.016172
-0.000637
-0.033809
0.027060
-0.030813
-0.035098
-0.005204
-0.018629
0.030575
-0.017798
-0.003875
-0.005523
-0.040035
0.003860
0.041276
0.002765
-0.042979
-0.023072
-0.001758
-0.040650
0.016842
0.001055
-0.023526
0.002736
-0.034878
-0.004230
-0.027232
-0.011737
0.008460
-0.035746
0.004713
0.006779
-0.023141
-0.024350
-0.039189
-0.013092
0.018457
0.029942
0.004504
-0.008309
0.002607
0.033538
0.040668
-0.016535
0.010119
-0.025544
-0.004779
0.028810
-0.043514
-0.046564
0.023687
0.026034
0.036537
-0.033714
0.018454
0.010902
-0.009016
0.037933
-0.004032
0.001263
-0.012924
-0.032692
0.025368
-0.045308
-0.027532
-0.035699
0.020329
0.030704
0.030414
0.034307
0.015037
0.004109
0.036014
0.021274
-0.029810
-0.014403
-0.031132
-0.032227
-0.024504
0.013393
0.033509
-0.008709
-0.002981
-0.044320
-0.033091
0.042672
-0.025503
-0.011115
0.040057
0.022321
0.012378
-0.013598
-0.043016
-0.018033
0.006760
-0.015319
-0.023713
0.041738
0.025434
-0.041046
-0.041668
0.000787
0.003787
-0.030975
-0.037376
0.018417
-0.029367
-0.033388
-0.046022
0.037255
0.010313
-0.009610
-0.028177
-0.017769
0.035618
-0.011173
-0.020797
-0.030634
0.031224
0.023409
-0.018889
-0.024269
0.006932
-0.029836
0.022171
0.029385
0.040786
0.017765
0.016403
-0.013235
-0.017362
-0.001864
0.039354
0.006940
-0.005116
0.034523
0.034717
-0.032875
-0.027422
-0.019329
0.019615
0.011598
0.011550
0.026452
-0.009606
-0.006211
-0.022464
-0.005706
0.000560
0.007724
-0.015623
0.013034
-0.034014
-0.005050
0.012103
0.011891
-0.017260
-0.010159
0.002476
0.035820
-0.036409
0.008884
0.013206
-0.019801
-0.030092
0.020420
0.040840
0.006365
-0.052310
-0.035688
-0.021830
-0.029107
-0.047714
0.078696
-0.022515
-0.035688
-0.020226
-0.034399
0.039822
0.002465
0.025800
-0.009423
-0.008679
-0.033490
0.012049
0.009163
-0.043843
0.011902
0.019417
-0.035486
0.039284
0.020625
-0.003659
-0.029773
0.006013
0.053101
0.030246
0.034809
-0.003468
-0.027997
0.021193
0.034867
0.027115
-0.038215
0.054189
0.016780
0.031125
0.035772
-0.020362
0.006672
0.024654
0.010803
0.016703
-0.031224
0.025767
-0.037592
0.033263
0.004076
0.003270
0.037167
-0.039324
-0.009170
-0.012477
0.040987
-0.030337
-0.034651
-0.004849
-0.001879
0.011181
0.006870
0.008295
-0.001802
-0.041185
-0.005980
-0.007643
-0.018391
-0.031418
0.027785
0.009547
-0.029100
0.031502
-0.018651
0.040599
-0.021599
0.025774
0.018970
-0.011814
-0.028444
0.028587
-0.036417
0.030378
0.015154
-0.007745
0.034545
0.032747
-0.007973
-0.001044
0.020779
0.019860
-0.019962
-0.022445
0.015692
0.031106
0.035871
0.040511
0.019062
-0.021665
-0.014491
0.036248
0.033743
-0.022174
-0.005211
0.004135
-0.013360
-0.005790
0.014165
0.000088
0.027536
0.040873
-0.027298
-0.011550
-0.008903
0.044708
-0.003062
-0.025679
-0.017886
-0.000560
-0.023295
0.041573
-0.017487
0.023116
0.012598
-0.027049
0.003420
-0.016868
0.018051
0.032758
-0.016374
0.022694
-0.019790
0.003900
0.012147
0.040654
-0.039002
-0.000674
-0.013803
0.016945
0.026551
-0.023108
-0.025610
-0.005153
0.010060
-0.034878
-0.020918
-0.005541
0.005548
-0.034011
-0.025368
0.001692
-0.017805
-0.033022
0.038581
0.043957
-0.012133
-0.006892
0.035043
-0.030455
-0.025939
-0.004677
-0.013356
0.039559
0.020157
-0.026459
-0.030616
0.012437
-0.040163
-0.010543
0.019428
-0.013817
0.031363
0.005720
-0.006698
0.033307
-0.021285
0.010672
-0.014008
0.037076
0.034633
0.002245
0.039354
-0.008049
-0.034238
-0.008295
0.027576
-0.010851
-0.014392
0.006021
0.044448
-0.005068
-0.008460
0.015795
-0.045982
0.021859
-0.016663
0.076459
0.020113
-0.032579
-0.012411
0.000385
0.018311
-0.039211
-0.018106
-0.031381
-0.023376
-0.013239
0.020266
0.028598
0.105335
-0.034523
-0.008214
0.037790
-0.000579
-0.029579
-0.009148
0.037435
-0.028279
0.025998
0.041668
-0.007302
0.037548
-0.036508
0.026247
-0.034395
-0.035508
-0.017729
0.017315
-0.029620
-0.011089
0.033340
0.043386
-0.027964
0.008269
-0.010170
0.017615
-0.011649
-0.034860
0.032187
-0.040749
-0.032289
-0.014788
0.029675
-0.018578
0.023116
0.024342
0.028334
-0.032282
0.004288
0.024954
-0.023921
0.011459
-0.007881
-0.034183
0.029550
0.025877
0.014458
0.022332
-0.029001
-0.025309
-0.034406
0.027701
0.001589
-0.011756
0.007764
0.004764
-0.035171
-0.006193
0.021336
-0.021090
-0.020391
0.012796
0.018091
0.001871
0.011045
0.028338
0.025990
0.042148
0.025437
-0.040628
-0.026917
0.012602
0.020472
-0.006647
0.033227
0.023240
-0.021698
-0.031304
-0.038559
0.001018
-0.036248
-0.009595
-0.031396
-0.024046
-0.032776
-0.032421
0.017692
0.018787
0.031202
0.038786
0.016344
-0.017849
0.015033
0.010071
0.023859
-0.032758
0.028851
-0.032443
0.028667
0.009540
0.037310
-0.009617
0.026562
0.032333
-0.033622
-0.040200
0.041426
0.026239
0.007544
0.035267
-0.007610
0.007478
-0.030901
0.013557
-0.009588
0.024152
-0.023064
0.005306
-0.033963
0.017040
0.041913
-0.043126
0.006412
-0.026913
0.032037
0.025481
0.001930
-0.027712
-0.037757
-0.041881
0.036596
0.038098
0.008511
0.018754
-0.030488
0.014411
0.006965
0.002747
0.029015
0.039848
-0.033161
0.035406
-0.020054
-0.031718
0.029751
0.001469
0.023057
-0.027155
0.042335
-0.023998
-0.035750
-0.028056
0.032740
-0.017469
-0.019117
0.032385
-0.000406
-0.012649
0.015583
0.033355
-0.023288
0.041291
-0.035622
0.009639
0.037878
0.010759
0.007339
-0.024273
-0.013777
0.037618
-0.000062
0.015645
0.034428
-0.039368
0.007954
0.027151
0.011038
0.020933
-0.029451
0.007302
0.004387
-0.037779
0.001439
-0.036299
0.028210
-0.035820
-0.015520
0.049066
-0.023617
0.026371
0.033205
-0.003984
-0.032637
-0.000168
-0.011257
-0.026983
-0.022504
0.042532
-0.031733
0.021369
0.022401
0.036347
-0.026529
0.036838
0.013048
0.017853
-0.027602
-0.034882
-0.018494
0.019329
0.016417
0.025642
0.003223
0.011854
-0.025500
-0.013832
-0.012851
-0.002498
-0.008460
0.028591
0.008485
0.013235
0.022189
-0.028741
0.013301
0.006251
-0.021164
0.037900
0.022321
0.010642
0.032253
-0.033249
0.030275
0.041027
-0.017399
-0.018509
0.007050
-0.022874
0.036168
-0.045989
-0.016524
0.002172
-0.023610
0.010086
0.006958
0.023017
0.016359
0.040027
-0.041082
0.021446
0.042042
0.031846
-0.047795
0.001483
-0.033835
-0.003724
0.003790
0.038270
0.028638
-0.004691
-0.009902
0.003157
-0.013733
0.018468
-0.006218
-0.003582
0.003149
0.029404
-0.026206
0.028876
0.039306
-0.039006
0.031985
0.001798
-0.031125
0.042020
0.008350
0.023954
-0.032040
-0.032758
0.005079
0.023324
-0.038636
0.027997
0.033498
-0.011518
0.028858
-0.033333
-0.034454
-0.018435
0.002835
0.038951
-0.042192
-0.000212
-0.018538
-0.039540
-0.036028
0.035593
-0.031139
-0.019087
-0.008815
-0.015374
0.042379
-0.044744
0.042906
-0.033428
-0.031348
0.008137
0.005698
-0.043034
-0.018369
0.025273
0.029074
0.034846
0.013861
-0.002988
0.019644
0.042763
-0.032275
-0.032696
-0.018571
-0.008646
-0.015875
-0.027214
-0.041529
0.004710
-0.038625
0.029909
0.026737
0.010426
-0.034578
0.022764
-0.034952
0.011723
0.008818
-0.033941
0.003095
-0.037911
0.043188
-0.033501
0.024489
-0.034673
-0.025642
-0.011140
-0.004622
0.002388
0.038830
0.025694
0.031989
-0.020786
-0.015092
-0.015484
0.041104
0.031678
-0.035117
-0.017465
-0.008463
-0.017095
0.015960
-0.002391
0.015586
0.013275
-0.009870
-0.013847
0.003732
-0.021629
-0.006112
-0.015301
-0.013843
-0.023013
0.033388
-0.021680
-0.032220
0.030649
0.022574
0.003900
0.003593
-0.042514
0.036896
0.002135
0.042401
0.040009
0.022914
0.034846
-0.011865
-0.025478
-0.012503
0.021347
-0.032736
-0.020724
-0.038376
0.039533
-0.018772
-0.010734
0.029319
-0.020878
-0.022914
0.033842
0.018051
-0.017487
0.029122
0.018033
-0.031139
0.022870
-0.042624
-0.001095
-0.044521
0.022607
0.017480
-0.019190
0.000018
-0.013089
0.026946
0.008500
0.023017
-0.002794
0.031392
0.012536
-0.040932
0.037794
-0.043045
-0.033641
-0.013191
0.005347
-0.017802
0.035040
-0.010726
0.013436
-0.028177
-0.043433
0.031052
-0.039903
0.044290
0.021951
0.028510
-0.023442
0.026694
0.017370
-0.038508
-0.025672
0.032157
0.027968
-0.027825
-0.019098
-0.041192
-0.007105
0.011327
0.052808
-0.006149
-0.012968
-0.001794
-0.013528
-0.035435
0.011620
-0.016132
-0.029817
-0.023764
0.027349
-0.035809
0.016839
-0.008419
0.037713
0.032319
0.025965
0.010503
-0.023866
-0.024793
0.001124
0.029169
-0.020732
0.017820
-0.025599
0.007518
0.016132
-0.032868
0.004244
0.006207
-0.020764
-0.027199
-0.009555
0.023544
0.021138
0.033304
0.023863
-0.027829
-0.033395
-0.015810
0.018472
0.045722
0.024423
-0.044612
-0.019453
0.002373
-0.031231
0.029894
-0.022123
0.012213
0.029554
-0.048641
0.000110
0.021039
0.022676
0.040800
0.008544
0.038079
-0.014693
0.041719
-0.027668
-0.007592
0.018571
-0.034043
0.074595
-0.031125
-0.031008
-0.017007
-0.011840
-0.016399
-0.010602
-0.003274
-0.028067
-0.008240
0.018421
-0.005035
0.020376
0.025727
-0.044385
-0.005332
-0.006266
0.029795
0.019413
0.027327
0.025862
0.008474
0.016333
-0.038130
0.015436
0.001359
-0.027847
0.021200
0.039291
-0.023412
0.044012
0.021164
-0.015238
0.005204
0.022940
0.036259
-0.031938
0.007694
-0.034318
-0.036541
0.018505
-0.042170
0.036461
0.022489
-0.013612
0.031744
0.021486
-0.008529
0.042965
-0.030455
-0.009485
-0.033952
-0.014802
0.002043
-0.044997
0.026635
0.023442
-0.031744
0.032322
-0.035402
0.014187
-0.026730
0.003464
-0.010053
-0.095703
-0.009972
-0.017201
0.007346
-0.006050
0.028997
0.003442
-0.011452
0.037131
0.039108
0.000549
-0.003439
-0.035241
0.030055
-0.027840
-0.031462
-0.029634
-0.019508
0.013363
0.000919
-0.024632
-0.017611
0.012697
-0.041522
0.029484
-0.030477
0.003582
0.034637
0.006650
-0.043620
-0.013865
0.002571
-0.006416
0.004116
0.031044
-0.041452
-0.038387
0.017827
-0.024141
-0.013924
-0.000901
0.008705
0.027082
-0.006859
0.018124
-0.013458
-0.025551
0.007306
0.015561
0.036343
0.040745
-0.021944
0.005775
-0.035977
-0.017974
-0.011496
0.039760
0.019219
-0.035655
0.007149
0.051944
-0.010503
-0.004190
-0.026466
-0.034087
-0.026587
0.012997
0.011126
-0.010814
-0.035563
0.040859
-0.036534
-0.009840
0.027005
0.021343
0.017688
0.006856
-0.018347
-0.030147
-0.044964
-0.007595
0.018626
0.010668
0.036530
-0.015392
-0.022061
-0.008566
-0.045792
0.026547
-0.009478
0.023672
-0.026869
0.002699
-0.033512
0.029916
0.004889
-0.010276
-0.001608
-0.017864
-0.020010
-0.008928
0.031249
-0.026741
-0.027298
-0.039731
0.012206
-0.009298
0.016168
-0.005402
-0.012122
0.023921
0.004955
0.031480
-0.055892
0.039284
-0.098538
-0.053629
-0.006145
-0.028470
0.020157
0.009943
-0.046052
-0.015996
0.037050
0.006951
-0.048875
-0.017831
0.022782
-0.034618
0.022625
0.001659
-0.024771
0.022427
0.005995
0.003186
-0.023654
-0.031268
-0.009309
0.033480
-0.024196
-0.004816
-0.001121
-0.028180
-0.023672
-0.008895
-0.047506
0.016875
-0.019710
-0.005933
0.040573
-0.012239
0.016919
0.022914
-0.015081
-0.012722
-0.020047
0.025489
0.002271
-0.005892
-0.024090
0.001161
0.006149
0.010324
-0.044232
0.033802
0.024822
0.041672
0.021929
0.036724
-0.019919
-0.009229
-0.024888
-0.011052
0.017388
-0.031081
0.025046
0.009013
0.021911
0.043067
-0.001608
-0.014674
0.020757
-0.038911
-0.002358
0.015766
-0.011488
-0.033725
0.041408
-0.036244
-0.030605
-0.027569
0.024529
0.010393
0.043214
0.013100
-0.032293
-0.008328
0.041262
-0.004556
0.007376
-0.035527
0.007398
0.042986
0.000428
0.000491
0.023976
0.015462
0.042807
0.032150
-0.039269
0.035900
-0.015297
-0.001490
0.011569
0.006321
0.000267
0.034695
-0.029349
-0.005219
-0.009393
-0.027638
0.024910
-0.040533
-0.022412
0.025712
0.011686
0.007390
-0.032498
-0.004142
0.038559
0.023778
0.043726
0.016070
-0.083468
0.013015
0.001553
0.027210
-0.005702
-0.013751
-0.011572
0.008273
-0.027862
-0.006537
0.003534
0.021768
-0.013978
-0.005570
0.017318
0.024961
-0.037405
-0.035640
0.027990
-0.007614
0.032253
-0.009027
-0.016491
-0.002867
0.038295
-0.055811
0.020915
0.039006
-0.011536
0.025730
-0.008306
-0.044741
0.006650
0.028074
0.041397
-0.025558
-0.014151
-0.023698
-0.003175
0.035424
0.014308
-0.036149
-0.012993
0.040086
-0.012851
0.010049
-0.019450
-0.007702
-0.013880
-0.034131
0.039251
0.063154
-0.035940
0.028510
0.037380
0.028122
-0.027023
0.006900
-0.017315
-0.010477
0.034494
0.025906
-0.027668
0.016355
-0.011906
-0.043441
0.037885
0.016026
0.015443
0.009079
-0.004684
0.017919
-0.039266
0.030444
-0.003461
-0.039936
0.024167
0.008247
-0.018512
0.004395
0.036871
-0.043408
0.032688
0.023661
-0.005717
0.038947
0.039493
0.032374
0.032165
-0.039343
-0.018201
-0.037314
0.037079
-0.035102
-0.043082
-0.022694
-0.031279
0.013228
0.005208
-0.023925
0.010587
0.020746
0.033267
0.001483
-0.038303
0.032315
0.008654
-0.019497
0.006779
-0.023218
-0.008870
-0.037167
0.035259
-0.009624
-0.041950
0.017062
-0.026181
-0.026184
-0.035970
0.032454
0.036105
0.023295
-0.015143
0.018970
-0.007899
-0.020863
0.001483
0.027225
0.021160
0.028916
0.025555
0.032190
0.008251
-0.012704
0.023024
0.002084
0.013616
0.008456
-0.013872
0.005017
0.037460
0.039361
0.035999
-0.008767
0.013707
0.020332
-0.042335
-0.027832
0.011774
-0.013814
0.002336
0.040954
-0.037936
0.025306
0.001377
-0.019801
0.034311
-0.002919
0.017963
0.038445
0.037797
0.029341
-0.017963
0.016223
-0.010617
0.038328
-0.028063
0.039416
-0.003516
0.012726
-0.031619
0.041287
0.025877
-0.033985
0.008042
-0.031685
-0.017622
0.001611
0.022174
-0.009500
-0.028499
0.034304
0.023504
0.002091
-0.024577
0.024189
-0.031172
-0.029993
-0.019417
-0.026873
0.024745
-0.042485
0.042122
-0.011964
-0.013686
0.001769
0.009306
0.025595
-0.002369
-0.026452
-0.019900
0.041254
-0.043148
-0.037907
-0.033970
0.018553
0.022032
0.009591
-0.009837
0.003164
0.011843
-0.006885
-0.025727
0.043939
0.005614
0.043118
-0.036644
-0.020501
-0.025492
0.010159
-0.005827
0.030217
-0.036691
-0.015524
0.009155
-0.007947
0.023431
0.040145
0.015268
0.013535
-0.012949
0.030030
-0.030920
0.030403
-0.028147
-0.005687
0.033937
0.008145
-0.010148
-0.024104
-0.012140
-0.034520
0.023639
0.022658
0.033655
0.011199
0.020325
-0.003091
0.000062
-0.019845
0.031714
0.002135
0.041778
0.014363
0.013129
0.005061
0.038658
0.009485
0.007562
-0.009262
0.009247
0.016044
-0.016718
0.000886
-0.032183
0.005295
0.032201
-0.039024
0.018622
0.006002
-0.022954
0.007954
0.035959
-0.021259
0.012550
0.014202
-0.030583
-0.022504
0.042726
-0.044741
-0.037024
-0.014125
-0.017688
0.016553
-0.016743
0.020431
0.031227
-0.040471
-0.043261
-0.010269
-0.014780
0.005977
0.003289
0.035768
-0.018560
0.005486
-0.015381
0.006878
0.024771
0.010137
-0.031103
-0.033626
-0.006163
0.031520
0.042503
0.026895
-0.026412
-0.042902
0.039962
0.041163
-0.002860
-0.026408
0.018952
-0.012279
0.037966
0.034593
-0.012781
-0.044905
0.032198
0.012979
-0.004479
-0.017659
-0.007449
0.008591
-0.013312
0.015183
-0.010620
-0.022021
-0.027408
0.043631
0.013883
0.071401
-0.033018
0.020204
0.002783
0.030770
-0.033945
0.041295
0.003805
-0.031934
-0.006661
0.003409
0.004113
0.111315
-0.003875
0.015923
0.005215
-0.041207
-0.026994
-0.000564
-0.026994
-0.028078
-0.021889
0.013272
-0.000319
0.030389
-0.007064
-0.009346
0.028140
-0.035098
-0.014795
0.038987
-0.023390
-0.013418
-0.020911
-0.016776
0.014682
-0.019600
0.001406
-0.006123
-0.017897
0.017743
-0.042737
0.004878
0.036948
0.005629
0.031542
0.022354
0.028352
-0.001392
-0.016784
0.034483
-0.022171
-0.028096
-0.037083
0.037263
0.009364
-0.010767
-0.036285
-0.032084
-0.026672
0.015993
-0.024291
0.037643
-0.018560
-0.025020
0.001278
0.004472
0.004761
0.024903
0.010071
0.029458
0.000483
-0.008258
-0.033274
-0.019926
-0.024782
0.069625
-0.001084
-0.043470
-0.034567
0.028968
-0.019457
-0.012488
-0.037969
0.015865
0.025536
0.029865
0.013078
0.010562
0.025485
-0.005702
-0.025071
0.000161
-0.002688
0.009976
-0.036175
-0.009082
0.023500
0.019069
0.000736
0.033670
-0.045323
-0.008837
0.038786
-0.020915
0.032388
-0.017923
-0.040141
0.013246
-0.010715
-0.006160
0.013360
0.008427
-0.001315
-0.026012
0.012484
-0.000824
-0.105203
0.029861
0.009668
-0.010492
-0.034970
0.014997
0.000245
0.051054
0.002153
-0.035922
-0.031048
-0.019611
0.014279
0.028232
-0.035922
0.016941
-0.027767
0.000311
-0.038984
0.011767
-0.002966
0.018915
0.020995
0.042005
0.012667
0.031359
-0.055577
0.007002
-0.012111
-0.004281
-0.040613
0.044422
-0.038464
0.023387
0.001403
-0.005501
-0.031993
0.038438
-0.007995
0.016363
-0.010038
0.027001
-0.023141
-0.019010
0.041870
0.014246
-0.039910
-0.002432
0.036614
-0.038654
0.040401
0.051281
-0.016476
-0.020918
-0.014513
-0.019270
-0.008233
0.006427
-0.024698
0.019659
-0.003054
-0.033699
-0.009089
-0.038760
0.000212
-0.042536
-0.034820
-0.036882
0.029367
-0.005995
0.026360
0.029817
-0.042239
-0.016033
0.003322
-0.038423
-0.031059
0.036021
-0.028111
-0.035662
0.030425
0.000659
-0.018607
0.002758
-0.030978
0.034369
-0.033967
0.045660
0.010075
-0.017725
0.000765
-0.024756
-0.040573
0.030077
-0.035127
-0.043737
-0.039588
-0.016355
-0.017608
-0.022782
0.021845
-0.013213
0.040309
-0.042686
0.017278
0.038735
0.026521
-0.035970
-0.040178
-0.023372
0.030403
0.016685
-0.027144
-0.005142
0.034959
-0.032176
-0.030429
0.016996
0.002274
-0.021255
-0.015169
-0.006101
0.006105
0.040097
0.005713
-0.009273
0.016414
-0.035117
0.007738
-0.016835
-0.018662
-0.003732
0.009588
-0.011272
0.005204
0.017857
-0.039196
-0.010159
-0.029374
0.016703
0.013869
-0.010353
0.029374
0.030920
-0.013122
-0.029023
0.036885
0.014239
-0.049509
0.004186
-0.038925
0.040848
0.025518
-0.029305
-0.032205
-0.028612
0.014520
0.001077
0.012477
-0.010924
-0.016315
-0.023548
0.032330
-0.018820
-0.005200
-0.028829
0.020006
-0.020354
0.027034
-0.047103
0.004677
0.010177
-0.007196
0.037691
-0.025412
-0.000146
-0.018871
0.033644
-0.008591
-0.058888
-0.036347
-0.025749
0.016934
0.022676
0.052157
-0.042932
-0.055610
0.034864
0.035138
0.009547
-0.017249
-0.018494
-0.006336
-0.043236
-0.007463
0.034168
0.000000
-0.040460
-0.017527
0.036446
0.017641
-0.016132
-0.041712
-0.029605
0.008712
-0.005794
-0.029748
-0.018531
0.008881
-0.013792
-0.042789
0.017831
-0.031048
-0.003519
-0.029001
0.120000
0.034351
-0.006156
0.008229
-0.028876
-0.003450
-0.046033
-0.034260
0.038856
-0.042997
-0.003124
0.007822
-0.003395
-0.018970
0.016861
-0.003878
-0.011155
0.037468
0.013715
-0.012744
0.026968
-0.040379
-0.007852
-0.012173
0.025111
-0.002223
-0.033516
-0.018172
0.031293
-0.021848
0.019446
0.025386
0.008350
0.017392
0.035615
-0.009210
-0.036691
-0.037713
0.024163
0.012558
0.039980
0.001926
0.011067
0.030048
-0.015967
-0.032154
-0.029114
0.026540
0.008060
0.022654
-0.034897
-0.033282
-0.000765
-0.005105
-0.031026
0.017066
0.020585
-0.000677
-0.038116
0.012331
-0.039731
-0.021248
-0.038581
-0.029770
-0.039789
-0.001981
-0.010291
-0.037241
-0.031744
-0.042631
0.025221
0.002589
-0.014711
0.015304
-0.025089
-0.014535
0.020325
0.015923
-0.003003
0.002889
-0.039852
-0.007614
0.001212
0.006006
-0.014206
0.031224
0.025346
-0.023958
-0.042382
-0.015839
-0.005794
-0.009902
-0.017578
0.022065
-0.001930
0.019776
-0.038416
-0.016831
-0.019790
0.036182
-0.007189
-0.003988
-0.026833
0.002607
0.032399
-0.001194
0.037556
0.042569
0.010976
0.018461
0.032070
0.038043
-0.060239
0.027122
0.028909
-0.095429
0.014374
0.036640
0.021127
-0.024613
0.006852
0.041013
0.042855
-0.013704
0.007467
-0.007376
0.040602
-0.029052
0.055163
-0.003717
-0.021156
-0.052845
-0.029748
0.026521
0.011789
-0.023936
0.035241
-0.042298
0.030674
0.039511
-0.026675
0.003439
-0.011759
-0.025478
0.002395
-0.026141
-0.035593
-0.039965
0.005955
-0.031227
0.000282
0.020124
-0.031019
0.039247
-0.037918
-0.001132
0.044565
-0.005889
-0.029887
0.021427
-0.014868
-0.022361
-0.019160
-0.034267
-0.015652
0.009049
-0.015194
-0.016216
0.019193
-0.016483
0.039734
-0.002098
-0.005695
-0.026492
-0.011466
-0.001578
0.030271
0.024002
-0.028664
-0.067215
-0.017989
-0.009342
0.011983
-0.023767
-0.028825
-0.002809
-0.014531
-0.012382
0.040569
-0.019779
-0.042609
0.020794
-0.028019
-0.044385
0.017981
-0.021175
-0.036406
-0.027016
-0.003241
0.011521
-0.019219
-0.036600
0.014488
-0.015132
-0.036570
-0.014246
0.019461
0.003915
0.031718
-0.044913
0.032549
0.034838
0.048077
0.011843
-0.013883
-0.028070
0.018882
-0.008079
-0.017091
-0.011334
0.029407
-0.003347
0.017322
0.021248
-0.008082
-0.001344
0.011195
0.025727
0.021717
-0.009119
0.015344
-0.040258
-0.000450
0.022310
-0.035366
0.022354
-0.001809
-0.010507
0.001113
-0.006775
0.046748
0.020688
0.034084
0.018776
0.009972
0.023896
0.016238
-0.021925
0.012957
0.002300
-0.044752
-0.002263
-0.026203
0.000278
-0.034780
0.013598
0.085387
-0.037695
-0.016908
0.034732
-0.042181
-0.031700
-0.017857
0.036515
-0.007079
-0.003021
0.023680
0.022372
-0.022379
-0.041760
-0.004149
0.011126
0.038043
-0.011287
-0.028514
-0.035347
0.008042
-0.039332
-0.015531
0.011323
-0.006632
-0.021193
-0.024335
0.002589
0.007782
-0.000099
0.026228
-0.017827
0.012301
-0.019669
-0.033311
0.023057
0.036816
-0.015337
0.020453
-0.031872
-0.038141
-0.036779
0.011404
-0.018944
-0.021779
-0.030575
-0.019069
0.037585
-0.011012
-0.008694
0.025749
0.023577
0.034402
-0.021735
-0.004600
-0.015139
-0.025826
-0.033600
0.008811
0.035058
0.014982
-0.024309
0.011433
0.021841
0.042532
0.026049
-0.032795
-0.009646
-0.014242
0.042932
-0.029891
-0.032004
0.004706
0.006867
0.013653
0.015685
-0.035856
-0.015550
-0.002728
-0.023822
0.024401
-0.027316
-0.011730
0.036373
-0.005728
-0.029253
0.024848
-0.007277
-0.034999
0.021105
-0.028517
-0.024643
0.001469
-0.036812
0.017296
0.026558
-0.022867
-0.015751
-0.032231
-0.002205
-0.013777
-0.028719
-0.000004
0.027408
-0.004124
-0.051794
0.015982
-0.009972
-0.020175
0.006735
-0.035007
-0.040888
0.030004
0.018428
0.000161
-0.099805
0.045561
-0.024778
-0.009196
0.017842
0.007731
0.000421
-0.011466
-0.012272
0.032150
-0.042628
0.036805
0.038460
0.046132
-0.036578
0.009785
0.017952
-0.041573
-0.033783
0.008840
-0.002831
-0.001952
-0.039185
0.034351
-0.000824
0.007654
0.010551
0.008720
-0.033198
-0.024046
0.008818
0.035036
0.002860
-0.017549
0.022229
-0.018706
0.027426
0.024782
0.037285
0.015022
-0.032092
0.014663
0.024079
-0.001556
-0.013425
0.021219
-0.029784
-0.012807
0.021508
-0.040749
-0.037186
-0.032626
0.016209
-0.015985
-0.088046
-0.044049
0.010884
0.006460
-0.021900
0.000824
-0.020944
-0.020603
-0.008903
0.001293
-0.099527
0.004446
-0.004450
-0.020043
0.024610
0.000282
0.024185
-0.001285
-0.016366
0.007434
-0.016754
0.036589
0.032648
0.035281
0.026155
0.039903
0.012444
-0.011613
-0.028697
0.031436
0.001611
0.029239
-0.014846
0.025503
-0.001758
-0.032048
-0.035585
-0.006493
0.034205
-0.009921
-0.030923
0.015224
-0.028492
0.029700
0.013316
-0.040324
0.037552
-0.041778
-0.001135
0.021116
0.005508
0.023006
0.032125
0.004127
0.025371
-0.005530
-0.014934
0.039855
0.040082
0.003146
-0.023409
-0.034820
-0.023581
-0.025375
0.024317
0.031886
-0.005354
-0.012298
0.019845
-0.025965
-0.013224
0.046290
-0.059591
-0.029176
0.004973
0.021867
0.035805
0.024998
-0.004259
0.035058
0.012440
0.024053
-0.042452
-0.002904
-0.032179
0.008474
0.017908
0.008947
0.005365
0.011334
0.030044
0.041111
-0.017395
-0.010108
-0.040053
0.002545
-0.010089
0.038167
-0.021248
0.021841
0.045836
0.024478
-0.005101
-0.000612
0.036775
-0.036076
-0.032469
-0.012169
-0.030759
0.001622
0.019578
-0.002402
-0.044752
-0.014063
-0.035794
-0.072002
-0.000938
0.030920
0.025569
-0.026895
0.050172
0.002022
-0.023749
0.029275
-0.028327
-0.020874
0.036043
0.019849
-0.007094
0.002783
-0.034706
0.021955
0.013898
0.033238
-0.018432
-0.009734
-0.032253
0.027382
-0.014048
0.051633
-0.027781
0.036468
-0.012195
0.033586
0.012001
0.025133
-0.020351
-0.032703
0.028946
0.040709
0.019340
0.008610
0.040313
0.026510
0.020413
0.041921
0.031425
-0.024397
-0.032070
-0.027279
-0.015912
0.012495
0.033443
-0.025071
0.037398
-0.025760
-0.005295
-0.003691
0.027463
0.012898
0.007306
0.027049
-0.006515
0.008782
-0.008185
-0.011386
-0.033915
-0.033567
0.001641
0.028832
0.041159
-0.033509
0.025258
0.032688
-0.000242
0.013561
-0.022028
0.035644
0.013404
0.031850
0.029096
0.005259
0.025540
-0.026492
-0.013323
0.024621
0.032117
0.005889
0.039116
0.067827
0.035666
0.004611
-0.077455
0.028594
0.002864
-0.024848
0.039343
0.037881
0.008818
-0.032901
0.030260
0.020043
-0.024533
-0.042239
0.004922
0.049714
-0.041514
-0.026752
0.006328
0.014586
-0.029078
0.019241
0.025284
-0.001531
0.008610
0.037409
0.013092
-0.000403
-0.008038
0.038676
-0.006108
0.033637
-0.026023
-0.025811
0.021592
0.005098
0.016681
0.022790
0.036486
-0.006277
0.028070
-0.031637
0.033476
-0.009317
0.021347
-0.037182
0.004981
0.034120
0.001183
0.024771
-0.009613
0.034289
-0.009423
0.019160
0.038841
0.022497
0.043019
-0.039229
-0.009397
-0.012180
-0.040185
0.033685
0.032403
-0.008870
0.007416
-0.022211
-0.036464
0.010683
0.015026
0.026086
-0.027961
-0.012631
0.028847
-0.031502
0.022760
-0.007548
-0.023072
-0.013297
0.005658
0.039174
-0.028235
-0.042954
0.009675
0.018410
-0.007669
-0.005343
-0.030385
-0.019054
0.020201
0.032963
0.022984
-0.010195
0.005420
-0.020937
0.007720
-0.013513
-0.005182
0.024189
0.013118
-0.026884
-0.027642
0.004849
-0.012239
0.007442
0.027459
-0.025243
-0.016326
-0.026368
-0.039610
0.002157
-0.014499
0.018531
-0.003278
0.017025
-0.037837
0.007507
-0.018183
-0.038486
0.033040
-0.007346
0.006735
-0.001406
0.011550
0.008211
-0.013250
0.035721
-0.019193
-0.079026
-0.023764
-0.026012
-0.018406
-0.012788
0.019637
-0.008449
-0.033589
-0.021409
0.041595
-0.043360
0.042455
0.004376
0.014282
0.014323
0.009987
0.018520
0.027331
0.022211
0.011810
0.013788
0.011807
0.027847
0.030806
-0.027349
-0.014257
0.046019
-0.040375
-0.029645
-0.032535
0.034578
0.030129
-0.024009
0.009221
-0.003446
0.016205
0.005123
-0.018732
0.005427
-0.022398
0.005109
-0.005266
-0.022607
0.022585
0.006423
-0.013319
0.041899
0.014048
-0.026349
0.034915
-0.006859
0.004153
0.031729
-0.007434
0.032033
-0.017318
0.036409
-0.007522
0.017216
0.034282
-0.021336
-0.012067
-0.025906
0.007800
-0.032333
0.001809
0.032784
0.028268
0.054478
0.009119
0.026807
0.000630
-0.042558
0.001868
-0.007899
0.026353
0.038123
-0.035875
0.035080
0.026181
0.048791
-0.039973
-0.034402
0.036270
-0.041657
-0.036794
-0.026045
0.007518
0.022054
-0.006907
-0.016531
-0.018487
0.038823
0.029246
0.040855
-0.027463
-0.030140
-0.040200
-0.031817
0.021900
0.045462
-0.007061
-0.015088
-0.035897
0.026492
0.009547
-0.019120
0.038090
0.042565
-0.039588
-0.036721
0.043613
-0.042060
0.002051
-0.011448
-0.017450
-0.030931
-0.039042
0.002366
-0.016842
-0.024734
0.049714
0.037244
0.026382
0.020340
0.040493
0.003021
-0.006277
-0.006046
-0.022533
-0.034043
0.074203
-0.030868
0.006874
-0.019377
-0.041181
0.022859
-0.010587
-0.005761
-0.042470
-0.009664
0.027668
-0.027041
0.021017
-0.018183
-0.009621
0.031081
-0.007299
-0.027331
0.017282
0.014044
-0.017176
0.022526
0.013865
0.023357
-0.008123
0.007372
-0.022423
-0.009111
0.018915
-0.012038
-0.005497
0.036395
0.020226
-0.010338
-0.035051
-0.019919
-0.003889
0.047612
0.024137
0.011323
-0.032978
0.010368
0.027397
0.008950
-0.034538
0.031037
0.031982
-0.018208
-0.017688
0.023123
-0.016593
-0.028539
-0.022676
0.021208
-0.059554
0.021504
-0.023423
-0.008950
0.010869
-0.022094
0.034776
-0.023672
0.022046
-0.040126
-0.011646
-0.040617
0.010664
-0.001260
0.020450
-0.026368
0.042983
-0.021252
0.019336
-0.026496
0.040093
-0.013660
-0.038720
0.054826
-0.012763
0.031703
-0.028693
-0.028484
-0.018142
0.008782
-0.028612
0.010302
-0.004702
0.034201
-0.012081
-0.023844
-0.023639
-0.038694
-0.031839
0.039379
0.029557
-0.044070
0.032417
-0.010990
0.039888
0.003933
0.031963
0.038815
-0.004157
-0.043397
-0.007581
-0.036878
-0.043814
-0.003336
-0.035373
-0.023482
0.009829
-0.002919
0.003640
0.012341
-0.012261
-0.039797
0.027565
0.026913
0.007222
-0.010877
-0.027444
0.007577
-0.014279
0.035875
0.040676
-0.029250
0.018197
-0.023416
-0.024566
-0.012111
-0.038555
0.008353
0.025478
-0.032201
-0.022716
-0.035772
0.020633
-0.033421
-0.048110
0.018241
0.007467
0.035442
0.006665
0.044100
0.017868
0.030564
0.015744
0.005230
-0.023383
0.012396
-0.041082
0.004603
0.011928
-0.035732
-0.005669
0.001040
0.002043
0.018955
-0.017849
-0.034618
0.021614
-0.041240
0.027737
0.012605
0.040013
0.024394
-0.036105
0.024441
0.033747
-0.012239
-0.043763
0.019981
-0.005556
-0.008167
-0.017699
0.018263
0.000077
0.018391
-0.038742
-0.041514
0.009675
0.012517
-0.000330
0.019333
-0.022680
0.023449
-0.013195
0.037761
-0.000487
-0.014685
-0.023995
0.005629
0.015678
-0.032073
-0.033564
-0.041199
-0.010569
0.008364
-0.033132
0.038984
-0.032747
-0.014835
-0.021453
-0.022434
0.018827
0.042272
-0.041467
-0.029722
0.020860
-0.004863
0.015557
0.007453
-0.043532
0.010554
0.009280
0.006185
-0.030480
0.035640
-0.016275
0.055588
-0.025617
0.016352
0.013429
-0.000996
0.019717
0.017212
-0.029601
-0.046934
-0.019318
-0.040141
0.031000
-0.036581
-0.003073
-0.048828
0.029594
-0.019025
0.033040
-0.042976
-0.038471
0.002787
0.027199
0.029067
0.016615
0.032970
0.023951
-0.006262
0.014960
0.001772
0.034846
0.035204
0.007299
0.009331
0.038907
0.000344
-0.052753
0.031656
-0.052578
0.033179
-0.017344
0.020098
-0.012719
-0.009071
0.023346
0.022101
0.014861
-0.018977
-0.028283
-0.021596
0.040236
0.120000
0.009646
0.022658
-0.034900
0.036794
-0.034322
-0.031352
0.007907
-0.027898
0.041408
-0.000817
0.038563
-0.034527
0.018560
0.000033
0.032608
0.015271
-0.039669
0.026976
-0.016626
-0.008569
0.041346
-0.043386
-0.041298
-0.008027
0.025881
-0.030561
0.015923
0.028818
-0.022566
0.014953
0.002509
0.027583
0.008965
-0.019420
-0.006361
-0.012565
0.013279
-0.025295
-0.018553
-0.005955
0.025452
0.022526
-0.023203
0.014821
-0.027499
-0.004937
-0.037490
-0.012583
0.015971
-0.018867
0.007427
-0.027038
0.038123
-0.007800
-0.003164
-0.034758
-0.021742
0.033824
-0.000084
0.016220
-0.012543
0.028580
-0.021189
-0.079213
-0.038354
-0.023694
-0.018179
-0.043550
-0.019486
0.040804
-0.017805
-0.033421
-0.029041
0.005453
-0.015187
0.007793
-0.027474
0.008562
-0.006339
0.011422
0.032901
-0.038475
0.034739
0.035622
-0.014652
-0.027181
0.007203
0.027807
0.032634
0.025452
0.023599
0.021339
0.000905
0.009870
0.010466
-0.020461
-0.010921
0.031469
0.027898
-0.012470
-0.000476
0.012693
0.015612
-0.033230
-0.030088
0.006310
-0.034549
-0.008427
0.016553
0.012210
0.023277
0.024068
-0.000721
0.010983
-0.030242
0.003944
0.031597
-0.024709
-0.004871
0.025752
-0.040504
0.023013
0.002849
0.036299
-0.026415
0.037420
-0.014238
0.005006
0.005929
-0.016663
0.005852
-0.032454
0.033436
0.024983
0.034318
-0.035644
-0.021094
-0.009511
-0.014063
0.007709
-0.012331
0.001780
0.006277
-0.033047
-0.010401
-0.022207
0.028345
-0.022585
0.018604
0.017941
0.006779
-0.032740
0.005658
0.015703
-0.016667
-0.048011
0.035377
0.042518
-0.021369
-0.023116
0.041525
0.000165
0.032458
-0.039493
0.005878
-0.004314
0.028609
-0.025478
0.046239
0.002384
-0.033289
-0.024386
-0.036072
0.004127
0.008353
-0.037966
0.041639
0.006273
0.015275
-0.025822
-0.032773
-0.028755
0.007504
0.016128
0.007526
0.019783
0.026873
0.013795
-0.035171
-0.000234
-0.019545
-0.045682
0.001637
-0.031465
0.000450
-0.034274
0.024306
0.048044
-0.000938
-0.042005
0.001740
-0.037775
0.007815
0.000432
-0.020417
0.003296
-0.044180
-0.019080
0.013253
0.020215
-0.022420
-0.022394
-0.017523
-0.028741
0.030143
0.000231
0.039932
0.010833
-0.001842
-0.003424
-0.029217
-0.035549
-0.045239
-0.021772
0.030557
-0.035318
0.032205
-0.004772
0.012986
0.034856
-0.022281
0.034208
-0.031465
0.014118
0.011836
-0.016436
0.018128
0.027514
-0.040192
0.021431
0.002640
0.015081
0.001978
0.009386
0.033216
-0.022991
0.041939
0.037376
-0.003501
0.016491
-0.032399
-0.021618
0.029257
-0.014883
0.031623
-0.001362
0.003571
-0.040053
0.015019
-0.035893
0.037424
0.037958
0.021178
-0.034505
-0.027642
0.002282
-0.035886
0.002776
-0.033633
-0.021907
0.012433
0.012210
-0.001447
0.013019
-0.017948
0.038292
0.005501
0.016758
0.010243
0.009474
-0.034128
-0.028722
-0.025686
0.033857
-0.019113
0.007837
-0.041639
0.023969
-0.007863
-0.026477
-0.026448
0.001421
-0.040394
-0.035142
0.038954
-0.002362
-0.065816
0.014348
0.035864
-0.043140
0.024027
-0.048245
0.015637
0.054870
0.006196
0.031579
0.053376
-0.003783
0.038079
-0.040258
0.012418
0.030297
0.021292
0.036900
0.033765
0.031832
-0.036973
-0.034040
0.038145
-0.000626
-0.027104
0.014953
0.005490
0.036761
-0.007207
0.031301
-0.016319
-0.029726
-0.029063
0.002615
-0.013935
0.019333
-0.034472
-0.006625
-0.022284
-0.024262
0.023918
-0.040049
-0.004402
0.034516
-0.000135
0.001699
0.002941
0.030883
-0.043496
-0.011986
-0.043437
0.021035
-0.028316
-0.000396
0.009683
-0.016575
0.035743
0.034974
-0.001399
0.019289
0.030092
0.010906
0.005295
0.000059
0.033967
-0.014169
0.022215
-0.022200
-0.002959
0.014440
-0.017190
-0.022119
0.025426
0.036149
0.030422
-0.023112
0.035977
0.018955
0.017051
0.033604
0.024093
0.041335
-0.033051
0.034582
-0.012565
0.028711
0.046810
0.019970
-0.005153
-0.035724
-0.033099
0.032743
0.003197
0.029598
-0.002282
-0.033340
0.039980
-0.017285
-0.034417
-0.030330
0.014623
-0.017978
0.017992
-0.017029
0.007680
0.007965
-0.030469
0.022889
-0.000106
-0.028792
0.012774
0.012968
0.021197
-0.037512
0.042525
0.027038
-0.023412
-0.034080
0.013488
-0.007815
-0.047396
0.014011
-0.009829
-0.010254
-0.014832
-0.041793
-0.042291
-0.038083
0.037175
0.023984
-0.035303
0.003168
0.012964
0.009397
-0.044594
-0.000308
-0.049278
-0.008115
-0.002146
-0.012920
-0.011789
-0.032260
-0.040723
-0.027906
-0.038017
0.009024
0.023929
-0.023255
-0.004504
0.029971
-0.022262
0.010954
0.019226
-0.021603
-0.039214
-0.031224
-0.009577
0.024895
-0.046975
0.037680
0.016685
-0.001901
-0.027056
0.009104
0.016773
-0.003131
0.004695
-0.028730
0.035274
0.028411
0.013949
0.030839
-0.030927
0.037739
-0.012887
0.021028
0.017681
-0.040712
-0.042701
0.007035
-0.041496
0.011338
-0.015967
0.004318
-0.017505
-0.028843
-0.036116
-0.027254
-0.032996
0.040731
0.032450
-0.029418
-0.039698
-0.041800
0.034553
-0.030887
0.030553
-0.018578
-0.044038
-0.016223
-0.031286
-0.008258
0.079059
0.041507
-0.025910
0.024097
-0.018622
0.028206
0.038138
-0.017710
-0.023174
-0.005515
-0.017124
0.021944
0.018018
0.012385
-0.031498
0.012070
0.023240
0.021222
-0.017428
0.035981
0.040266
-0.034534
-0.011217
0.031583
0.030773
0.003992
0.000187
0.003164
0.022574
-0.042111
0.007453
-0.003369
-0.025302
-0.019358
0.017274
0.009478
-0.021881
-0.036951
0.042126
-0.024888
0.031641
0.032483
0.036801
0.043060
-0.004380
0.012851
0.027034
-0.032667
-0.034765
0.006328
0.015451
0.025730
0.035054
0.000927
-0.004402
-0.017923
-0.041954
-0.001564
0.040145
0.037870
0.029103
0.056943
0.022427
-0.000103
0.090499
-0.040225
0.040295
-0.020750
0.030363
-0.000674
0.021336
-0.044217
0.019080
-0.019018
0.031905
-0.008192
-0.015421
-0.021438
0.038453
0.025100
-0.023841
-0.005830
-0.020823
0.002333
-0.037969
-0.037654
-0.023782
0.010895
-0.014942
-0.006098
-0.014440
0.035607
-0.041624
-0.041533
-0.038995
0.017399
-0.000612
-0.029180
-0.000483
0.007742
-0.011704
0.006442
0.003724
0.022588
0.027203
0.004772
-0.008086
-0.040064
-0.029876
0.015982
0.046271
-0.022731
-0.025192
0.012239
0.040665
0.023841
0.012528
-0.036486
-0.039804
-0.002758
0.024639
-0.008731
0.015594
0.021164
-0.002003
0.024855
0.027386
-0.009712
0.025243
-0.038171
-0.014367
0.013704
-0.010133
0.006522
0.024643
0.031209
-0.032439
-0.009243
0.020065
-0.000861
-0.016491
0.010130
-0.010562
0.007837
-0.004362
0.041141
-0.009379
0.024606
-0.003453
0.041979
0.011441
-0.035757
-0.000421
0.026540
-0.002472
0.017798
0.018758
0.000059
0.036915
-0.024577
0.006786
0.044331
-0.001274
-0.003234
-0.025734
-0.017245
0.037603
-0.018033
-0.002893
0.019494
0.002329
0.033600
0.031824
0.034999
0.039229
-0.023830
-0.000330
0.006958
-0.009558
-0.040749
0.034347
0.011496
-0.038713
0.004193
0.015905
0.018739
0.028693
0.037061
-0.012404
0.019329
-0.039009
-0.007745
0.047916
-0.040035
0.036596
0.039255
0.022420
0.032678
-0.026291
-0.014378
-0.011558
0.021925
0.046323
0.012561
0.046279
0.004559
0.016531
-0.037914
0.031868
0.029078
-0.006248
-0.040159
-0.033461
0.014268
-0.037786
-0.016494
0.002977
-0.005988
0.030436
-0.027968
-0.013707
-0.030044
0.023921
0.025328
-0.002336
0.041928
-0.035538
0.046132
-0.038768
-0.009371
-0.035684
0.037808
0.000806
-0.000806
0.039405
0.022420
0.028814
-0.008339
0.029264
-0.031513
0.005050
-0.017523
-0.029242
0.030806
-0.006812
0.025214
-0.026814
0.022907
0.014107
0.005024
-0.035999
-0.038845
-0.006962
-0.035519
-0.051285
0.001945
0.032747
0.041529
0.025646
-0.018992
-0.024163
0.002391
-0.041763
-0.000154
-0.007753
-0.047850
-0.051420
-0.024196
0.012426
-0.013191
-0.008449
-0.017260
0.036849
0.010496
-0.019149
-0.025247
0.042016
-0.044385
0.009840
0.036061
-0.043499
-0.018922
0.010756
0.021640
-0.016007
0.032861
-0.018904
0.010833
-0.007559
0.012594
0.020860
-0.046118
0.005914
0.028792
0.001366
-0.021812
-0.004651
-0.004948
-0.006467
-0.035746
-0.040049
0.014799
0.029605
-0.037925
-0.005416
0.017952
-0.020691
-0.007288
0.013616
-0.028792
0.007160
0.033685
-0.015077
-0.007328
0.035519
-0.030488
-0.002032
0.002296
0.004244
-0.029594
-0.030513
-0.001809
-0.031689
0.003135
0.018446
-0.035735
0.018527
-0.019875
-0.004321
0.014129
0.007460
-0.021204
-0.023262
0.044704
0.019124
-0.030795
-0.016304
0.028704
0.022376
0.007130
-0.003278
-0.042547
0.015370
-0.012254
-0.023537
0.018509
-0.026111
0.044777
0.034692
0.014513
0.040569
0.009613
-0.014466
0.031703
0.019494
-0.027137
-0.030597
0.015220
0.015022
-0.017047
-0.020164
0.012462
0.019131
-0.016923
0.022174
-0.040998
0.024123
0.016659
-0.011477
0.011455
-0.011671
0.008917
-0.025771
0.012279
0.009262
0.016586
-0.031213
0.019530
-0.014033
0.038804
0.022127
-0.017410
-0.007339
-0.036882
0.029649
-0.008720
-0.017117
-0.026694
0.014198
0.021471
-0.036775
-0.012224
-0.019688
-0.032996
0.025002
-0.004501
-0.012276
-0.008650
0.033582
-0.002036
-0.036710
-0.041350
0.002461
0.011942
-0.022270
-0.040668
-0.038200
0.039984
-0.041214
-0.030059
-0.017187
-0.022943
0.041866
-0.000234
-0.022288
-0.006167
-0.023211
0.018128
0.032795
0.039504
-0.013411
0.030905
0.033846
-0.016835
0.003457
-0.017285
0.026587
0.018252
-0.017615
-0.010188
0.022526
0.002585
0.024266
-0.015832
0.018721
-0.019292
0.029257
0.003995
-0.011400
0.010144
0.036761
0.043041
0.042195
0.029825
0.029938
0.047656
-0.043093
0.026375
-0.032619
0.008844
0.019168
-0.007288
0.023507
0.034157
0.034856
0.041448
0.015938
-0.045550
0.008357
-0.010976
-0.014528
0.054687
-0.006874
-0.041536
0.014180
0.017838
-0.012990
0.004259
-0.041207
-0.029425
-0.033443
0.019073
-0.013290
0.006845
-0.003743
-0.014484
0.026067
-0.013411
0.024764
0.030623
0.005413
-0.040584
-0.039676
0.028957
-0.026917
0.036797
0.036006
0.027854
-0.033058
0.030118
0.028829
0.019732
-0.015839
0.002150
0.001589
0.031454
0.021764
-0.012986
-0.019278
0.019702
0.016337
-0.027276
-0.078975
0.042976
0.020131
0.014096
0.003190
-0.019853
-0.018963
0.031037
-0.013100
-0.004929
0.007324
0.030711
-0.026877
0.025793
-0.021512
-0.004486
0.035296
0.016161
0.034476
0.035637
0.031286
-0.014528
-0.021186
0.110477
0.008463
0.022903
0.046403
0.033487
0.020450
0.009452
-0.042089
0.003523
-0.027558
0.004343
-0.037837
-0.001322
-0.034860
0.015209
0.021695
-0.020475
-0.037845
0.016084
-0.040295
-0.013795
0.041375
0.010917
0.008331
0.007870
-0.030726
-0.005361
-0.006306
-0.000897
0.035142
-0.033670
0.023551
0.023020
0.022171
0.038262
-0.016670
0.039108
-0.017974
-0.039559
0.002109
0.031213
-0.027408
-0.027074
0.033058
-0.041119
0.004512
0.044096
-0.028100
-0.015630
-0.052592
-0.012133
0.015454
-0.000524
0.020772
-0.001014
0.009386
-0.038658
-0.008786
0.031447
0.037343
-0.008123
0.023511
0.019160
-0.040987
0.012473
0.014312
0.000015
0.022757
-0.009273
0.001051
0.024551
-0.003062
-0.016612
0.001293
0.041075
-0.018428
0.028125
-0.034022
0.017941
-0.009144
0.020182
-0.014198
-0.027693
0.012869
-0.029477
0.002673
0.016212
-0.039687
-0.035585
-0.027851
0.028946
-0.041170
0.039251
-0.019106
-0.002142
0.039017
-0.025818
0.003981
-0.010375
-0.033307
-0.041042
0.005592
-0.006658
0.036812
-0.013927
-0.042408
-0.032798
-0.003508
-0.008478
-0.026675
-0.045041
0.025470
-0.013085
-0.007324
-0.012422
0.051175
0.010119
0.023976
-0.044305
-0.038068
0.003560
-0.038072
0.002461
-0.022163
-0.008434
-0.002596
0.002542
-0.023262
0.036380
0.028078
0.028594
0.025137
0.018344
0.001875
-0.018871
-0.028243
0.006383
0.030315
-0.034626
0.013784
-0.036222
0.032857
-0.029272
0.025782
-0.029546
-0.030964
0.011558
0.010203
0.024280
0.012034
0.032245
-0.014916
0.027144
0.006548
0.006438
-0.020893
0.033183
0.030828
0.035076
0.014791
0.013473
0.036995
0.004244
0.012642
0.024027
-0.012356
-0.039398
0.035717
0.006863
0.036508
-0.032941
0.030557
-0.040255
-0.028510
-0.033425
-0.020655
-0.007050
0.032992
0.015568
-0.045678
-0.033864
-0.028726
-0.000253
0.000198
0.000194
0.012730
-0.030041
-0.013004
0.036753
0.023778
-0.016168
-0.025932
-0.030066
-0.034941
-0.014363
0.012580
-0.005347
-0.000612
-0.032157
-0.004259
0.035779
-0.011144
0.021900
-0.038306
0.028960
0.042470
0.032428
0.034325
0.010016
0.029642
0.018835
-0.022669
0.003223
0.027748
-0.013198
-0.041877
0.008903
0.036014
-0.021259
0.018109
0.033055
0.042412
-0.022174
0.008057
0.016974
-0.031659
-0.025950
0.033168
-0.020409
-0.027481
0.001472
-0.016209
0.008024
0.016374
-0.033633
-0.019325
-0.019347
0.033377
-0.016549
-0.002725
-0.037885
-0.053936
-0.022947
0.000670
-0.019358
-0.034908
0.006911
0.030920
0.023621
-0.010049
0.009163
-0.030700
0.021859
-0.022629
-0.020127
0.020259
-0.090474
0.030660
0.000319
0.031769
0.033154
0.041148
-0.014597
0.006314
-0.020120
-0.016216
-0.010269
0.006764
0.018406
-0.011085
0.031696
0.010866
-0.035322
0.015692
0.008394
0.046663
0.000879
-0.019717
-0.027148
0.037925
0.042763
-0.001688
0.043781
0.008936
-0.061751
-0.033025
-0.030081
0.025203
0.001216
-0.002498
0.004523
-0.034714
-0.010225
0.004581
0.021211
-0.010565
-0.028792
-0.066574
-0.002941
-0.006672
0.007797
-0.023855
0.023976
-0.021936
0.023548
0.015930
-0.029257
0.009727
0.015857
-0.018754
0.008903
-0.006383
-0.041002
-0.026108
0.031652
-0.040624
0.011005
0.008145
-0.034249
0.038108
0.016297
0.036907
0.031674
-0.011107
0.015081
0.020050
-0.033802
0.038361
-0.036131
0.009617
0.015092
0.033487
0.040049
0.024507
-0.043785
-0.002293
-0.021116
0.009756
0.024690
0.014440
0.041163
0.037834
-0.030638
-0.004790
-0.042206
-0.017483
-0.012788
0.034304
-0.000121
-0.023057
-0.018256
0.013572
0.009397
-0.003655
0.006921
0.005687
-0.038771
-0.009760
-0.042184
-0.012990
0.032289
0.044924
0.013491
-0.036896
0.038863
-0.002677
-0.007225
-0.035860
0.006716
-0.027488
0.038108
0.023903
0.017000
0.002933
0.015059
0.020281
-0.006160
-0.018139
-0.015956
0.017769
-0.029539
0.032956
0.022079
0.000004
0.003003
0.037175
0.005848
0.010221
-0.015183
0.042789
-0.039496
0.030176
-0.033234
0.029623
-0.005534
-0.014129
-0.037252
0.042272
-0.009357
-0.020673
0.017018
-0.017340
-0.002000
-0.040295
0.008430
0.037559
0.006856
-0.004878
-0.031919
0.013858
-0.019479
0.020508
-0.040423
-0.032227
-0.012781
-0.011778
0.033769
0.019040
0.032432
0.023233
-0.013843
0.011858
0.039584
0.012404
-0.035776
0.011939
-0.015308
-0.012968
-0.014264
0.037076
0.038563
0.022709
-0.029363
-0.009434
-0.022753
-0.010540
0.010650
-0.016315
-0.027675
0.034703
-0.003710
-0.038218
0.000154
0.016538
0.011038
0.010745
-0.019783
-0.006163
0.036318
-0.007625
0.010064
-0.025115
-0.007859
0.011518
0.021764
-0.019596
0.014356
-0.008269
0.007841
-0.019823
-0.020431
0.031026
-0.024665
-0.035816
0.006669
-0.000044
0.043778
0.004175
0.011151
-0.021292
0.019127
-0.022504
-0.033326
0.007431
0.009815
0.030777
0.058877
0.000919
-0.034575
-0.044210
-0.037779
-0.033311
-0.040526
-0.000959
0.018505
0.024584
-0.033260
0.017007
-0.010756
0.031513
0.006511
0.001377
-0.017055
-0.003435
-0.010386
-0.041141
-0.025401
0.019402
0.012591
0.017091
0.039171
-0.024504
-0.030861
0.013396
0.041320
0.025141
-0.033307
-0.008643
-0.039346
0.042239
0.025756
-0.011745
0.014407
-0.024958
-0.020072
-0.031048
0.031839
-0.041544
0.042247
0.039702
-0.016245
0.017930
-0.016809
0.004190
-0.041976
-0.009335
0.037325
0.012078
-0.004874
-0.031469
-0.031377
0.032553
-0.022416
-0.021896
0.020732
-0.019955
0.041763
-0.027778
-0.035959
-0.031473
-0.024628
0.023896
-0.041965
-0.004230
-0.027334
0.013792
0.035450
0.036845
-0.034150
-0.007390
-0.006757
0.010137
-0.029858
0.016018
-0.032487
0.005446
0.024427
-0.005691
0.018201
0.041763
0.010796
0.003175
0.039141
0.008185
-0.035388
0.015604
-0.005208
-0.028686
-0.013114
-0.040108
-0.040683
0.009529
-0.031802
0.009705
0.038749
-0.018798
-0.023819
-0.007918
0.023277
-0.041928
0.025873
0.025646
0.018241
0.037537
-0.005805
-0.019776
0.002278
0.040489
0.002000
0.042888
0.010423
0.041697
-0.000817
-0.029169
-0.041540
0.019490
-0.009115
0.004819
0.024515
0.032363
-0.038984
0.008646
-0.041668
-0.014773
0.015872
-0.040833
-0.036508
-0.027045
-0.021424
0.014184
-0.020021
0.002029
-0.025397
-0.036417
-0.001289
0.041481
0.013334
-0.023852
-0.028594
0.022596
-0.005039
-0.006266
0.018706
-0.038856
-0.013924
0.010976
-0.025401
0.044829
-0.030755
0.021907
-0.009148
0.012382
0.026932
-0.010108
0.026049
-0.030817
-0.026353
0.002194
-0.039149
-0.004435
-0.030704
0.028184
0.027821
0.028777
0.026620
0.015037
0.023028
-0.015623
-0.022687
0.031341
-0.034355
-0.005691
0.027525
0.023112
0.015476
-0.043752
-0.018538
0.007573
-0.009122
-0.011583
-0.034882
-0.025972
-0.043195
-0.044415
0.011799
0.021050
-0.034238
0.008086
-0.011913
0.010723
0.014385
-0.027778
0.036508
-0.008071
-0.021944
0.005662
0.004219
-0.034878
0.024309
0.036076
0.033003
0.021936
-0.010071
-0.006500
-0.032135
0.002955
-0.039573
0.015183
0.012184
0.035160
0.040064
-0.000974
0.029444
0.039559
0.009965
-0.039987
-0.017293
-0.031268
0.017912
0.002842
-0.006779
-0.045913
-0.012356
-0.038614
-0.027789
-0.002651
-0.001802
0.021431
-0.004428
0.036017
-0.009650
-0.043957
-0.000831
0.004816
0.031993
0.023149
0.023288
-0.039185
0.061876
0.003677
0.011173
0.044228
-0.019992
0.010441
0.003106
-0.005380
0.022596
0.019369
0.025917
0.009511
0.031019
-0.028865
-0.046766
-0.035113
0.013283
-0.045517
-0.001534
0.004907
0.007427
0.001000
0.022112
0.031857
-0.007529
0.019190
0.011792
0.024123
0.040489
0.025686
0.029308
-0.026503
-0.008438
0.015260
0.006654
0.004010
-0.018234
0.026715
-0.024925
-0.034428
-0.037325
0.036688
-0.033663
-0.040829
-0.041642
0.022749
-0.022566
0.039599
-0.021277
0.039266
0.027155
-0.029609
-0.030348
0.017029
0.014605
0.022654
0.009262
-0.026507
-0.040778
-0.041320
0.019391
0.006654
-0.020219
0.005940
-0.027613
0.010192
0.026368
0.014187
0.001007
-0.012594
-0.026873
0.006804
0.004336
-0.031418
0.015711
-0.017853
-0.031696
-0.008884
0.003131
0.035798
-0.023830
-0.010770
0.041057
0.030077
-0.008438
-0.019201
0.037742
-0.020168
-0.014165
0.043279
-0.041243
-0.004263
-0.034717
0.001600
0.019091
0.021339
-0.019783
-0.035490
-0.027931
0.010869
-0.031989
-0.014513
0.025313
0.031414
0.031443
-0.002336
-0.023841
-0.033003
-0.006812
0.001293
0.038654
0.043873
0.026496
-0.012298
0.006358
0.024804
-0.038409
-0.022618
0.031703
0.042320
0.009459
0.039811
-0.009547
0.019289
-0.002018
-0.002824
0.038270
0.018395
0.043455
-0.040749
0.015974
0.035919
0.027001
-0.013861
-0.015678
-0.024291
-0.001285
-0.037764
-0.034388
-0.042650
0.005801
0.036644
-0.004329
-0.033992
0.029707
-0.014356
0.018886
-0.004948
0.035655
-0.001604
0.043008
0.001165
0.041119
0.031019
-0.028931
0.044741
-0.012836
-0.027085
-0.014000
0.034285
0.023471
0.035754
-0.048846
-0.030733
-0.022859
0.048575
0.022541
-0.001099
0.036578
-0.016853
-0.036574
0.033110
0.037457
0.007442
-0.010705
-0.047696
0.004680
0.033483
-0.012038
-0.026869
0.032568
-0.007507
-0.030455
-0.033483
0.031363
-0.044561
0.019988
-0.020274
-0.017816
0.012437
-0.011243
-0.021863
0.028957
0.011309
0.011334
-0.007178
0.025097
0.037164
-0.038497
-0.002238
0.033212
0.011309
0.023764
0.028426
-0.037925
-0.007332
-0.012503
-0.041954
0.034750
-0.000110
-0.008324
0.032692
-0.025009
0.034835
0.033893
0.006526
0.007302
0.003856
0.011162
0.003644
0.015520
0.009701
-0.018175
-0.018556
0.032674
0.039533
-0.035684
-0.035659
0.026851
0.032439
-0.001340
-0.025686
-0.024540
0.017663
0.005563
-0.024613
-0.019604
-0.019157
0.010503
0.007910
-0.037281
0.009496
0.054544
-0.003190
-0.038636
-0.011942
-0.026895
0.035003
0.025837
-0.034772
0.001677
0.039379
-0.028642
-0.005182
-0.023691
-0.008441
-0.006522
-0.037885
0.023643
-0.017187
-0.012766
0.032941
0.012528
-0.016366
0.018113
0.022358
0.010496
-0.022116
0.020955
0.011272
0.035355
-0.011030
-0.030601
-0.033985
-0.008284
-0.022925
-0.030206
-0.021460
0.026715
-0.044938
-0.007203
-0.004281
-0.001622
0.040434
-0.021032
0.010045
-0.006735
0.006409
-0.012118
-0.038365
0.041496
0.000787
-0.035431
0.001666
-0.048081
0.011869
-0.007786
0.019750
0.006130
0.031037
-0.023236
0.017190
0.037574
-0.032033
0.020556
-0.017205
-0.034673
-0.003886
0.011331
0.032912
-0.016773
0.036948
0.018047
0.011712
-0.002087
-0.010503
-0.034296
0.026847
-0.017904
-0.042675
0.033655
0.027752
-0.042474
-0.035552
-0.014916
-0.025518
0.034875
0.025298
-0.033941
0.002252
-0.007577
-0.036296
0.021288
0.026188
-0.020043
0.008606
-0.000253
0.016465
-0.036329
-0.030158
-0.015062
0.015209
0.038101
0.008064
0.031440
-0.016132
0.028228
-0.023526
0.025324
-0.036182
-0.034937
0.030861
-0.032396
-0.036841
-0.001135
0.011591
-0.000121
0.087888
-0.043594
-0.025946
-0.041368
-0.040650
-0.013858
-0.042470
-0.008873
0.033106
-0.014722
-0.014165
-0.002875
0.029037
-0.001051
0.024969
0.012938
0.012829
0.008811
-0.007661
-0.004545
0.034629
0.012843
0.010748
-0.047172
-0.031938
0.037735
-0.000106
0.017077
0.023317
-0.042877
0.034033
-0.045096
0.034120
0.001501
-0.026741
-0.002285
-0.038716
-0.011975
0.002629
-0.011397
-0.019439
-0.043715
-0.001692
-0.043034
-0.008046
-0.034014
0.036647
-0.042785
0.008881
0.038881
-0.033227
0.003124
-0.032110
0.038885
0.040562
0.010891
-0.020091
-0.020233
0.007782
-0.031758
0.039346
0.028111
-0.034395
-0.019552
0.055463
-0.000220
0.036219
0.019512
0.012096
0.024698
-0.028880
-0.002908
0.019765
0.011862
-0.029616
0.019241
0.012781
-0.007669
0.015656
-0.045532
-0.028085
-0.043250
-0.008097
-0.004186
0.000667
0.031718
0.023969
0.037215
-0.011942
-0.005046
-0.019801
-0.005215
-0.019347
0.013004
-0.006222
-0.013532
-0.020435
-0.026968
-0.030744
0.008844
0.033827
0.033132
-0.005065
0.031487
-0.013048
-0.029404
-0.010690
-0.038061
-0.016029
-0.002974
0.024566
0.014755
-0.024573
-0.027100
-0.019523
-0.001586
0.017480
-0.027745
0.009111
0.003208
-0.016557
0.036281
-0.007398
-0.028561
-0.004025
0.029729
-0.026119
-0.016443
-0.014696
-0.037907
0.002648
0.007888
0.034772
-0.030729
0.021955
-0.017633
0.042507
-0.004691
0.030011
0.001029
0.005955
-0.016963
0.008742
-0.006108
-0.028232
0.030997
0.027624
0.021358
0.014217
-0.034629
0.014704
0.033062
-0.004135
0.003442
-0.010302
-0.013283
0.020640
-0.007705
-0.034443
0.020640
-0.020486
0.000938
0.022716
0.015846
0.011250
-0.032571
0.017447
0.001172
0.025478
0.022002
-0.031224
0.004010
-0.013217
0.025848
-0.010968
0.026968
-0.042042
0.005065
-0.031077
-0.031282
-0.015169
0.011840
-0.020347
0.040690
0.029436
0.024646
-0.011459
0.014136
0.014055
0.022390
0.010719
-0.046224
-0.057657
-0.014964
-0.037131
-0.015000
0.007866
-0.005922
0.037248
-0.034736
-0.024628
-0.013781
-0.020541
-0.020124
0.011225
0.073265
0.004603
0.028708
-0.044481
-0.022387
-0.040049
0.029594
-0.044367
0.016780
-0.020933
0.017370
-0.031019
-0.006548
-0.038555
0.001234
-0.034241
0.006174
0.002472
-0.008742
-0.037827
-0.013766
-0.016549
-0.030022
-0.014649
-0.013726
0.007097
0.000938
-0.003431
0.021541
0.000333
-0.010206
0.041848
0.033663
-0.030312
0.011477
0.011071
-0.022453
-0.025232
-0.035560
-0.030257
-0.011682
-0.053072
-0.022592
-0.020827
0.039200
-0.010214
-0.018139
-0.040192
-0.044173
0.022921
0.001285
-0.093638
0.040493
0.023474
-0.029257
-0.022101
-0.038108
0.003201
0.013440
0.030169
-0.006255
-0.007313
0.025295
-0.005394
0.006050
0.004098
-0.005614
0.021889
-0.042401
-0.021014
0.003259
0.004772
-0.011657
-0.008057
0.036142
-0.035724
-0.006526
-0.039013
0.035483
0.025313
-0.041892
0.027393
0.039998
0.014755
-0.025800
0.016234
0.014176
0.033868
0.027485
-0.032959
-0.046444
-0.015487
0.014425
-0.029495
-0.034736
0.004860
0.004446
-0.026097
-0.001047
0.028345
-0.038032
-0.023057
0.041452
-0.037380
0.036442
-0.038412
0.026899
0.011715
-0.015293
0.004940
-0.010144
0.012814
-0.017095
-0.039570
0.012807
0.034040
-0.014693
0.038544
-0.011257
-0.037903
0.027554
0.018000
-0.009046
0.000670
-0.015392
0.006409
-0.015685
-0.028883
0.025089
-0.036926
-0.041002
0.029913
0.000886
-0.008917
-0.023724
-0.034567
-0.029275
0.009602
-0.023833
0.037980
-0.000948
0.023515
0.022182
0.023815
-0.041035
0.005889
0.015561
-0.029209
0.018633
-0.040255
0.012155
0.030762
0.001249
0.033692
0.033820
0.002670
-0.011078
-0.039669
-0.038079
0.023734
-0.011071
0.018900
-0.004973
0.036164
-0.041481
-0.001318
-0.032908
0.006995
-0.034011
0.001556
-0.034047
0.002208
-0.019644
0.001919
0.017721
-0.037958
-0.008027
0.014762
-0.010650
0.006090
-0.000601
-0.037566
-0.008734
-0.008167
-0.002673
0.005497
0.011660
-0.023987
0.007390
-0.047348
-0.012484
0.013744
0.043170
0.032963
0.043638
0.026159
-0.001915
-0.021925
-0.028081
-0.005145
0.039995
-0.015088
-0.010855
-0.016740
-0.005504
-0.020032
0.045451
-0.037248
-0.004937
0.010730
0.016245
0.042910
-0.034033
0.004501
-0.021691
-0.019325
0.023984
-0.029184
0.000934
-0.008302
0.043734
0.014348
-0.025203
-0.012982
-0.004146
-0.034926
0.035757
0.002168
-0.007991
0.013729
-0.005548
-0.009522
0.019743
0.012909
-0.043023
-0.029733
0.004918
0.024258
-0.025368
-0.032535
-0.005687
-0.009133
-0.034695
-0.023976
-0.017567
0.000579
-0.005651
0.038603
0.008884
-0.037599
0.036808
0.026397
0.031550
0.001765
-0.042924
-0.040580
-0.000883
0.021643
-0.036600
-0.038369
-0.003329
-0.025617
-0.042020
-0.029228
-0.024031
0.012052
-0.015993
-0.010371
-0.040906
0.026060
-0.042430
-0.039581
-0.014982
-0.030319
0.012239
-0.021065
-0.023793
-0.035856
-0.017963
0.036493
-0.029107
0.004651
0.004856
0.039057
0.007229
0.043137
0.035516
0.008364
-0.031106
0.031681
0.019816
0.009375
0.020893
0.020662
0.019138
-0.041756
-0.023167
0.071024
0.021918
-0.036618
0.017674
0.002615
0.013510
0.041031
-0.018249
-0.055680
0.017150
-0.025892
0.007053
0.024463
0.000941
-0.027345
0.010518
0.031952
-0.019322
0.015249
0.031689
-0.020127
0.009639
0.033348
0.071570
-0.038138
0.025811
0.011492
0.018179
0.007134
0.024207
0.028602
-0.041284
0.024412
-0.004786
-0.045480
-0.004050
-0.024976
-0.040925
0.029616
0.034164
-0.041119
0.026917
0.009298
-0.001644
-0.005065
-0.023936
0.023467
0.028807
0.008983
-0.006196
-0.017113
0.010412
0.003798
0.042825
-0.025258
0.012825
0.037581
-0.024635
-0.028129
0.005189
-0.000656
-0.027349
-0.042390
0.034249
-0.034362
0.008174
0.015403
-0.017421
0.027730
-0.043968
0.029627
0.011664
-0.007515
0.011261
0.030209
0.029367
-0.038123
-0.035761
-0.017172
0.018728
-0.023086
-0.008313
0.003680
-0.033714
0.017187
-0.037416
-0.025020
0.041708
-0.013488
-0.040895
-0.015883
0.008159
0.032949
-0.002882
0.030755
-0.045854
-0.034087
0.007691
-0.016619
0.005837
-0.038533
0.025635
-0.007654
-0.036017
0.015465
-0.030352
0.044803
-0.024222
0.017187
0.022870
0.018633
0.038683
0.031227
0.005962
-0.043580
-0.037061
0.038079
0.032740
0.036878
-0.038969
0.019461
-0.007434
-0.016549
0.001879
-0.036808
0.028843
-0.029147
-0.001963
-0.119998
-0.007083
0.040537
0.028840
0.007606
0.042778
0.017751
0.050523
0.008328
-0.001278
-0.119998
0.015396
-0.004578
-0.005636
-0.038076
0.026529
-0.033337
0.002882
-0.035897
-0.042708
-0.026536
-0.042642
-0.012466
0.082772
0.027913
-0.031744
0.009199
-0.033289
-0.013620
0.001377
-0.010448
0.036885
-0.000341
-0.000634
0.023500
0.036197
0.037647
-0.003937
0.045294
-0.008148
-0.034904
-0.022138
0.025481
-0.036918
0.028173
-0.037098
0.047784
-0.039075
-0.040808
0.006519
-0.011485
0.057621
-0.009646
-0.041192
0.042195
0.015465
-0.045129
-0.027400
-0.021014
-0.003043
-0.003461
-0.036120
-0.031788
-0.012693
0.022658
-0.038885
-0.005215
-0.042675
0.009218
0.017527
-0.004387
0.016725
-0.003190
-0.013986
0.092294
-0.020017
0.039072
-0.038138
0.001516
0.024174
0.015846
0.018076
-0.014605
-0.031916
-0.035552
-0.019556
0.014008
-0.017117
0.010338
0.023134
0.010529
0.002271
-0.037896
0.034022
0.010726
0.030553
-0.013689
0.012016
-0.040137
-0.002670
-0.035783
-0.023233
-0.023218
0.000747
0.025928
-0.005885
0.005350
-0.046722
0.035193
-0.028865
-0.045806
-0.025602
0.007017
-0.015641
0.011225
0.022511
0.023599
-0.001659
0.005046
-0.009628
-0.019322
0.014964
0.019677
0.030162
0.001483
-0.032289
0.007771
-0.018000
0.033403
0.008657
-0.049447
0.036999
-0.024972
0.024126
-0.037512
-0.002285
0.010313
-0.008566
0.008057
-0.062429
-0.026053
-0.014217
0.031583
0.002856
-0.012821
-0.027074
0.003995
-0.038585
0.022039
0.032916
0.037552
-0.021427
0.030553
-0.031875
0.003146
-0.033846
0.018274
0.011906
0.019699
0.005900
-0.038900
-0.044627
-0.043159
-0.036706
0.040906
-0.014667
-0.001168
0.028913
-0.028664
0.008079
-0.027657
-0.018194
0.005200
0.024130
0.030920
0.040200
0.024844
0.007606
-0.037380
-0.062726
0.028429
0.036431
-0.004362
0.000044
-0.000579
-0.021090
0.015026
0.002824
0.019955
-0.001304
-0.026836
0.021343
-0.002153
0.013469
-0.024613
-0.044536
0.027909
-0.015539
-0.026957
-0.015154
0.016297
0.006720
0.031857
-0.023500
-0.042199
-0.040361
0.019142
-0.027781
-0.000864
0.001882
-0.019036
-0.004559
0.028818
-0.001190
-0.026851
0.120000
-0.036087
0.029660
-0.009130
0.006046
-0.009229
0.038585
-0.031458
0.026331
0.017377
-0.037878
-0.004977
-0.028558
-0.026236
0.021783
-0.023566
-0.006614
-0.011818
-0.003706
-0.018772
0.012041
0.002102
0.018336
-0.003563
0.037057
-0.031810
0.039068
-0.009258
0.024262
0.008617
-0.039467
0.001344
0.041148
-0.032923
0.018439
0.038900
-0.042305
-0.021552
0.024478
0.007995
-0.016883
-0.006731
0.038735
-0.028470
0.038618
-0.010646
0.031619
0.032670
0.030586
-0.023463
0.027074
0.006654
0.009203
-0.020640
-0.037610
0.000161
-0.026818
-0.004373
0.021186
-0.033597
-0.031443
-0.032663
0.011979
0.036493
-0.001348
-0.011730
-0.043177
-0.045733
0.028096
-0.033282
0.035838
-0.031681
0.004501
0.005801
0.024742
-0.041229
-0.022874
0.005783
0.035113
-0.047062
-0.017560
-0.016487
-0.018673
-0.045162
-0.013850
-0.043994
-0.014766
-0.030660
0.007361
-0.007793
-0.015132
-0.011550
-0.044858
0.002549
0.005812
-0.041818
0.005911
-0.020080
0.020358
-0.019684
-0.029722
-0.033443
0.006244
-0.017505
0.022563
0.043821
0.041910
0.001838
-0.004622
-0.031377
0.037164
-0.027851
-0.003966
0.051040
-0.014348
0.014868
-0.034860
0.020688
-0.039412
-0.009306
0.022834
-0.011884
-0.040914
-0.006848
-0.040749
0.008350
0.011862
-0.016875
0.005526
0.017234
-0.041734
-0.032267
0.026104
0.017707
0.001860
-0.018567
-0.031418
0.004329
-0.029539
0.006207
0.004995
-0.011232
0.010598
0.034139
0.026181
-0.008786
0.010869
-0.022640
-0.018999
-0.030422
0.012840
-0.024782
-0.013023
-0.011078
-0.016300
-0.007804
-0.012682
-0.010562
0.015604
0.027001
-0.007328
-0.024840
-0.013436
-0.009236
0.040368
-0.035992
-0.017143
-0.029224
0.012689
0.015546
-0.033110
-0.026250
0.019135
-0.008240
-0.036439
-0.002084
0.058723
0.003270
-0.002043
0.058265
-0.045715
0.030605
0.038826
0.010726
0.019113
-0.016406
0.012382
-0.006449
0.042031
-0.038328
0.011580
0.021006
-0.034355
-0.009390
0.008742
-0.041313
-0.020735
-0.026078
-0.003523
0.003398
0.008573
0.023225
0.042928
0.000652
0.037640
-0.006383
0.006130
-0.013744
0.031062
0.005772
0.039028
-0.048762
-0.000875
0.009214
-0.007625
0.040218
0.004222
-0.014645
-0.021658
0.005504
-0.043825
0.019948
0.027349
-0.020054
0.014000
0.029982
0.012301
-0.043594
-0.008899
-0.024588
-0.014989
-0.028429
0.028312
-0.081135
-0.038332
0.012418
-0.029557
-0.023203
-0.028411
-0.017139
-0.003959
-0.008170
0.037127
-0.031253
-0.023449
0.015817
-0.026745
0.037940
-0.010488
0.039877
0.026554
-0.031125
-0.038757
-0.017923
0.026214
-0.035959
0.108748
-0.011543
-0.042635
0.020138
-0.026752
-0.042943
-0.011452
-0.007445
0.012056
-0.017150
-0.001871
0.007936
0.013891
-0.036717
-0.000073
-0.002120
0.033882
0.014462
0.003560
-0.033161
0.017670
-0.002333
-0.025035
0.019644
-0.035138
-0.028631
-0.026214
0.013144
0.038929
-0.023471
-0.014202
-0.011668
0.037647
0.033322
-0.012268
0.016901
0.036508
-0.009536
-0.014162
-0.033296
0.004552
-0.040895
-0.008778
0.031674
0.005925
-0.031235
-0.024046
-0.008244
-0.011858
0.026474
-0.005647
0.016322
0.040917
-0.039753
0.019457
-0.033183
-0.013122
-0.039592
-0.008870
-0.039024
-0.011602
-0.023775
0.008449
-0.039713
0.010181
-0.005636
0.028177
0.009789
-0.005391
-0.028034
0.034772
0.026803
-0.001241
-0.040683
0.003047
0.007009
-0.000773
-0.029070
0.020160
-0.021277
0.036783
-0.038123
-0.028979
-0.021534
-0.032729
0.029165
0.000286
-0.002296
-0.007910
-0.009474
0.013784
-0.015905
0.001472
0.003490
-0.022032
0.006782
0.004651
0.038317
0.037153
-0.022522
-0.006449
-0.021695
0.026408
-0.007383
-0.013920
0.018377
-0.042298
0.015099
-0.015055
0.002249
0.018787
-0.024309
0.012092
0.010423
0.028206
-0.003988
-0.020874
0.027657
-0.009910
-0.012854
0.019439
0.032927
0.036995
-0.035648
-0.010232
-0.025390
-0.008665
0.026071
-0.017223
-0.039138
0.025122
0.027723
0.014810
-0.000502
-0.004014
0.040716
-0.006599
0.009826
-0.000897
-0.032787
-0.005468
-0.002626
0.055716
0.025155
-0.020263
0.008214
0.018787
-0.031901
-0.014923
0.018714
-0.012865
0.012612
0.004376
-0.027181
0.030506
0.012070
0.011624
0.027279
0.034487
0.012598
-0.031890
-0.015930
-0.040936
0.027052
0.004201
0.027155
-0.016868
-0.033560
0.039518
-0.059957
-0.024906
0.000007
0.016282
0.034428
0.004753
0.030890
0.020376
-0.047216
0.025005
0.040386
0.001051
0.021852
-0.041412
0.019728
0.020190
0.023976
0.035285
-0.040610
-0.025492
-0.004142
-0.006848
0.041371
0.044788
0.033256
0.029532
-0.040148
0.040547
0.036702
0.028235
-0.045557
0.019633
0.039724
-0.017556
-0.024313
0.040950
0.004277
0.026748
-0.029528
0.018073
0.026115
-0.042364
0.013689
0.026767
-0.031216
-0.043638
-0.000135
0.031758
0.021006
-0.010639
0.008467
-0.016923
0.040478
0.019168
-0.034966
0.039529
0.029301
0.030228
-0.035340
0.000751
-0.037548
-0.041174
-0.001571
-0.033882
-0.037848
-0.035563
-0.034589
0.008760
0.032516
-0.039866
0.023855
0.040507
-0.013982
0.015194
0.082329
-0.038629
0.007295
-0.031004
-0.023493
0.010335
-0.004841
0.019413
-0.009071
-0.004142
-0.054130
-0.008233
-0.029583
-0.023789
-0.036541
-0.034831
-0.008005
-0.030242
0.007694
0.018135
-0.007442
0.002531
-0.015363
-0.042950
-0.007339
0.028514
-0.025873
-0.016542
0.033491
0.029653
-0.000886
0.001139
-0.019362
0.032410
0.011466
-0.001377
-0.026602
0.015154
-0.031546
-0.002336
-0.022742
-0.004863
0.011118
0.034256
0.023727
-0.033190
-0.003798
-0.007540
-0.047290
-0.000498
0.030429
-0.009943
0.032505
-0.027799
0.051545
-0.029360
-0.032205
-0.045001
0.011642
0.035113
0.018271
0.017670
0.021977
-0.000502
0.012481
0.034446
0.020098
-0.027100
-0.032190
-0.026792
-0.010774
-0.006423
0.000978
0.039024
0.029151
-0.031854
-0.007460
-0.009207
0.018483
-0.024767
0.043814
0.018234
-0.036175
0.031912
-0.000641
-0.020589
0.042917
-0.026144
0.003344
0.003959
0.001710
0.002384
-0.019032
0.019878
0.014751
0.018849
0.036512
0.007192
-0.035992
0.000732
0.016747
0.041701
0.040229
-0.025723
0.040745
0.026276
-0.007687
-0.016011
-0.018875
0.021870
-0.037947
-0.024859
-0.034728
0.031103
0.039628
-0.035589
-0.005120
0.003018
-0.058496
0.004406
-0.011518
0.025126
-0.025111
-0.039394
-0.012027
0.023240
-0.038332
-0.040445
0.005955
-0.027375
0.034915
0.003959
-0.012602
-0.009987
0.025060
-0.028349
0.023683
0.031612
0.031484
-0.007848
0.029224
0.043404
0.038863
-0.002036
0.029638
0.002124
0.026646
0.028774
-0.019007
0.030916
-0.033945
0.023749
0.012060
0.043569
0.036743
0.042986
-0.014422
0.038248
-0.038021
0.009467
0.032846
-0.031894
0.002274
-0.038087
0.041137
-0.010679
-0.036266
0.023233
-0.001663
-0.013327
0.029447
0.022797
0.027283
0.035117
-0.021566
-0.020622
0.013660
-0.012305
-0.019904
-0.011225
0.009415
0.027217
0.036113
-0.028949
0.034377
0.038130
-0.015846
-0.005973
0.036226
-0.041046
0.028466
0.031645
-0.002970
0.041243
0.035318
0.033853
0.025236
-0.018369
-0.000201
0.027371
-0.001344
-0.016128
-0.036874
0.033831
-0.039658
-0.042873
0.041708
-0.004992
-0.037665
-0.038112
-0.036208
0.027353
-0.008672
0.033121
0.008547
-0.001729
-0.040126
-0.034743
-0.035995
-0.013081
-0.030074
0.023236
-0.020647
0.032396
-0.008324
0.026862
0.020984
-0.028429
-0.019171
0.003801
0.040412
-0.023929
-0.015550
-0.026441
0.000842
-0.004900
-0.022449
-0.036263
-0.029671
0.012151
-0.042924
0.033582
0.016055
-0.027023
-0.010210
0.020424
0.048480
0.021742
-0.031930
-0.044539
0.030352
-0.024591
-0.004691
-0.026412
0.018553
-0.031363
-0.016238
0.030004
-0.015557
0.038870
0.023343
0.021621
-0.013235
0.020673
0.037424
-0.003728
0.016469
0.041507
-0.035582
0.002714
0.017469
-0.038786
0.016308
0.025353
0.040178
0.010287
-0.003959
0.014579
0.032146
-0.010181
0.020138
-0.001187
0.005065
-0.007489
0.035549
0.032319
-0.027931
0.019168
-0.042199
0.000828
0.009401
-0.008632
-0.028400
0.037669
0.003728
-0.026199
-0.044470
-0.045576
-0.023145
0.015824
0.032026
-0.035065
-0.001461
-0.027133
0.006548
0.000813
-0.038087
-0.044129
0.027759
0.018358
0.041496
-0.003966
-0.025675
0.042364
0.031253
-0.015861
-0.030989
-0.023691
0.025174
0.007138
0.028001
-0.014927
-0.023119
0.032392
0.013898
-0.011803
0.021211
0.008643
0.028975
-0.017710
0.031711
-0.026155
-0.001912
-0.043096
0.030184
0.012133
-0.020596
-0.033480
-0.019530
0.010001
0.033238
-0.037237
-0.017146
0.003955
0.024090
-0.039775
0.039749
0.037369
-0.042609
-0.018736
0.023888
0.002304
-0.039101
-0.000886
-0.021248
-0.011008
-0.034087
-0.037193
0.033055
0.030499
-0.023918
-0.031048
0.008416
0.020629
-0.037973
0.012982
0.012345
-0.006412
-0.041668
0.018208
0.019860
0.033967
-0.002304
0.008064
0.039808
0.034314
0.037182
0.019263
-0.005735
-0.007625
-0.030385
0.049044
-0.048619
-0.029257
0.022482
-0.009796
-0.000681
-0.003344
0.004662
0.008489
-0.015051
-0.039211
0.019666
-0.003790
-0.026569
0.018117
0.014982
0.023830
0.025818
0.011225
0.004757
0.034908
-0.017069
0.022526
0.025328
0.003208
0.037153
-0.019750
-0.001051
0.035146
0.017615
0.028711
0.042133
0.021347
-0.028312
0.013605
-0.030257
-0.037834
-0.026613
0.002263
-0.018856
0.034897
0.018487
-0.024569
-0.043455
-0.030997
0.028081
0.012883
0.000868
-0.027283
-0.021929
0.028938
-0.019014
0.006032
0.011825
-0.022837
-0.030077
0.016055
-0.020530
-0.000740
-0.020673
-0.033578
-0.008749
-0.009965
0.037332
-0.039196
0.026170
-0.037039
0.045374
0.029986
-0.001161
0.016586
0.002391
0.040247
0.030751
-0.011935
0.029642
-0.037479
-0.017732
-0.034036
-0.023518
0.003673
0.027909
-0.021889
-0.039387
0.004735
-0.007665
-0.013158
0.020805
0.036845
-0.018776
0.031762
0.038907
0.033853
-0.040526
0.011748
0.009928
0.000428
-0.002974
-0.042108
-0.024712
-0.012147
0.042042
0.031835
-0.012913
-0.015553
-0.017051
0.032619
-0.009306
0.038215
-0.022350
-0.020343
-0.011243
-0.023800
0.015227
-0.039632
0.020219
-0.013528
0.001487
-0.038306
0.002479
-0.002186
-0.027997
-0.017531
0.021991
-0.008789
-0.023687
-0.001000
0.033220
0.011767
-0.002289
0.041291
-0.059455
0.018172
0.009328
-0.035962
-0.003970
0.009708
0.003684
-0.008141
-0.009580
-0.018227
0.034527
0.023870
-0.026485
-0.011682
-0.021208
0.016710
0.009734
0.024577
0.027426
0.030546
0.030949
0.028316
-0.019864
-0.032472
-0.012327
0.008485
0.014583
0.038189
-0.010818
0.038896
-0.016264
-0.016282
0.018395
-0.002274
-0.034274
-0.013766
-0.004592
-0.003014
0.042770
0.006687
0.031868
-0.038804
0.009254
-0.016806
0.020552
-0.044111
-0.031333
0.000989
0.041950
0.037398
-0.021566
-0.027693
-0.003534
-0.031048
-0.019516
0.035897
0.041474
-0.009653
0.032297
0.038716
-0.018501
0.048311
-0.030304
0.026642
-0.087269
0.033069
0.005391
-0.023434
-0.013301
-0.041397
0.022500
0.036647
-0.034516
-0.017128
0.017121
0.004827
0.019014
0.074444
-0.035109
-0.006255
-0.031114
-0.012905
-0.015147
-0.034798
-0.029847
-0.036940
0.018073
0.017176
-0.011693
-0.017245
-0.044645
-0.013147
0.012858
0.007943
-0.018889
-0.016656
0.015670
0.041844
0.020911
0.013748
-0.014136
0.013433
0.002684
0.024617
-0.006090
0.010518
-0.015220
-0.021372
-0.005534
0.010283
0.024493
-0.010243
-0.006390
-0.012367
0.022969
0.029806
-0.033505
0.015084
0.040771
-0.029081
-0.039255
-0.010862
-0.002897
0.032916
-0.005482
0.017187
-0.058496
0.025240
0.059983
-0.011778
-0.009496
-0.043481
-0.027854
-0.034029
-0.032458
-0.027986
0.010606
0.029327
-0.033688
-0.040156
-0.034263
-0.028814
0.007332
0.005757
-0.035530
-0.006068
-0.018856
-0.034120
-0.038603
-0.042723
0.000176
0.011214
0.004922
-0.017974
-0.014052
0.007171
-0.041016
0.001926
-0.034388
-0.040786
0.034106
-0.037431
-0.002369
0.032663
0.050369
-0.003768
0.005991
0.029759
0.040800
-0.022837
0.024606
-0.026715
-0.031502
-0.018725
0.009441
0.042543
0.016868
-0.001674
0.010195
-0.013290
0.007822
0.038987
0.012810
0.017088
0.024478
-0.004977
0.001362
-0.005841
-0.037501
0.022757
0.021881
0.021867
-0.019058
0.037900
0.003274
0.028843
-0.037402
-0.033326
-0.025851
-0.037856
-0.041360
0.031081
0.015253
-0.022621
-0.015626
-0.089426
0.022262
-0.035439
0.033736
0.024134
-0.009610
0.028470
0.002706
-0.006566
0.023756
0.004918
0.037977
0.038603
-0.013623
0.036120
-0.031403
0.041133
-0.041251
0.036211
0.018520
0.029524
-0.000798
0.023606
0.022467
0.032776
-0.023438
-0.030920
0.000337
-0.037208
0.018076
0.026133
0.029242
0.012470
-0.001758
-0.028733
-0.010159
0.020201
0.001963
0.030817
-0.038841
0.021739
-0.000092
-0.039892
-0.029070
-0.004420
0.016846
0.035062
-0.034084
-0.049729
-0.004127
-0.027646
0.006705
0.003395
0.003234
-0.002651
-0.026320
0.033047
-0.026554
0.033666
0.038090
0.011876
0.033359
-0.016385
-0.017652
-0.018970
0.000524
-0.036607
0.004072
-0.009492
0.041203
0.007855
0.035442
0.032839
-0.002472
-0.014063
0.032670
-0.019142
-0.014293
-0.031103
-0.006749
-0.012975
0.016271
-0.040965
-0.015454
-0.011942
-0.010580
-0.045107
-0.001945
0.015165
0.041221
0.007724
-0.003215
-0.033534
-0.019882
-0.034498
0.029803
-0.033150
0.040793
0.007559
-0.034992
-0.038475
-0.002347
-0.005859
0.003673
-0.009467
0.041130
-0.032216
-0.005050
-0.007163
0.014553
0.012770
-0.006343
0.021900
0.034831
-0.017685
0.017718
0.007365
-0.019073
0.030810
-0.036933
-0.003732
0.007954
0.001278
0.011906
0.001512
0.033915
0.018941
0.022716
-0.119998
-0.007914
0.038738
0.002523
0.018897
-0.021138
0.012250
-0.038101
0.019146
-0.037493
-0.023171
0.005739
0.005680
-0.018944
-0.010646
0.001124
-0.006647
0.004083
-0.003768
-0.023361
0.015531
-0.008775
-0.034706
-0.020362
0.028536
0.037405
0.021061
-0.038376
-0.017447
0.042265
-0.004746
-0.024222
-0.005739
-0.023339
0.018824
-0.035838
-0.021984
-0.016311
0.034369
0.042130
0.015619
0.012250
0.026214
-0.024390
-0.008786
0.001329
0.008778
-0.014458
0.007548
0.033915
-0.034366
-0.008361
-0.001802
-0.019757
0.014689
0.013946
0.040346
-0.010071
-0.040610
0.008496
-0.011990
-0.029971
0.029154
-0.038889
-0.027481
0.019611
-0.004252
0.017472
0.038438
0.007603
-0.001432
0.017520
0.026379
-0.020482
-0.036464
0.011752
-0.040331
0.003556
0.034461
-0.001062
0.017644
-0.021680
0.025024
0.004028
-0.011972
0.033813
-0.018824
-0.030755
-0.019530
-0.030228
0.006768
-0.042023
0.032044
-0.012942
-0.014528
0.038665
0.016414
-0.022976
-0.001256
0.038958
0.024654
0.031685
-0.009811
0.034274
-0.004523
-0.021640
-0.024507
0.023317
-0.001794
-0.021552
-0.033853
-0.037281
0.006786
-0.057188
0.022189
0.026119
-0.041672
-0.031319
0.029510
0.017681
-0.002600
0.033241
0.028279
0.007031
0.028649
-0.036391
0.005325
-0.004706
-0.006189
-0.039467
0.014535
0.013671
0.031615
0.030524
-0.013649
-0.039899
-0.006632
-0.049047
-0.046876
-0.016714
0.026232
-0.036457
-0.002692
-0.045294
-0.037233
0.034754
0.035109
0.038907
0.034596
-0.015553
-0.012616
0.037632
0.016443
-0.023053
-0.027503
0.009994
0.016707
-0.011704
-0.014187
0.009617
-0.039745
0.024101
-0.013583
0.013784
0.039064
-0.039896
0.034637
-0.025833
0.022643
-0.027756
-0.007412
-0.040353
-0.034344
-0.011745
0.010606
0.007192
-0.009591
0.037332
-0.038464
-0.002183
0.041419
-0.036526
-0.033395
0.008181
0.017619
-0.040489
-0.016729
0.032601
0.039112
-0.006456
-0.014832
-0.027038
-0.007892
0.032949
0.013843
0.024401
0.027254
0.025331
-0.037827
0.013524
-0.016758
0.035651
-0.035794
0.002175
0.040218
-0.014140
0.047667
0.020830
-0.006222
0.004885
-0.036710
-0.014176
0.019798
-0.031557
-0.041280
-0.027078
0.034721
-0.004233
0.022002
-0.027836
0.008397
-0.003274
0.002688
-0.012664
0.038493
-0.033106
0.024357
0.031044
-0.005958
0.032099
-0.018937
0.020852
-0.013513
-0.001919
0.001157
-0.032472
0.019472
-0.005900
0.024881
0.021768
0.014308
-0.060484
0.034007
-0.085336
0.004098
0.019237
-0.041529
0.033545
-0.035827
-0.029323
-0.026020
0.005867
0.013352
-0.036310
0.009320
0.024610
-0.003032
0.023017
0.025646
0.019062
-0.033296
-0.001798
-0.013858
0.028426
-0.028759
0.026825
0.013755
-0.007954
0.016872
0.006101
-0.035765
-0.015352
0.025705
0.009049
-0.010895
0.038757
-0.017029
-0.030883
0.042521
-0.034622
-0.028426
0.032040
0.002150
0.016066
-0.040811
0.025932
0.009848
0.033948
0.004786
-0.028089
0.038885
-0.022204
-0.020567
-0.016513
0.014934
-0.035106
0.042159
-0.108290
-0.030649
-0.036365
-0.015275
-0.042086
-0.013341
-0.023984
-0.006852
-0.010364
-0.040599
0.025079
-0.037365
0.007489
-0.014213
-0.016575
0.031429
0.023225
0.016216
-0.018977
0.015982
-0.032959
0.044070
-0.031224
0.015436
0.023852
-0.025071
0.021706
0.021123
-0.030143
0.013521
0.011397
-0.009115
-0.010455
-0.034472
-0.035530
-0.032820
0.026294
0.051007
-0.007745
-0.019838
-0.025694
0.042195
0.024222
0.018168
-0.035073
-0.018186
0.017794
0.041851
0.003904
-0.018018
0.033556
-0.042979
-0.039522
-0.008628
-0.002011
-0.020281
0.012422
0.023669
-0.034681
0.009778
0.038889
-0.024705
-0.019267
-0.034186
0.027759
0.030806
-0.031791
-0.001285
0.008313
0.028517
0.033527
0.002435
-0.028407
-0.009862
0.012591
-0.010529
-0.043397
-0.017209
0.033132
0.013085
0.016765
0.038797
0.037592
-0.037098
0.029136
-0.025463
0.045272
-0.021043
-0.033941
-0.014663
0.018739
0.035490
-0.001036
-0.022471
-0.008716
-0.037068
-0.017154
-0.013341
0.023090
0.008031
0.013012
-0.004900
-0.026221
-0.024610
0.015004
-0.040042
0.032861
-0.040262
-0.021233
-0.044272
-0.006716
-0.010642
0.021468
0.007815
-0.011887
-0.000615
-0.027411
0.021460
-0.002728
-0.020534
-0.006361
0.037094
-0.011719
-0.039046
0.041602
0.039182
-0.019138
0.008961
0.019765
-0.036808
-0.003127
-0.002732
-0.009328
-0.025785
0.006815
0.015952
-0.033216
-0.014795
0.032154
0.009397
0.017681
-0.038123
-0.003618
-0.003219
0.001967
0.009379
-0.016092
0.037186
0.005566
-0.030616
0.026606
0.046729
0.010573
-0.025957
0.029462
0.011723
-0.031436
0.011100
-0.024650
-0.022614
-0.034296
-0.013484
0.032857
0.012862
0.035464
0.013089
-0.009994
-0.024965
0.014744
0.001915
0.031498
0.029502
-0.031293
-0.037545
-0.000996
0.042005
0.014971
-0.005647
0.007588
-0.028085
-0.029136
-0.014993
0.030634
-0.017241
0.012876
0.006885
-0.008925
0.035193
-0.015612
-0.042785
0.002311
0.013158
-0.043144
-0.024244
0.032791
0.021277
-0.026258
0.004197
0.034106
0.010609
-0.003666
0.009265
0.111319
0.011283
0.037885
0.017945
0.005603
-0.026950
0.011496
0.018252
-0.042639
0.009353
0.031744
0.004834
0.021464
0.045667
-0.022984
-0.042060
0.034564
-0.016615
0.030755
0.017033
0.040108
-0.021779
0.039973
-0.026858
-0.001670
-0.046132
0.026606
0.008276
-0.035501
0.019659
0.022786
0.018897
-0.019864
0.008676
-0.030660
0.028385
0.038174
0.042155
0.029938
0.038043
-0.028638
-0.019842
-0.039368
0.033154
0.023108
0.032070
0.026752
-0.019538
-0.019922
-0.025892
-0.002867
0.033241
0.035666
-0.027565
0.085881
-0.022716
0.016015
0.011173
0.019003
-0.032114
0.005061
-0.014348
0.017769
-0.006533
0.035937
-0.006618
-0.005735
0.011821
-0.002161
-0.001967
0.028854
-0.005394
-0.014759
0.024156
0.016721
0.008313
-0.038010
-0.040478
0.020995
-0.036179
-0.021295
-0.027492
0.028060
0.027177
-0.000989
-0.010591
-0.016754
0.001190
-0.028268
0.007863
0.042053
-0.025500
0.013385
-0.027408
-0.010060
0.015301
-0.024211
-0.028265
0.012704
-0.043931
-0.019091
0.001857
-0.013253
-0.036585
-0.020911
-0.032879
0.013338
0.024258
-0.005761
0.010965
0.042785
-0.019640
-0.024760
-0.008822
-0.010620
0.016070
0.015304
-0.034509
-0.044030
0.014638
0.023398
-0.023822
-0.027924
-0.032026
0.017187
-0.022727
-0.000297
0.027188
-0.064187
-0.025496
-0.037651
-0.040756
0.034252
-0.030616
-0.034684
-0.034109
0.006445
-0.040976
-0.020530
0.039343
-0.009203
-0.016300
-0.025251
-0.006347
-0.008639
-0.025016
-0.033044
0.043162
-0.007214
0.029275
0.026214
-0.024515
-0.018703
0.008496
0.025664
0.027239
-0.024137
-0.001216
-0.019486
0.017542
-0.025771
-0.001857
-0.001318
0.024782
0.023683
0.000754
-0.005867
-0.000736
-0.043049
-0.064560
0.036904
-0.034717
-0.002681
0.018391
-0.008170
-0.008884
0.008786
-0.018380
-0.005643
0.041423
-0.026697
0.032026
-0.047165
-0.000410
-0.029572
0.008958
-0.036552
-0.032187
-0.000615
0.012697
0.032634
0.027309
0.022127
-0.035380
0.005614
-0.037211
-0.000370
-0.010796
0.038295
0.031868
0.020142
0.018139
0.026173
-0.011961
-0.012528
-0.032905
0.010437
0.036190
-0.004464
0.022632
-0.041009
0.016428
0.013393
0.037673
-0.034930
-0.010159
0.026723
-0.009668
-0.029517
-0.007694
-0.013631
0.000472
0.034618
-0.001827
-0.019607
-0.003047
0.022991
-0.037479
-0.025617
-0.029136
0.025254
-0.041027
0.004545
-0.029316
0.026309
0.019146
-0.009943
-0.002351
0.017989
0.036867
0.032172
0.032699
-0.032853
0.009474
-0.021233
0.006387
0.010477
-0.007149
-0.038958
-0.024606
0.013180
-0.017897
0.011767
0.019809
0.016634
-0.032139
0.030993
0.053834
0.031923
-0.012964
-0.042602
0.020845
-0.000029
-0.009917
-0.013202
0.014689
0.026543
0.036508
-0.042386
-0.010005
0.020702
0.022145
0.006237
0.006057
0.011008
0.019801
0.021665
0.010192
0.026005
-0.013656
0.006383
0.030000
-0.015132
0.020237
-0.043961
0.021424
-0.003867
0.024829
0.027807
0.031062
-0.016927
-0.005618
-0.012964
-0.012990
-0.036314
-0.029579
0.010097
-0.017857
0.021933
0.017505
-0.013477
-0.021673
-0.028283
0.016879
0.022940
0.004299
0.000059
-0.005259
0.038083
0.033282
0.018043
0.022837
-0.014846
-0.026888
-0.029283
0.040328
-0.028433
0.017677
0.000645
-0.035248
0.028166
0.034113
0.022618
-0.030729
0.028766
0.021889
-0.036959
0.032740
-0.020244
-0.018677
0.025426
-0.008427
-0.038035
0.027360
-0.012422
0.033205
0.031594
0.016575
0.003179
0.038592
0.031985
-0.006200
-0.005563
-0.022449
-0.023368
0.018410
-0.011616
0.000282
-0.038079
-0.038006
0.041360
0.025979
0.030110
0.005508
0.018293
0.000161
0.036226
-0.012715
-0.029583
-0.000198
-0.010470
0.001403
0.035263
-0.018853
0.033410
0.002798
0.040742
-0.023057
-0.039471
0.004314
-0.016879
-0.030378
0.028433
-0.036541
-0.004808
-0.008808
0.034637
-0.010792
-0.018351
-0.011924
-0.018875
0.022185
-0.038046
0.017230
-0.119233
-0.009269
-0.004347
0.014535
-0.005944
-0.033154
0.026419
-0.039174
0.020472
0.019333
0.024672
0.019490
-0.036907
-0.119998
0.000304
0.007848
0.006889
0.006229
-0.003669
0.032850
0.021665
0.021090
0.037285
0.003091
-0.025240
0.044129
0.043455
0.015861
-0.026470
-0.031055
-0.013173
0.036885
-0.013462
0.038167
0.032414
-0.007262
-0.032505
-0.013257
-0.024038
0.025664
0.020574
0.037281
-0.003845
0.036669
0.016974
-0.003285
-0.018835
-0.010020
-0.027935
0.000509
0.011605
0.033729
0.038570
0.016769
0.001025
-0.006336
0.013341
-0.042133
0.016062
0.028726
0.008562
0.030041
0.005819
-0.021654
-0.042232
0.005534
-0.031828
0.002703
-0.040258
0.002886
-0.035545
-0.034607
-0.021706
0.025218
0.019406
-0.009210
-0.023299
-0.049908
-0.002747
-0.042049
0.001106
0.025672
-0.010554
-0.026034
-0.007266
-0.026968
-0.028019
-0.031652
0.006431
-0.018399
0.031637
0.006936
-0.032084
-0.022156
-0.035875
0.004091
-0.011236
0.036266
0.018835
-0.004226
0.009057
0.000992
0.010466
0.032685
0.028323
-0.045404
-0.042965
0.022691
-0.033102
0.023434
-0.027935
0.009921
0.022746
0.036603
-0.008862
0.025240
0.033652
0.000557
0.005079
-0.030469
0.040994
-0.006006
0.033732
0.035325
0.010858
-0.007416
-0.014711
0.034362
-0.090650
0.023405
-0.006354
0.005497
-0.023874
0.030154
0.034695
-0.030403
0.043049
-0.051369
-0.027268
0.026353
-0.003549
0.033414
0.024533
-0.004091
-0.021922
0.038361
0.025382
-0.008317
0.024632
-0.024756
-0.018955
0.017758
0.012334
-0.025866
-0.020684
0.036805
-0.008456
0.038218
0.033897
0.022812
0.009108
0.038541
0.002703
0.041368
0.013187
-0.016927
-0.011173
-0.046711
0.013894
0.032582
-0.039654
-0.026902
0.024269
0.012019
0.010243
-0.001190
0.007489
-0.038072
-0.023852
-0.007760
-0.018835
0.035853
0.085215
-0.025602
-0.003849
0.040569
-0.024910
0.001311
0.019992
0.010507
-0.013664
-0.023225
-0.003380
0.022427
0.034047
-0.012019
-0.000059
0.011170
-0.000612
0.007855
0.037995
-0.018871
-0.024628
0.013356
0.013045
-0.119998
-0.041932
-0.010170
0.029063
0.010628
0.021427
-0.026291
0.033366
-0.044162
-0.004072
-0.021944
-0.005167
-0.023650
0.036124
0.021178
0.029089
-0.037343
0.026104
0.038940
-0.019637
-0.004907
0.011030
-0.003783
-0.035091
0.037680
0.034695
-0.025815
0.014711
-0.008522
-0.028243
-0.018128
-0.012290
0.004439
0.041994
-0.005900
0.000469
-0.004951
-0.015993
-0.007559
-0.025690
-0.038369
-0.038233
-0.040126
0.006021
0.004625
-0.017699
-0.038303
-0.010965
-0.010745
-0.001110
-0.044869
-0.049505
-0.019073
-0.037805
-0.031963
-0.001245
0.037299
0.004706
-0.027726
0.043430
0.029876
0.019014
-0.038823
0.024595
-0.013645
-0.028623
0.001066
0.038218
-0.041002
0.010148
0.020292
0.014066
-0.021054
0.016652
0.007775
-0.023562
0.005530
0.012818
0.007112
-0.005332
0.035860
0.022229
0.011858
-0.038002
-0.009064
-0.036413
-0.004168
-0.014894
-0.015872
-0.003219
0.038995
0.028060
0.006764
0.032524
-0.006936
0.041602
0.006171
0.039643
0.041375
0.035779
-0.040079
0.002267
-0.009639
0.004266
0.000293
0.009232
0.012331
0.028905
0.028580
-0.027525
-0.031447
-0.044096
-0.014176
-0.048256
0.037219
-0.040972
-0.029715
-0.003058
-0.012645
-0.033879
-0.041382
0.018970
0.030297
0.031678
0.028166
-0.008244
-0.004750
-0.031410
-0.029605
0.042360
-0.039013
-0.043268
0.035831
-0.006911
-0.030938
0.040789
0.007185
0.026034
0.031275
0.021574
-0.019622
-0.019062
0.004856
0.002688
-0.000125
0.028979
-0.018582
-0.028345
-0.033392
0.028514
-0.044173
0.019538
-0.024104
0.015810
0.035970
0.015832
0.022101
-0.024515
0.014499
-0.004398
0.013631
0.021387
0.026181
-0.030151
-0.038123
-0.033318
0.027950
-0.044158
0.013019
-0.044920
0.038973
-0.020841
0.017344
0.014978
-0.021662
-0.016498
-0.032571
-0.034139
0.000385
-0.019794
-0.043778
0.021621
-0.006174
-0.013338
0.028971
-0.017718
0.025046
0.027137
0.010360
0.041452
0.016952
-0.001194
0.042829
0.029550
0.017077
-0.018827
0.011247
-0.023775
0.039068
0.010305
0.034937
0.001758
0.020149
0.029689
0.011019
-0.001022
-0.006621
-0.027415
0.007251
-0.041185
-0.016670
0.036175
-0.020519
-0.018190
-0.039024
0.023149
-0.018022
0.001860
-0.026477
-0.038427
0.030015
0.021735
-0.021794
-0.014015
-0.032388
0.039328
0.029477
0.000399
-0.036761
0.021369
-0.016454
0.011810
0.020424
-0.018651
-0.037841
-0.030572
-0.028700
-0.027441
-0.004340
0.014802
-0.021369
-0.011140
-0.008815
0.019966
-0.031974
0.043232
-0.024200
-0.034347
0.042946
-0.038354
-0.040515
-0.041540
0.006713
-0.025155
0.023610
-0.036647
0.022815
-0.001454
-0.025478
-0.013528
-0.039116
-0.005347
-0.008511
0.035355
-0.007083
-0.006076
-0.028957
0.022790
0.023742
0.023808
0.037636
0.000908
-0.041888
0.042990
-0.035029
0.019966
0.013729
-0.017311
-0.025833
-0.030879
-0.030249
0.025133
-0.013209
0.036845
0.030037
0.032688
-0.013792
0.023907
0.032377
-0.042668
-0.020453
-0.014586
0.005065
-0.031381
-0.013865
0.040965
0.039991
0.033326
0.031539
-0.036797
0.009639
0.042195
0.040229
-0.015106
0.003190
0.025899
0.025785
0.012697
-0.026492
-0.039463
0.028873
0.009730
-0.036373
0.006358
0.012627
-0.003062
-0.012012
-0.042137
0.014748
-0.021230
-0.011935
0.034736
0.010902
0.000875
-0.033666
0.029272
0.012455
-0.019347
0.021347
-0.009375
-0.008573
0.013836
0.029264
-0.026430
0.018871
-0.042258
0.000608
0.025954
-0.026598
-0.021647
-0.005032
0.004307
-0.010261
-0.027543
0.025397
0.001088
0.012188
-0.011049
0.012744
0.021391
0.037405
0.035999
-0.034875
0.036904
0.036830
-0.020962
-0.008870
0.021398
0.013436
0.018864
-0.042320
0.043071
-0.033696
-0.013894
0.012360
-0.028631
0.024229
0.011239
-0.009668
-0.045440
-0.009983
0.011785
0.022215
0.033989
-0.014715
-0.029810
-0.044213
0.012620
0.038665
0.017619
0.020417
0.013169
0.011953
-0.024657
-0.012979
-0.027181
-0.011367
0.015209
-0.017846
-0.045587
-0.042379
-0.040196
-0.013554
-0.040445
0.024921
-0.017282
-0.012155
0.013473
0.048044
-0.015901
0.014271
-0.031663
-0.001223
-0.012517
-0.031912
0.010895
-0.003274
0.012309
0.016428
-0.039244
0.015169
0.030392
-0.062949
0.017267
0.004603
0.011008
0.019633
0.015421
0.032546
0.031854
-0.039229
0.035135
0.038317
-0.016018
-0.041793
-0.018157
0.025708
0.011660
0.011140
-0.001392
-0.000989
0.007738
-0.070006
0.040767
-0.042587
0.047747
0.037731
-0.034336
0.004157
-0.036944
0.034095
-0.025397
-0.012733
-0.031982
-0.001597
0.012543
0.039442
-0.000795
0.022702
-0.019988
0.027657
-0.037446
0.018406
-0.024599
-0.033256
0.018190
-0.025639
0.010976
-0.005057
-0.006336
0.014583
0.018505
-0.015810
-0.029286
0.006332
0.001223
-0.016923
-0.042576
0.029026
0.031366
-0.017783
-0.036479
-0.040423
-0.009082
0.016223
-0.013781
-0.041990
0.040837
0.017747
0.027854
-0.042287
-0.023280
-0.017025
-0.035746
-0.040419
0.006570
-0.018168
0.027448
-0.018944
0.042672
-0.015077
-0.020259
-0.015897
-0.025397
-0.000948
0.023943
-0.020743
-0.032820
0.038720
0.041555
-0.014213
0.034314
0.030030
0.037940
-0.033674
0.034131
-0.032344
-0.026690
0.031374
0.039321
0.001512
-0.026591
0.026518
-0.040211
-0.023680
0.025492
-0.017648
0.005369
0.030813
0.036794
0.007566
0.020299
-0.027807
0.024108
0.001355
0.034992
-0.022603
0.039533
-0.000839
-0.007097
0.008712
-0.027931
0.023672
-0.023844
0.027140
0.016927
0.013451
-0.018582
0.001018
-0.039123
0.021958
0.013605
0.035314
-0.024148
0.005186
0.008873
0.013074
-0.032791
-0.006757
-0.010089
-0.026108
0.039815
-0.007478
0.023892
0.007420
0.037973
-0.017183
0.041525
0.034271
-0.041500
-0.029396
-0.032000
0.031912
0.017740
-0.010807
-0.038218
-0.021625
0.039830
-0.008734
-0.040925
-0.040438
-0.009968
-0.006786
-0.020981
